1.739959474508990800e-01,-5.342285809982938449e-02,-4.524150800317504328e-02,-1.000266387170369031e-01,9.608291246332559266e-02,-2.221987358122633205e-01,1.833623800857812625e-01,-6.882309008524442606e-02,3.919956525785345258e-02,-1.494915349474782579e-02,1.556573935575091827e-01,-1.991451225641371336e-01,-2.547764417799558076e-02,-3.141604182331315248e-02,1.217225740097150344e-01,-1.010474476988064141e-01,-8.401192321649732925e-03,-7.612179763715483383e-02,1.449653730134224314e-02,6.860507499923995667e-02,-9.960699517852975027e-02,1.227826026832544853e-01,9.888266430224167125e-02,5.793304242133517218e-02,9.604658874801157153e-02,-5.802236101803893292e-02,-5.997837696536869635e-03,-8.657502811744480220e-02,-1.609147034247138466e-02,6.405552846334221229e-02,-6.007595064437563914e-02,-2.888255494791457101e-02,-6.045208195727391765e-02,-7.652649471703190653e-02,-5.895479669134218864e-02,8.987374349851038127e-03,-1.051385267273461932e-01,3.001788358399317541e-02,1.745885057845771859e-01,8.250107025925662585e-02,-1.112899470776455672e-02,-8.055012693742977237e-02,-6.629980595024866086e-02,1.773042021906840737e-01,1.363502530017228140e-02,-5.503412177434947178e-02,2.790673611767162041e-02,2.195060568040928251e-01,1.968911332889221322e-02,6.939651699391853612e-02,3.797311470488809459e-02,-2.698459570324607260e-02,-1.067123744460213158e-01,-2.593092493335491175e-02,-1.189836784182413468e-02,6.482994681789910896e-02,9.119862291487434991e-02,1.001752105938958221e-01,3.966735149475950073e-02,9.573501364445735629e-02,-6.749191163277740158e-02,1.368427654500108670e-01,5.764586596037888505e-02,-1.725183271337555474e-02,6.121241860079332936e-02,2.739840259229272060e-03,1.240580145209916885e-01,1.619984852970518252e-01,2.243959820218957846e-01,-1.328676019108988027e-01,-1.386193178439704965e-01,-4.162591531980521647e-02,2.759546603843868878e-02,9.557647073467175070e-02,3.937319959056171520e-02,-1.947727160203575336e-01,-2.079833231476772501e-02,9.245779619087378387e-02,3.274033551659175090e-02,8.358902866830296430e-02,-1.467354764902904438e-02,-9.866473480277061781e-03,2.840931568243890842e-02,4.853880923108679774e-02,2.716601651689407732e-02,1.934556537193327097e-02,-5.843175250069120030e-02,4.690801488645705147e-02,2.132211401752227842e-02,1.243047700497703911e-01,1.301329298726282002e-01,2.882380347953191271e-02,-2.716401481487552144e-02,-5.506000586858438711e-02,5.149481531485597396e-02,1.578625950300762901e-02,-2.705956518125941443e-02,1.455706344242783425e-02,-5.502429978584901654e-02,7.717042211017982600e-02,-3.389524684569254764e-02,1.335575194605353178e-01,4.949025625548416490e-02,7.031731939081814486e-02,-1.005297717534193724e-01,2.581316172704558112e-02,8.301239732985067621e-02,-8.519169406351782825e-02,-1.938148007823799202e-02,1.058270636936744016e-02,-1.278842182417987972e-01,4.035276053560630377e-02,9.321538404701805447e-02,-7.714074289967852438e-02,4.374935600583448186e-02,-1.226663912426740333e-01,4.763729648139539835e-03,-1.524585220421789400e-01,1.216351260468845341e-01,5.100287458588980555e-02,5.695955531499295038e-03,-6.933842777563929693e-02,1.358536526566215819e-01,2.053365990372262584e-01,-1.777371936316206325e-01,1.339269975866032858e-01,1.730681586757795154e-01,4.028359311192261649e-02,-1.124470837952360469e-01,9.467220231036720113e-02,-6.649892245123548325e-03,-5.217906283016890412e-02,-1.143449772370553896e-01,6.644998112838504389e-02,8.636773187964898180e-02,-4.968883248983946288e-02,6.453167136108016455e-02,-1.039384629066815863e-01,9.141879381146227057e-02,1.486400971940549098e-02,-1.220084770956636304e-02,-2.757487177246182447e-03,9.340578739671195896e-02,8.441840369339016770e-02,6.373225029267938491e-02,2.155693522626807301e-02,1.546731602791436358e-02,6.927631724927983681e-02,3.305544209048215387e-02,8.002337866776919328e-02,-2.001723646772449877e-02,-2.363609124050927990e-01,1.111905007575457044e-01,2.284616480911688952e-01,5.369482974709099965e-02,-1.816586351596111192e-03,-5.857206771886880152e-03,-4.138360400354543570e-03,1.054939437026227757e-02,-1.030027690039790750e-01,-4.235211925052104892e-02,-8.973943206386018889e-02,3.445172795674612820e-02,-1.988736494882610215e-02,5.910901911307006595e-02,-7.930794228751479255e-03,1.082294649597227987e-01,2.995623006593610763e-02,2.277319485203583849e-01,-1.803497556206859753e-01,-5.688054002629454320e-02,9.787432532250728290e-02,2.633359216798195623e-01,-1.412993645387659696e-02,1.298047252409133961e-02,-1.183535489738686726e-02,1.430333142338400254e-01,-1.864976629262227528e-02,7.805604748428138229e-02,-2.280663112588840469e-02,-1.189563793567477296e-01,3.977769768143365331e-02,6.082389034516941934e-02,1.387896153830761869e-01,-1.778757577324880127e-03,-5.221539043851312206e-02,6.503767398872051242e-02,3.341933072285419026e-02,3.646783292431284712e-02,2.461953672629038636e-03,1.263761772103727254e-01,4.788397785548551000e-02,1.992100167624949458e-01,1.198960008616606759e-01,7.481911324045048550e-02,-1.536850528520296577e-01,6.900314258543020773e-02,5.435792111712327290e-02,9.333937921568385976e-02,1.110663620020996417e-01,-3.259163732198314817e-02,9.216482587315476260e-02,-4.461385821347182284e-02,2.050870303745402912e-01,-1.237084074263871125e-01,-1.657281835949416526e-01,-1.568128267050534208e-01,-7.677970621595492373e-02,-9.978477968543272847e-02,2.060012070274253870e-01,-2.143086478546963117e-02,-1.243277353419084963e-01,1.189225070041521198e-01,-5.022491639965364491e-02,-1.160060185602265065e-01,9.771153641665566991e-02,7.152275886217344947e-02,-3.620395083155165256e-02,1.478570938133529911e-01,2.016183599785246680e-02,1.711720873124830955e-01,6.327060247745386334e-02,1.678814000095674719e-01,1.770007275003550665e-02,-1.150930755888048829e-01,2.537043218393793542e-01,-4.575980595326213651e-02,-1.162649515224402005e-02,-6.230415859774749571e-02,-1.273330775894104122e-02,3.315665139929899197e-02,2.946533134614266747e-02,7.554944205367576660e-02,1.874107489728157605e-01,-3.424260371987869478e-03,-1.143765784535692304e-01,-1.099791705542370462e-01,-5.649638986514370076e-02,-1.575776083075612344e-01,9.173076081384932967e-02,-4.029863827686831074e-02,-2.281808140118159883e-02,8.161326817177867038e-03,-1.315784019280442085e-01,-7.650723548516087658e-02,7.731561066625930456e-02,6.953615081534532394e-02,-3.409141726306414572e-02,1.914925060312245853e-01,-1.197396792132074395e-01,-2.374798793709865033e-02,-1.561334054567000904e-02,-2.699526178272056987e-01,2.031722608224977578e-01,4.751923072440212420e-02,-9.479652358847176497e-02,2.147252137241185133e-01,6.843152736457076835e-02,5.136836680248086512e-02,-5.059714098887343331e-02,1.863013090026981178e-02,-1.422871848165117858e-01,9.021691599837095010e-02,-2.617092709439098122e-02,2.261740877529535773e-02,1.292635948481170860e-01,3.754575761493935543e-02,3.562157607946311866e-02,3.695063327344717818e-02,-5.969028419882164288e-02,9.708019468556809695e-02,1.610910714922049181e-01,8.351203507168770968e-02,9.923982970525646596e-02,-7.640781590719990246e-02,-7.610254799435747786e-02,-1.343387323021756896e-01,1.317992878981232574e-01,-1.598306609249555352e-02,1.512898506815286426e-01,-6.689927311761775797e-02,-3.343753621858013003e-02,2.005930575045465972e-02,1.015077148288775072e-01,1.455501222731410069e-02,3.037303537171363518e-02,1.043189682213403052e-02,2.846889892116628157e-02,-1.038426805213042148e-01,1.532312406008171264e-02,-1.169489271101776390e-02,1.809163551921639168e-03,5.827220842533820805e-02,-5.487371008891341745e-02,4.182713325399624142e-03,-2.211492219998239736e-02,4.939720063039205328e-02,8.636291033128631889e-02,-8.756859564003227625e-02,6.635465781878301106e-02,2.139080450738024830e-01,-1.399478854185321197e-01,-7.362222935706985716e-02,-7.815449780700187143e-02,-1.802343260886155041e-02,1.709025280569277105e-01,9.264104800606859022e-03,-6.115390792116837115e-02,6.899780276369057996e-02,-4.954365040576925311e-02,1.223698748973001127e-01,4.060498279502007535e-02,1.489369611843202879e-01,-5.758783914372914148e-02,3.117441980157826253e-01,9.107453143391923411e-02,7.394045091326588437e-02,3.788904440923231143e-03,-6.447402202318695819e-02,-7.736290857974491286e-02,-3.018590524047634095e-03,-6.881505229902223908e-02,3.916993058392901489e-02,-7.507061622708048609e-02,7.243869039568284762e-02,1.059593410525113133e-01,-6.006537262422298462e-02,1.289446284224053663e-01,-1.397041209032602940e-02,1.254029173088973270e-01,5.177121391439829662e-02,1.230386767893068001e-01,-9.181281308927614904e-02,-1.052670092747794378e-04,1.556243896378734781e-01,-5.090143690643239571e-02,-1.941827175995090027e-01,-1.851613853172212332e-01,-2.414032020180472138e-01,-2.018646137341708335e-01,-3.167665158179214235e-02,1.418271855789103586e-01,-3.052198340631839812e-02,3.993334679552382888e-02,-2.465141219400882565e-03,1.220646961856980406e-02,-6.301362483591498032e-03,-6.157270796053848118e-03,5.546954298246538351e-02,-1.106780068997445243e-01,1.114774856058140945e-01,1.020405951719207949e-01,-9.255163186148310586e-03,9.131504465754942956e-02,-6.091381332905512064e-02,-4.438279041838783662e-02,2.483456354765002996e-02,-9.321731642412312349e-03,-3.517045576838444265e-02,-5.585674625667444437e-02,-4.747932485767036165e-02,1.020048394693136434e-01,-1.865700111704401976e-01,4.364364655003908494e-02,-1.498018760910906251e-02,8.516038094689655502e-02,6.440163938040811831e-02,-2.703914539517054960e-01,6.637538467436164547e-02,4.025085761163977455e-02,9.960375361078042944e-03,-3.884022713383604442e-02,9.298895867103797175e-02,-3.384457029561044328e-02,1.937238060088855296e-01,6.720866589612986552e-02,2.242936845300171622e-01,-6.817032459030185343e-02,-1.676610083887429548e-01,7.978734774597515123e-02,9.280965144035671632e-02,1.388863896251816069e-02,-1.439100798887132104e-01,-3.396705359987139267e-02,7.203584502912030452e-02,-8.700086079132111558e-03,-2.965154341933135679e-03,-8.412096104325264556e-03,-8.595149242099914266e-02,-4.517851011114355775e-02,-1.336380375663275000e-01,1.854538790671017567e-01,-3.720588479186663633e-02,5.820788284846410005e-02,-9.171883417019002782e-02,8.853296941658878039e-02,-1.761805133314870986e-01,1.032798769541465045e-01,6.500898583287384284e-03,2.207952710558838405e-01,-1.206788838929581525e-01,1.746612591217991395e-02,4.484700080759995017e-02,1.345950915422114147e-01,-3.434484995572671673e-02,1.888644863568356841e-02,-2.045025554473396401e-01,-7.303155743291916968e-02,5.471450002541310143e-02,1.193687988910874243e-01,-1.890708010303821310e-02,2.151936861031724380e-01,1.856773311598179377e-01,7.275256269359561476e-03,-2.284038325195019148e-01,-1.688650486413690033e-01,-6.791950826304922473e-02,1.233487307467297373e-01,4.066585169226952928e-02,-1.983384105139583964e-01,-1.452937101354505323e-02,1.690179710668807955e-01,-2.638985629705851640e-02,-6.617394531194589757e-02,2.146925713737578567e-01,1.691673997950451230e-02,-3.971420410547226582e-02,4.506987065993693642e-02,1.133010677779384794e-02,-3.305655509862313185e-02,1.310546190095337460e-01,1.233102753154975556e-01,9.335245610652657955e-02,-1.460292446702281472e-03,1.233561039510388813e-01,4.050461730814498319e-03,5.528295296623859240e-02,1.142894546917740534e-01,9.347240393451064500e-02,1.863836888320885010e-01,5.282148399433442276e-02,-1.602953446250097169e-01,-1.083911487777994703e-01,1.444361913097176320e-01,-2.386262204601905315e-02,4.756084421571481202e-02,-7.369676494336875605e-02,1.119493515766170483e-01,-2.712344773012247481e-02,1.573754660549210593e-01,-4.487186619179375086e-02,1.204803649314555303e-01,7.634996818684632036e-02,-6.253819290907312867e-02,1.194351904326829000e-01,-7.891426962116658561e-02,-7.228657640543667551e-02,8.284838603796852718e-02,-5.412295488354538359e-02,-4.972095200893328348e-02,-2.753480514848257246e-02,-9.226416937017120623e-02,1.138536939367406353e-01,6.944084537731161355e-02,2.726902643585696253e-03,-1.226347639127825994e-03,5.468889427376678186e-02,1.866677410248694935e-01,9.879127122632834490e-02,-3.896689003002588164e-02,8.788047461122891479e-02,-2.145955839851161444e-03,-9.913429187755737684e-03,1.965307838187804468e-01,-3.332950552530340727e-02,-3.660479881375042904e-02,-1.868802261925133767e-01,-1.310106952694973237e-01,5.377538164219162337e-02,-6.079362201296004825e-02,6.060515057688154600e-02,-1.030612976156260463e-01,-6.782093270841277333e-02,7.670693631398545209e-02,1.554588646305634092e-01,7.105250648468518226e-02,1.312259704859945197e-01,1.804861818028321296e-01,1.150216434469347876e-01,-7.959976572639258785e-02,-1.015543028985454706e-03,7.326182454660828958e-02,-3.450240971692038888e-02,5.357232462326260575e-02,-1.469095822801608497e-01,-7.483708178802452038e-02,6.132960962547562289e-02,-2.115841541816209093e-01,-1.021572716581839735e-01,9.199547501280259248e-03,-1.622859168730747259e-01,1.546528640946865513e-02,-6.963349726355519409e-02,-1.748338205300209100e-02,-1.590621310917494230e-02,2.808197531017376028e-02,-4.720643940169572117e-02,1.796844272739067661e-02,-5.124262604075693200e-02,6.509332040166319888e-02,1.809599406634551932e-01,2.676380045232384930e-02,2.463252776922188192e-02,-1.083482613855029641e-01,7.653661230642742896e-02,-6.527283534175687407e-02,-7.036093490899206215e-02,6.572036132924104213e-02,3.085795996992183113e-02,1.236867511388586027e-01,1.566643201271685493e-01,-4.199416403846890217e-02,2.149060397432944747e-02,1.849205844380351071e-01,1.066362445854776575e-01,8.003683684386896091e-02,1.393638915971339431e-01,-4.929835437536469328e-02,7.300633307164508534e-02,1.520133645253295418e-01,1.707896153576012599e-01,-7.029178033766815548e-02,-1.823761286425805081e-02,4.598859984578000659e-02,-1.996723601936768733e-02,-2.982202176520484457e-02,7.728614984111750741e-02,-2.661596677716072251e-02,-1.697193486219580050e-01,4.718024163688490369e-02,-3.065517358586510380e-02,-6.096974602298063650e-02,-1.459799525152036814e-01,1.109481397165959088e-01,-2.129435265670364952e-01,-1.599761663449084104e-01,-1.884406303794786824e-02,1.337834284126320494e-01,1.400458484797712788e-01,-1.076272422378669880e-01,-1.025955934994756194e-02,-1.437290775909408069e-01,1.095316844135089396e-01,-1.398398539903731030e-01,-5.882093994994262026e-03,1.118805913026773569e-01,-1.340195027211094764e-02,1.570041764348748259e-01,-7.728160918193177631e-02,4.763802675340134823e-02,9.680541174473707156e-02,-1.318127740688504121e-03,1.487031653298092337e-01,6.397491855706660679e-02,-1.572386160829722102e-01,4.043679515932220303e-01,7.527717746990833514e-02,1.878877057879719745e-02,-1.315328248104070397e-01,2.007664990219152137e-02,-3.648342177805910524e-02,7.620292341648232659e-02,4.649254095886009436e-02,1.948131443464196089e-01,2.430370829076380912e-02,6.259758056002427684e-02,4.747888253817262455e-02,-5.850415575843244051e-03,-9.295257345136321778e-03,1.185553026764710471e-01,8.712772449076335024e-02,-5.467241102260347874e-02,-1.012798877180959151e-01,1.293336760414188396e-03,1.248454042917931661e-01,5.518958453317872846e-03,1.818688844477281963e-01,-6.634061484223784111e-02,2.532911950233095524e-02,-2.408672274426199023e-01,-4.572515580024336806e-02,-1.699239930757564035e-02,6.454929469406144038e-02,1.830743739682172688e-01,1.236944416789358125e-02,1.544880603836026045e-01,7.686896458947781174e-02,1.064894324740190829e-01,-3.856341771317468164e-02,1.492241170759973923e-01,-9.854290733246691414e-02,6.037399653604320210e-02,-8.525195790301613730e-02,-4.076778496123809742e-02,-1.388492970515021740e-01,-4.399315100783144500e-02,4.348963785445424807e-02,3.220382244871617707e-03,-1.255075651332765996e-01,1.561691954057718990e-01,4.335076874056543322e-02,1.127576275160034891e-01,9.018392010721230923e-02,-5.433033469837934143e-02,-1.836970862182773223e-01,-8.224582894903607888e-02,1.320432715036589655e-01,-9.553967427286685909e-02,9.019508620974521496e-02,-5.104140324544823720e-02,4.921241656480014603e-02,-1.751153777257633826e-01,1.239938038050906466e-01,2.923622886384457439e-03,9.660831673519233720e-02,2.676781352417538506e-02,8.797863816864172348e-02,-2.079887922512691553e-03,8.265775389337134960e-02,-1.425995979741017938e-01,-1.000409668794945833e-01,8.340274555034016268e-02,7.366910102683503145e-03,-1.018295084219505119e-02,-7.441047894450400144e-03,5.847089162592747358e-02,-5.192136590855436773e-02,5.917600736290069829e-02,-8.193168162811582944e-02,-3.235479021915654840e-02,1.070858576513402105e-01,1.180586446094627207e-01,-9.979019760362145552e-02,9.614371923790610008e-02,-9.477440994546365571e-02,8.243515728596703673e-02,-1.801741919651623225e-01,-1.011420334257880360e-01,-4.078989086114322149e-02,-8.224807912741254751e-03,1.506137346252546527e-01,9.831756332184082847e-02,1.671208628756766235e-01,1.286668627220279859e-01,-1.959680417915496062e-02,-1.710597638220365604e-02,1.170357201694738059e-01,1.307168105489943562e-02,-7.664034231448911376e-03,-1.223682591673994069e-01,3.516719484806176289e-04,-2.680717298664682668e-01,-3.109290435286372889e-02,-8.342989095286186541e-02,8.334403219660939388e-02,-3.571710757548064719e-02,-2.353248403119830023e-02,1.443849048115811717e-01,-9.402726822781609650e-02,3.977558132517775707e-02,-1.811333780057879095e-01,1.911794444584468192e-02,4.973533601857370312e-02,9.626721231030152537e-02,-7.855916358572212488e-02,4.381926661031170650e-02,3.919571163236321848e-02,5.346123873052307032e-03,2.364148184405390207e-02,5.678882895636377243e-02,5.042233938918280062e-02,-8.888685157278768123e-02,-1.083531624760543516e-01,2.635887029921071822e-01,2.034216344723656089e-01,-1.274715388827026286e-01,5.530809254486152016e-02,7.143653805447901239e-02,8.420074113308639863e-02,2.346187217412996559e-02,-8.443370844794355345e-02,-8.570104951012347261e-03,-3.844243955152450154e-02,2.140692955570869596e-02,-1.862098073928357411e-02,-5.198047393269033568e-03,1.107502473391759612e-01,1.319566044902771018e-01,-1.092891218526189506e-01,-3.725011553327492453e-02,-7.106082129880644804e-02,1.297473226866689422e-01,1.069052285331538801e-03,1.555247117540768387e-01,-3.714736195040663908e-02,1.474668293799074638e-02,-1.245231336061826122e-01,1.384910492947975802e-01,-2.811603966431332202e-02,-1.407932074408448364e-01,-5.031643866685577005e-02,-2.221056116301966532e-01,5.677702978978213348e-03,2.075437311161711790e-02,3.829945812049632969e-02,1.622644671998112464e-01,-2.111872340620556468e-02,8.959975568797048928e-02,4.046677027820139855e-02,-9.316651572565514544e-03,-1.976867083604156305e-01,1.025351634729207151e-01,-4.291043273853780565e-02,9.307826982187964587e-03,-1.169254197037066789e-01,3.688242736293000784e-02,1.864439956443765534e-02,1.380016049835749645e-02,-2.143131806901574146e-03,1.146501076508964628e-01,1.055425718147674496e-01,8.319105791884545686e-02,3.424023900576082524e-01,-4.936585797083963001e-02,-2.345043180867769153e-02,-8.695331365119066125e-02,5.765318946527163424e-02,-5.625573305839644267e-02,-2.596498821412845381e-01,-1.109540607781095006e-01,1.788417047425777673e-02,1.099003510338626838e-01,-1.467526436931179401e-01,-5.163866679715324592e-02,-4.760509058478946086e-03,-6.321063838207074959e-02,6.534088989275189940e-02,1.317748571544968827e-02,3.926362990782789747e-02,-6.589612875801108272e-02,1.634090439613785362e-01,1.059662219138189122e-02,1.415005823386234207e-01,-3.151476041718499765e-02,7.171987680855562708e-02,-5.440912673128830285e-02,-8.411694140188005764e-02,-5.958843529376776915e-02,4.398598527198513235e-03,-1.406024007853067144e-02,1.622204674049832762e-01,-1.062192573252979805e-01,-1.008935139285657423e-01,1.791259216025473666e-01,7.184233754343632983e-02,-1.799085992174050130e-01,5.832698547334784489e-02,3.243358767954705735e-02,-2.042884831569508064e-01,-2.663807728064021899e-02,8.148686101053405698e-03,8.307370505536086636e-02,1.033137348248625437e-01,1.647479394804871392e-02,1.102205706564146209e-01,-4.679829294057683518e-03,-7.611063251522011408e-02,-8.237339863819528873e-02,6.361859541097641957e-02,-1.871279883658630017e-01,7.620711843341988756e-02,-1.031410116570255081e-01,-2.713315885780128930e-02,5.875050737817441582e-02,1.307030484774709955e-01,-1.861899816758019188e-01,-7.212330015912309100e-02,1.763211729595209887e-02,-5.070676675847260451e-02,9.480335739108745885e-02,-1.999323421195241535e-01,4.614425305293162749e-02,5.267709213694923842e-02,1.296768961167480382e-02,1.178967291448420746e-01,-1.147602017059198287e-01,1.213430677331666374e-01,-6.130685466460401162e-02,8.063262413179096699e-02,-2.079083348418492988e-02,9.319549735776597177e-02,8.787175872225982953e-02,-1.370114972716435231e-01,-5.863060183798435472e-03,-1.604566714025123999e-04,-1.427528940869351830e-02,-6.192455273046693770e-02,1.987795716959318559e-01,3.414751977348510353e-02,1.681221655295100925e-01,-4.604519507426329400e-02,-9.538646939451483897e-02,2.333615497670842379e-02,-4.675290360755881419e-02,2.482027618860681017e-01,3.362474758682668097e-02,1.249941214696130426e-01,-1.327584895522827824e-02,-2.026800883002506659e-02,1.043551189558205097e-02,4.297954331491950913e-02,9.174613186192535907e-02,-1.552673481265216988e-03,-5.741453874035339772e-02,-9.354695611038263414e-02,5.741185899459177490e-03,7.084074826390038271e-02,5.898671921664304374e-02,8.422717505371822219e-03,-5.025365670485679170e-02,2.216538855224503904e-02,6.428993861443720037e-02,3.973433198694984250e-03,1.913176064672845317e-02,-5.894389627098672348e-03,9.994318197890514344e-02,-3.303469241005054652e-02,2.673597170693128855e-02,4.785919493511913564e-02,8.133097419465043498e-02,1.607682696384882537e-01,7.876838759546408997e-02,7.066009742050033404e-02,-1.361063100187786257e-01,6.838670250870133860e-02,2.363566381266630212e-01,-7.555982443948031091e-02,-9.273016088501644105e-02,-1.251094356961019068e-02,1.120631612559310208e-01,6.030444259790804229e-02,-3.866013487548763949e-02,4.549791808792429809e-03,1.116037617833549600e-01,7.640451386438175396e-02,2.511269703920058216e-01,1.095161518966426967e-01,4.267503832134886266e-02,6.853826770457813189e-02,-2.217939288638802117e-02,-8.904670473017048393e-02,2.562096477444057371e-02,5.725057432014499237e-02,-1.292882878925398216e-01,-4.206236135932224507e-02,-2.852499333142976060e-02,3.468916770807203148e-02,-1.703982294317881244e-02,5.520785054680502069e-02,1.888559394017300108e-02,1.144228630406309150e-01,-1.592392286513416300e-01,1.771687257502216062e-01,1.513022496840622788e-01,1.449973820110597028e-02,7.355828448985003709e-02,6.860170850904834250e-02,-6.564549551721687859e-02,2.838614014329997673e-02,8.986677531074366287e-02,4.286819589430845845e-02,1.173863626382397329e-01,2.048103261131368688e-02,1.875200092685871608e-02,-6.762424941421610325e-02,-2.641983873800429067e-02,-3.666745056647723044e-02,1.791008144204663532e-01,3.421768398587473475e-02,-9.114145619972506551e-02,5.139877838471616084e-02,-5.336261780120742440e-03,-2.974916632362903934e-01,5.549705384154634408e-02,-1.442568574032481177e-01,6.839862088752281244e-02,-8.266041961909789682e-02,-1.322006546885675649e-01,6.302414876174049219e-02,-1.375445799372905231e-01,-3.538516763834848727e-02,2.931051186556760807e-02,6.972688153269800126e-02,8.160150188793029169e-02,4.048745533666874008e-03,-7.536958779801111730e-02,2.028530294995753713e-01,-5.302025489744041642e-02,1.906114767205346339e-01,-3.720581638931860780e-02,1.242264686584979017e-01,1.154871997459122612e-01,-9.283342288317489310e-02,4.694642377593091082e-02,8.672482804438928772e-02,8.151733777131725533e-02,-1.218359653280669946e-02,3.811511042700350266e-02,-3.087060609711639661e-02,-1.081674593827465364e-01,1.073292956351834110e-01,-4.638561804086897833e-02,1.454308651530013818e-01,6.977385598695032276e-02,-8.168350210175566450e-02,-7.817269546569829280e-03,-1.890437664489107508e-02,-7.809996118189470315e-02,5.980350550402207394e-02,-3.929484473247184251e-02,1.709342533528193930e-01,9.834973571641444923e-02,-7.959448606925913217e-02,6.275249270403878213e-03,-1.481556152707888194e-02,-1.458430787001906148e-01,9.313329389275572245e-02,9.498860753707673299e-02,9.255784748618237079e-02,-4.569105974340988141e-02,1.069063231778355910e-01,-2.096756752631168119e-02,9.352250397505129653e-02,1.812605075276977062e-01,1.401871414641904165e-02,-1.419071516985050407e-01,-3.168239363689075855e-02,6.410631265429443670e-02,1.219951639190059584e-01,-1.133714775234140049e-01,-1.904710375020146618e-02,2.334163864195591687e-02,4.350755844222798513e-02,9.105008631625219340e-02,-9.483623962943588115e-02,-4.234010370660972605e-02,1.008043737760016406e-01,3.924121712837462528e-02,4.484579109411261644e-02,1.125400758823691810e-01,1.041306498685270164e-02,5.280806822312750920e-02,-3.144866017578486217e-02,-1.344932760108938918e-01,-1.295180625121650775e-01,7.439781384206930505e-03,-1.994834578367792044e-02,-6.545259083655399768e-02,3.180915565786075760e-02,-8.901942919488109451e-02,1.114145265424076013e-02,-1.944529816083575462e-03,-8.399116544528091588e-02,-2.298128620378415421e-01,1.456604646632213562e-01,3.167144958633962698e-02,-2.664048679102704043e-01,-4.263513574740836892e-02,3.938649914087574005e-02,-2.280634305410188592e-02,5.804073727626680307e-02,-9.731903250898020497e-02,1.752449893775060233e-02,-5.340643257571876107e-03,-1.829847268025362045e-02,-2.209516416288983057e-02,1.998368153520648990e-02,9.327986738475299577e-02,-5.300425400406128668e-02,-4.071627638524921711e-02,1.606422519019488904e-02,-1.200727154693114092e-02,3.856795525037640116e-02,7.183679959137809212e-02,1.291266163010312273e-01,-1.163668881122264728e-02,-2.277220736500929210e-01,-6.954727929569152513e-03,3.539476870422791216e-02,-1.868777563733122621e-02,-1.531589016076541007e-02,-2.432431252487676776e-01,5.080615967748179640e-02,-3.239550688605679490e-02,-1.510999347750766331e-01,-8.713448054355196759e-02,-8.647526813061492956e-02,9.771473101848060505e-02
6.890454444614847740e-02,1.598073109149804327e-01,7.286864594369306392e-02,-1.273355115498194245e-01,-1.307026618536562823e-01,1.214743909758956714e-01,1.665317264739948899e-01,-1.590366394589171409e-02,6.407672287469559635e-02,-1.393084888974266133e-01,-1.839392816709240486e-01,-1.099345788443037153e-01,-2.823196597414419015e-02,-4.422376863623970339e-02,-1.384490216951616073e-02,-3.917996002984983767e-02,7.765527285246848210e-02,1.554518599312443849e-01,1.470652178978088150e-02,2.141299108556101449e-01,-5.201629321566637876e-02,-4.349553427789123322e-02,4.839742570675003436e-02,-2.648894348571835186e-02,1.246214050848598875e-01,-5.290304251554205778e-02,1.392386189060459689e-01,2.696522167984484811e-02,2.681499278577070822e-01,-3.432505678813568134e-02,-1.033706870736458144e-02,2.606683948628070804e-02,-2.091527239023135143e-01,6.865485606903250215e-02,5.669467583318507642e-02,2.165037300115074323e-02,-1.471311263837052075e-01,-1.470004868564748768e-01,6.778886235890882461e-02,1.263664119188868951e-01,1.683606841102308349e-01,-8.048087885801186170e-02,-9.369300333156058147e-02,-1.826979940423831272e-02,-1.880080902271435428e-01,-4.947399934757404361e-02,9.507966965320463482e-02,1.739513629046087195e-01,3.643492004033097725e-02,1.726160769531298045e-01,4.994426027437646326e-02,2.794053336952123309e-02,-8.951861557501435834e-03,2.824767764898596795e-02,-1.583258225029812380e-02,-7.096989820661662486e-03,-5.761916119734992320e-02,3.394136716429343309e-02,1.356529758528573527e-02,-1.394949681805859876e-01,-1.516185742478228134e-02,-7.261096072777978305e-02,-1.973055860481687795e-01,6.194323507974301007e-02,1.691815018408144022e-01,2.479417645741703036e-01,1.681028667353311190e-01,-7.588577755727977936e-02,1.242478285096118712e-01,1.195483845977521747e-01,-1.923094653089347517e-01,9.610458788846053257e-02,7.547048584587862097e-02,2.486345684454384711e-02,3.726526162705003781e-02,1.390390857436361351e-02,1.737472378849539145e-01,-2.987725211376683274e-02,-9.249145817938862757e-03,8.718398159634363487e-03,3.606326565207951945e-02,-1.647945943968077698e-01,1.495651452896728240e-01,3.081341584992649749e-02,6.501785808630985986e-02,2.816486293752856751e-02,-9.104800646599617298e-03,-2.532168768041086551e-02,1.971926954153233741e-02,2.758993569807351512e-02,1.265482668126046983e-01,4.572080013027994549e-02,-2.058507711587772432e-03,2.081941801967657490e-01,-1.178366890294356567e-01,-1.246810055811226059e-01,4.380040046442802010e-02,-1.015509160208669104e-02,-1.697170685145774904e-01,-2.322352547942005060e-02,-5.932561234253024007e-02,1.253248672581970813e-01,-5.208943324098834482e-02,1.167338285217573990e-01,5.565828396979344284e-02,-1.122275746793467699e-02,1.163595540317389522e-02,5.354693663721567243e-02,-2.228614897452858290e-01,4.111123138982771680e-02,-2.788010173388351040e-02,1.892493259790258009e-01,-5.963629427603341776e-02,1.240837938034232146e-01,-2.417673310632156014e-01,9.094313418169376606e-02,3.720577175427115107e-02,-1.478946730419267164e-02,-1.479861993042447818e-03,-1.486348916279830318e-02,5.136861834735912541e-02,-4.356001772952040017e-03,-1.693364719889308978e-01,-9.324380368894755189e-03,2.322670618489151850e-01,1.567490951134320465e-02,4.009023197027591912e-02,-3.647611442674177085e-02,2.614243672047674924e-02,2.716355881965562200e-02,-1.364267553009812332e-02,9.577157420298813839e-02,-8.266450804875610792e-02,-2.579065425711883023e-04,5.872547739664311234e-02,-1.299102720592480373e-02,-1.089605937653825435e-01,6.708718716922267011e-02,-8.607564529281221122e-02,-3.338638588995732071e-02,-7.542540258418618804e-02,-2.831087643456881020e-03,-3.569514134472053651e-02,-3.691172376861823895e-02,7.995236339145790627e-02,1.846905164754523987e-01,-2.732022391386292048e-02,6.042721494960689305e-02,-2.494975490363893558e-02,2.257063296246082998e-02,1.248351634663072696e-01,1.274238133619959128e-02,-7.331361942066139115e-02,-6.178718997460570794e-02,-5.113883724339358949e-02,7.539426454279762359e-03,9.438931777314904514e-02,-1.270976710092116824e-01,-9.391832294699965777e-02,-8.211239800423411617e-02,-1.645139720153877272e-01,1.435465843114242523e-01,6.639006107328621065e-03,2.006343665370405316e-01,-1.319943789538894907e-01,1.396787439101959127e-01,-5.957633602229727571e-02,-3.093968181949793145e-02,-8.919016157882229956e-02,-8.482390631458078256e-02,-1.236941913694488554e-01,3.008694289033661540e-02,-1.200310452293041202e-01,-1.230237825997060504e-02,8.611781255379402297e-03,7.814074303997591009e-02,2.068059464163406191e-02,4.289805833060553186e-02,6.220742761047079461e-02,7.972267705340341584e-03,4.527642434672925903e-02,-8.847017112583825671e-02,-6.630905277093371297e-02,1.999249283465480698e-01,8.980237365123596577e-03,-6.028508753329835795e-02,1.478396779976129116e-01,-5.383548830681168101e-03,-5.539304235680952287e-02,-1.342479923616651249e-01,8.940178168326091968e-02,-9.656200336290111930e-02,-4.421210769078568609e-02,7.402671221376845578e-02,2.823602992611134663e-02,1.111867606506162457e-03,-1.181831369355719821e-02,1.277749001913870419e-01,2.360312773469650238e-01,-4.740757867945853687e-02,6.553443215562615443e-02,2.037292769814579574e-01,1.205568003286432571e-01,-5.793375431995354680e-02,-3.258851892963882807e-02,-4.820521874928232475e-02,-8.204053228740018633e-02,-4.904970095727530233e-02,3.921045539810107811e-02,-4.743887183922487760e-02,9.963474670584161752e-02,2.330553605703480913e-02,-3.122972660595296421e-02,9.788339979299494342e-02,4.037402744528479498e-02,3.779126733054968129e-02,1.140785831487845375e-01,6.528457066461132441e-02,-2.917646885103198501e-03,1.018469834126502216e-01,4.126910997543260795e-02,3.058524288570542704e-01,1.229788693390560239e-01,1.226428629040600682e-01,1.368279189189501588e-01,1.819041381567216772e-02,1.410421640930200893e-01,1.124682284071740722e-02,-7.460963052584250466e-02,-4.782532336232540177e-02,6.274284305439280229e-02,-1.456578890076081767e-01,3.139381370434713575e-02,-6.369879191415968311e-02,8.106088700149596815e-02,-6.489559252565284264e-02,1.962858697232734984e-01,8.755191072526062601e-02,-1.160971689632739889e-01,1.861589040497682590e-01,-1.217606935884274488e-02,-6.362129370328947764e-02,-9.313337593712614493e-02,6.564745538056432350e-02,1.608492388065121681e-01,-4.684478722967768544e-02,-9.119155603084777573e-02,-1.030800136647196108e-01,1.608458850628008696e-01,1.787543488194569541e-01,-2.324908871165676932e-02,6.183469465692714717e-02,9.655179689110258284e-03,4.404353496647668044e-03,1.081447893696559914e-01,5.452082019074708241e-02,4.341176008576227291e-02,-1.801091934793512886e-02,9.106094556484278790e-02,-1.715853791612056631e-02,1.371669800780504246e-02,3.319908221903563467e-02,-1.083239138290014308e-01,-1.753594717246920523e-02,-2.111583090813358779e-02,1.986873082075869129e-02,-1.012268960210367386e-01,-1.085461015277889019e-01,1.725203228335135119e-01,1.302566920202743728e-01,1.031412617238078727e-01,1.900381396582302429e-01,5.060712122741193447e-02,2.722393917299407908e-03,6.053326646530245159e-02,-1.762414390336097536e-01,-9.911544335748759260e-02,8.552118545030412688e-02,1.363485020583490512e-02,-1.154569610355164339e-01,7.795478737842213846e-02,1.111415974469845552e-01,7.795851412534550440e-02,7.258097383905167017e-03,-7.410379485767033814e-02,2.086778305817428569e-02,5.237201873728989515e-02,-2.396964296622404456e-02,6.878823554762539261e-02,3.941602726264318429e-02,4.119112805179422215e-02,-1.947353934545804355e-01,1.180922529308813251e-01,1.869102024003452822e-01,-2.644782651477348492e-02,-1.395090937560559685e-01,7.232925414875340797e-02,-3.736632599711720015e-02,-8.783242342431897554e-02,1.302140355422824192e-01,-1.302775076983511970e-01,7.975709148433340889e-02,-1.143879754292708578e-01,1.572036991110084825e-01,6.262847015587237609e-02,-1.615336257144773732e-02,2.354157637337660550e-02,6.741410633284289355e-02,9.060216351484789987e-02,9.397289506660233549e-02,6.558777330214450585e-02,-3.664428508320759920e-02,7.747802581516589904e-02,-1.217029002160526091e-01,1.099116169126761744e-01,9.672408641283451736e-02,1.485053608104722478e-01,-4.887743467161110439e-02,2.755091780419377523e-02,9.592446614390549853e-02,4.313319707561337479e-02,-3.078067217960742813e-02,4.252458408387166378e-02,1.514683803283823141e-02,1.105288049653930377e-01,-5.145757976119734456e-02,4.541574477054922954e-02,3.976884806503833830e-02,8.645835092211613671e-02,3.918046389690020385e-03,2.174765177476346845e-02,4.649539387739262848e-03,1.199063925645417299e-02,1.247396516222783885e-02,-2.117597951428101116e-02,2.946203271272096469e-01,-7.399163706718854538e-02,-1.076007049940888166e-01,-6.944113701354315271e-02,-6.066896979380041743e-02,1.155813950205360381e-02,1.580797826990811838e-01,1.832583348355906472e-01,3.209913971510384989e-02,-2.403092914281809989e-01,5.083923102555260726e-02,-1.196115947479856612e-01,-3.788103171054981594e-02,-1.047561928573578355e-01,5.041639515922929915e-02,-5.127025312317413930e-02,8.812787357717051517e-02,5.881905860320879587e-02,-1.222018919658295066e-02,1.783644407056581352e-02,1.019542775681645391e-01,-2.699907848582466449e-02,1.020998935889525366e-01,8.750861785674924828e-03,3.936912089161437311e-02,8.875524954086803919e-02,1.420118230009975446e-01,6.070287183758794197e-02,1.538984886012446061e-02,8.172856606879728980e-02,-1.408770576010770770e-01,1.779947180657374950e-01,-1.241113278825614064e-01,9.897839645349480742e-02,-4.745790061698007545e-02,5.935151399154306451e-02,-2.921127003268300486e-03,3.871024567122150623e-02,-7.188922329574895520e-02,-2.049402672579242191e-01,5.242521114521837833e-02,-4.849122106678406541e-02,-5.344311650338993969e-02,-6.375107067536223138e-02,2.078017519100764099e-01,-4.973932334012624162e-02,4.393102874310280542e-02,-1.051959161123717512e-01,1.641496268854726326e-01,-4.440227999179278962e-02,-2.493521079933789519e-01,2.805987241328644077e-01,-9.988231814318591917e-02,1.388438125861483630e-01,8.242259072722273039e-02,7.500591061242724289e-02,-1.371113931848147276e-02,3.002719458551056028e-02,1.338058771097034305e-01,-1.881339355913655767e-02,3.522695947228881436e-02,1.046889255524580120e-01,2.059640951950801949e-02,-3.143460225583265266e-02,1.557899708378220061e-01,4.508892711593530389e-02,-1.561095504516149101e-03,-6.845048260579580934e-02,-8.828425338085578444e-02,9.809209144278177583e-02,1.062439969658062477e-01,-2.064183282012790610e-01,-5.069606817339718935e-02,1.068262880158877964e-01,2.520518098751292624e-01,2.251834244486982106e-01,1.045644406046166708e-01,1.479490689034984874e-01,-3.833851053314120405e-02,9.113179675077925923e-02,-1.139895416459519722e-01,-4.534150916388167418e-02,4.488447026282747082e-02,2.273362789189804223e-01,8.680279010268844575e-02,3.653869387395272672e-02,-8.386035765777930667e-03,-1.200695582758576352e-01,6.986457914718915974e-02,-2.473051658787728257e-02,3.657430873773056396e-02,-8.011184719130984289e-02,2.309533916726947203e-02,-1.431142581041199013e-01,6.104483058941088253e-02,1.431541590738645564e-01,1.039962445271282593e-01,2.212850413611424927e-01,4.201330099298011822e-02,6.000272277159393597e-02,6.164393458399888837e-02,-7.837206480825845145e-02,2.273977339341712589e-01,1.125846004074418372e-01,-1.626666288222616830e-02,-8.186948247250852573e-02,6.724481422652581197e-02,9.416999265120906681e-02,2.392778197555051056e-02,2.855062904664486603e-02,-9.228258564042021023e-03,1.195877383909911204e-02,1.463280925643085095e-01,1.524535083733845053e-01,-1.373730519261396332e-01,2.325229245029309180e-02,-1.105205763472675989e-01,-1.234972147580192109e-01,6.929647031374371047e-02,-7.368476918067420889e-02,-3.030695133564720312e-01,7.544313816876652146e-02,1.399943015646060440e-01,2.129968151774856988e-01,-2.919529304175072851e-02,1.519710091264963037e-01,-2.534509963473607908e-01,-9.420567435598191375e-02,6.145626485465317812e-02,5.760294220272272475e-02,1.425279794361990759e-01,1.060429799238636894e-01,3.108456075590045834e-03,1.654492118372620224e-01,8.152986595793017266e-02,1.829374991698869690e-01,-6.973773819348684511e-02,4.098366926212833328e-02,-3.212857307288416453e-02,9.007979084962930427e-02,-9.630469230024465629e-03,-1.600448982651486718e-02,-1.224115371640766697e-01,4.023316786040654486e-02,1.209524034227386635e-01,1.106297693555437223e-01,-2.924653457205348972e-01,-1.521650633336470992e-01,2.106071231009906120e-01,-8.446228856355686085e-03,-2.002805466247386482e-03,1.287824342204250683e-01,3.065565710117389153e-02,-5.120637176398010887e-02,-7.706356223352249166e-03,2.001557118828823367e-01,-1.269472845657606541e-01,1.378623247435717958e-01,-2.186631085967776986e-02,-1.489954198867321673e-02,1.950465924650028882e-01,-5.479967910195204100e-02,9.675427824585959569e-02,-2.695169493094397642e-02,-1.312670988217588819e-01,-5.999197106886097579e-03,1.274453578485596761e-01,-7.351200513667589809e-03,6.726179616651864479e-02,2.964671334305160610e-02,1.453940436234603048e-02,-3.178507254487644013e-02,2.319737617525790760e-02,-1.934975411117898780e-01,-3.435973983084845973e-02,-1.677873923940628731e-01,3.479224986156576049e-02,4.392066940500470584e-02,-7.063896052652436641e-02,8.803426858712587455e-02,5.081266208933232775e-02,4.059492523943793174e-02,-2.549588010144644007e-02,6.076773908168187771e-02,1.193007829030742900e-01,-5.261570191718210887e-02,-6.865269798154872982e-02,1.285837830158207407e-01,-2.216629468876475939e-01,-2.504539666044757751e-01,-1.717634209008961632e-01,2.790814686826306387e-02,2.741408054459416183e-02,6.000791971083990067e-02,1.986493906075796276e-02,1.631633085391725746e-01,1.686650596383211520e-01,1.236053896621479437e-01,-1.070048126245076447e-01,4.611961128962889511e-02,-7.616880450751060960e-02,-4.035580429841807704e-02,-9.282359967673046997e-02,1.076435092150787066e-02,6.661006997423152276e-02,2.057453315111967482e-02,-1.061639961236014729e-01,-1.408841088278857678e-01,-6.565451799160414159e-02,-6.697118053929641823e-02,8.919523022111389143e-02,-2.238784494494330465e-02,-6.948474243093807727e-03,-5.721139009813020274e-03,1.183973518708562878e-01,1.717012365521032591e-01,5.062859735418872437e-02,-1.559652778746716678e-02,1.488006865981233440e-01,5.318431617396813388e-02,-3.260961149034043854e-02,1.108921193731707278e-01,3.178393877448459914e-02,-1.327981638421736887e-01,7.457392215726850460e-02,4.253139741010774494e-02,-1.719264408181043480e-01,-2.040327476487726888e-01,2.380793553137934560e-02,7.559272684094914263e-02,7.035306492820346536e-02,-1.245115794032328888e-01,-2.590785943465847424e-02,7.607086599582889297e-02,-1.406076782304892803e-01,1.889375433035545698e-02,3.410001416011911035e-02,1.026258591319996749e-01,-2.350328636374895697e-01,2.546436406261303950e-02,2.135318948190440269e-01,-5.101679333284743489e-02,-2.198777239780203702e-02,1.052181617612411996e-01,-6.697242982862947058e-02,1.257028644268971262e-01,6.318207027931531383e-02,-1.464915102573126626e-01,1.900025322315646026e-02,-1.362704915772440795e-01,1.045101718585883382e-01,-1.601804669539400316e-01,-1.693017423367338403e-01,-1.017715930958746212e-01,-6.882317062520973416e-02,1.461215671829391716e-01,1.298937195058455507e-02,4.363375099675596142e-02,1.205289460394439877e-01,-5.996432145059496510e-02,-4.752801082987579556e-02,-7.278398235341991540e-02,8.725338561423644224e-02,1.724118754904947481e-01,3.757455806334228376e-02,-5.253524636894694316e-02,-3.999873879130014243e-02,-1.005133405612677888e-01,8.494632373182782470e-02,-9.799586957316791525e-02,-1.693409043866115488e-02,-1.076263344658113796e-01,-1.787470202366552297e-01,-2.438800448652863606e-01,-7.913255873758243131e-02,3.210909674295889249e-02,-1.861060876722899979e-02,-9.805490493736902097e-03,-9.411156445693773243e-02,-8.126744699769217206e-02,-9.649174297582566173e-02,3.170356260412635768e-02,2.153321012367347964e-01,-4.326460492436776974e-03,-1.256808765619459034e-01,1.380961946645744565e-01,-9.188740609796930414e-02,6.355665930044841760e-02,-3.676000682262950403e-02,1.700706999323673904e-02,3.517243051116518138e-01,-6.568756911167776547e-02,-4.961311547575205511e-02,4.689419482928430111e-02,7.220466547733273704e-03,-3.169548240222969798e-02,-5.670604077161085083e-02,7.131354028404822409e-02,1.215464353884909698e-01,-8.361939181625298312e-02,-1.042796799825825571e-01,1.912128661735105206e-01,-1.333928375083009155e-01,8.214968500830356624e-02,5.303090774399454865e-02,-1.007135237279712242e-01,8.784833644989104018e-02,-9.948553426963287205e-02,-9.565911369417569310e-02,-1.288959568806173905e-01,9.344213694332953457e-02,-3.435956168242693815e-02,1.195256343107684305e-01,-7.013959879851444645e-02,7.038085936545626642e-02,1.497075901345796545e-01,1.498927313007930551e-04,-1.020682470411387460e-01,-2.548351728078219677e-02,1.350336717110008355e-01,8.437666049112377276e-02,-2.746091417017061664e-02,-1.643037649650221921e-01,8.032089599807257230e-02,1.750074904238690943e-01,1.767630953694628859e-01,5.509801419236223796e-02,-3.677213589559871331e-03,-6.313759320266469632e-02,-4.209445794261602869e-02,-1.517989259101600874e-01,2.236061470709934662e-01,7.959454267256419607e-03,2.504037324035441325e-01,1.462034871158524084e-03,-1.524296982027956993e-01,1.972275588445250583e-01,-7.624453832114468088e-02,-3.245371993037508146e-02,1.769107585942706617e-01,1.585515835251132266e-01,-1.941274537067544381e-01,8.310402781688210408e-03,-9.937840228534189357e-02,6.538116037664250257e-02,1.926853073703238550e-01,-4.026883069496906692e-02,1.613549415978452195e-01,-7.871540281114058901e-02,2.295274156733399240e-01,-7.011514178820946186e-02,-3.511682807845176169e-02,3.930522123039987409e-02,-1.299392089029715036e-01,1.651411867267419120e-01,-9.798774412444744009e-02,7.214873921551404057e-02,-1.172589591313692309e-01,1.953906755092099656e-02,7.732158443174507768e-03,-3.017541092683677373e-02,5.867086035032829244e-02,-1.021321643712074512e-01,1.618251045556486356e-01,2.991177535443120816e-02,-2.700066776720939088e-01,2.090118947780396363e-01,5.309027031724351114e-02,1.672132092386638125e-01,-6.221083687351140062e-03,-2.130090274092554803e-01,-3.051823032061661348e-02,-1.133038435503789798e-01,5.168131554458589572e-03,-3.955587913024113944e-02,3.062717638281747118e-02,-1.672893424562955089e-01,1.517819514372334769e-02,-3.556274906863270829e-02,7.376391521514610861e-02,-1.557593848512037749e-01,-3.269201289885566297e-02,1.755423488679137556e-01,-1.080408709037902620e-01,8.427563359328267556e-02,1.437303890728262035e-01,7.217104281964922124e-03,1.070219691433663689e-01,1.124976971562787614e-01,1.680903122497796887e-01,-2.744968627025314717e-02,-2.797470916528766761e-03,9.217332506267225667e-02,-6.220197168017114336e-02,1.574008078578350775e-02,-6.006741247886607932e-02,-2.214899558044291505e-01,4.476469874597870102e-02,1.816695081580838589e-01,-2.172150115429464720e-02,2.386024819918615078e-02,-3.023893345575228916e-02,-6.057363922465512640e-02,2.447295479034443388e-02,1.184712617393840345e-01,2.331643623162795720e-01,9.225755227617467302e-02,-8.622101459520779831e-02,-1.321489877714923100e-01,1.408645999085017808e-01,4.223997838416169298e-02,-4.812819509122916173e-02,-9.199973472677973330e-02,-7.256417728036478054e-02,1.309321863153172227e-01,8.461937559425524238e-03,-1.285199164694871832e-01,1.001793027884939763e-01,4.415904768930190016e-02,-1.544420478015218201e-02,7.539227670485605659e-02,-7.099906308372022634e-02,1.079100141687914793e-01,-1.328367191425071647e-01,-8.173124409275650537e-02,-1.283797917813930822e-01,-3.226610303002751950e-02,-6.677492988964367493e-02,-2.606660733013109812e-02,1.248579815200773040e-02,6.425503134823452867e-02,2.396580052179362458e-02,3.463579233920604378e-02,1.713777371905763625e-01,-1.562580765982259090e-02,-1.351751483540522825e-01,1.059444206601817678e-01,1.925938149054046422e-01,2.673300265559735642e-02,9.160432206710607261e-02,-5.451631365140255370e-02,2.899326392142040701e-02,7.581233013593284553e-02,4.832193902415343745e-02,-4.427570854550807317e-02,1.724193376648954779e-01,2.585159209311445327e-02,1.025837187918705595e-01,4.958697687309863988e-02,9.716005538296562660e-02,1.020312477994624184e-01,-1.215353010245581039e-02,9.716456281198698752e-02,2.256646613970535176e-01,2.093403274042340834e-01,8.590586863363100512e-02,1.792574847891225953e-01,-1.200122784157779260e-01,1.558027340070352040e-01,1.588911803382107510e-02,-1.696060397862560187e-01,2.802574136482125639e-02,1.073236532199715598e-01,-6.090919523927285778e-02,2.061124989453050338e-01,1.476650326788837286e-01,-1.164470389136380846e-01,1.112811373132876203e-01,2.162147235444776550e-02,-4.509126656346384293e-02,-2.149735404568113573e-02,-2.990023977422756607e-02,-1.071306783382394712e-01,-3.067180751693012949e-02,8.292822727219546775e-02,1.541207393407403314e-01,1.573444529463957076e-01,-4.642253236902662422e-02,-1.539830463557583656e-03,-7.582520527291493340e-02,1.131031745453790205e-01,-1.541013223927845122e-01,-1.263142839385516802e-01,-5.061581257836653136e-02,3.952882385546137994e-02,-2.372761883124446455e-02,1.099494057489327700e-02,1.635910181595295193e-02,3.478059434418603879e-02,-8.946526465135752615e-02,-1.977751898412950446e-02,7.237578169247327331e-02,4.227870676593276783e-02,1.202830984573858980e-01,-6.420695655266588087e-02,9.861376939756144600e-02,1.545267981668438095e-01,-5.737718172452388465e-03,3.521359359377154719e-02,3.258097187584749199e-02,6.296468012279679560e-02,5.066812371114676888e-02,1.558389439598326376e-01,6.063694551867907651e-02,9.601657670599521299e-02,4.498639612169168245e-02,-9.216035173598029206e-02,5.485437401011056258e-02,-1.125654912785726582e-02,-5.467640134723506656e-02,-8.137659262477255073e-02,1.217499882396834128e-03,-5.062733098411170696e-02,2.136505091371046494e-01,1.705765851060305482e-01,-1.775978428603093226e-02,8.088725010800507098e-02,1.247838517458467467e-01,-8.288272578852094036e-03,1.948420175953405886e-01,1.012318926533408991e-01,-4.295242250985732745e-04,-1.717963576862981123e-01,-8.853026349832433806e-02,4.573171694617560873e-02,-3.448145072315794007e-02,7.116653796297343730e-03,-6.976086228986799753e-02,3.566757969355936753e-02,-3.487544118606671767e-02,-1.462817203574714731e-01,-2.522137724995151750e-02,-4.727951956972112346e-02,-1.434698478850302272e-01,1.520767987435166502e-01,1.517027748204349390e-03,-2.010040719254522351e-02,8.744406517483374608e-02,2.468118290383674186e-03,8.723263426251058605e-02,-1.386989851077456148e-01,-9.475972536613828934e-02,6.317288064395569502e-02,1.619821103199433343e-01,1.585705656013042600e-02,3.434305842144034365e-02,-6.904666117030457129e-02,8.686964592953774766e-03,-5.952806462246951202e-02,-6.166889529157317841e-03,8.291185307910890756e-02,-1.896656964235994836e-01,3.095356130660498542e-02,-6.930609833896143879e-02,-5.500452280253140258e-02,1.259712046260907936e-01,4.431074715266497543e-02,1.021856120750636726e-01,-1.681115343493102265e-01,-2.907402685333127651e-02,-3.407750750315707844e-02,-4.468151657126717691e-02,5.846749232823832826e-02,1.043294437397967178e-01,-9.771550367145144522e-02,-8.622495174553487796e-02,-1.155894009788834137e-01,1.238523412724755746e-01,-4.354921357653761954e-02,-1.724380592563963359e-03,-2.455753367310546317e-02,-8.488640160456170647e-02,4.579483250185256010e-02,4.965315950552610241e-02,1.030259120571384024e-01,-1.346656526532397091e-02,-2.034825306426187724e-02,-4.622220999671516894e-02,1.610964455123700678e-01,1.127781784492440376e-01,8.207398747644929771e-03,7.362077294907398706e-02,-4.967644923254895678e-02,2.149166980707523378e-01,-4.942251417827555476e-02,-2.833548679741130019e-02,-2.668261922788509391e-02,1.786825717100097022e-01,2.510137969014187426e-02,1.169208931857473044e-01,-1.674552045426609681e-03,-1.105561981925094334e-01,8.733465504493154175e-02,-5.218489399884940899e-02,-1.223399686975190082e-01,-3.278274824290333678e-02,7.661916255576965706e-02,1.854598973696598152e-01,-1.298153337214365266e-01,-2.112752029560971689e-01,1.045246874639778473e-01,3.001256458147247980e-02,-5.633985237080996189e-02,4.184363034989858204e-02,7.295174606463727951e-02,1.912143133402483819e-01,-1.302675454166191994e-02,1.279874558496029990e-01,-4.516815547297011596e-02,-5.095943537483599295e-02,4.238478170598920097e-02,-1.114893117330115896e-01,-1.301884639150575340e-01,9.632674840058082222e-02,-1.963000681083212073e-01,1.134226420386777803e-02,-3.246678771755805160e-02,-3.729458054496691266e-02,-1.332230906651040714e-01,-2.035828048141602453e-01,-6.608340891946870577e-02,-1.165143615164650343e-01,-4.253446379395735971e-02,8.811048299026690706e-03,-7.416858446371531188e-02,-1.072450915125572057e-01,2.901157512208913519e-02,-7.617603037130621368e-02,-9.594574360295492210e-02,-2.990788839954627507e-02,2.855658230272100848e-02,2.108822816864014127e-01,1.613635937957674238e-01,-1.263306554201059639e-01,-1.324174830314930607e-01,6.479175905293948524e-03,5.570733270378860902e-02,-1.316311757089041155e-02,2.172407183120813323e-01,1.177144607085630068e-01,1.640131754514459750e-01,-4.177962309165188237e-02,-8.968051995507317353e-02,-1.070213904730693694e-01,-1.137071774483622982e-02,-1.258275530417595767e-01,-6.337176668312999306e-02,-4.306953525268812644e-02,9.443591160646751248e-02,-4.728011721641655479e-02,-1.406989723632134370e-01,-4.473988858642494876e-02,1.886572992430933168e-02,5.609924452787338339e-02,-9.215846676484081013e-02,6.474495027167923022e-02,1.386899980806431953e-01,4.895910050071743125e-02,2.388702443883374688e-02,-4.480374192281282725e-02,-6.107206159830256414e-02,-2.029870682319900588e-01,6.080209729545222458e-02,-3.540344966943027860e-02,1.526558769868823461e-02,5.013492359062263898e-02,-7.863283838299763018e-02,1.017070072537955977e-01,1.131849687394157963e-02,1.497069634526660975e-01,1.690120547216588526e-02,3.186990821853896705e-02,1.291858506058919838e-02
1.635078177319307657e-01,-2.004445541730764946e-01,-4.364401194894210884e-02,-2.153211099303106030e-02,-1.403943629664250181e-01,-6.954776906720767926e-02,-2.054741372837405045e-01,2.824783434319833378e-02,-1.309183527281019555e-01,5.022585299527383002e-02,-1.342231628439547776e-02,-7.473622805816088066e-02,-1.470581042300224683e-01,-5.947979663881371171e-02,4.204166618875698758e-02,-1.139303061026018587e-03,7.801852042742601911e-02,-6.308457428506293596e-02,1.740192356338872426e-01,-1.021460026893293918e-02,-7.072247723035558764e-02,1.418751032064091144e-01,1.473302881222743610e-01,6.242881157857068384e-04,-4.100565467024401556e-02,1.047626326616746123e-01,-8.189233228320400015e-02,1.021777154374194363e-01,-1.241323719351095783e-01,6.320976795657438224e-03,1.300781922702474482e-02,1.348881432007373871e-01,-1.724776300746818369e-01,3.357348839929245876e-02,-1.942736670421780403e-03,1.354870127095832676e-02,-8.057032464392085980e-02,-1.219261677007259931e-01,-3.545701394787196398e-02,-1.357565733426815274e-02,1.579358524120316187e-01,2.159933048429350105e-02,1.005424511991419648e-02,8.045245382828342118e-02,-1.501344840780653445e-01,8.366636798109697293e-02,1.033492990257198346e-01,1.031949143788083861e-01,-2.347037921698437099e-02,-1.134499483562560473e-01,-8.843236502595080983e-02,3.495938763755154083e-02,6.284725356903261839e-02,1.393274548140572555e-01,1.637193780481902006e-01,9.493768480585604297e-02,1.266329848524365073e-02,3.527682541325373455e-02,-8.534552385424509086e-03,1.148476730282528557e-01,6.921471831942266340e-02,3.698321023682760167e-02,-1.174946594295552676e-01,1.217526679099100034e-01,-1.358505266882327756e-01,1.370857508501399369e-01,1.130318153122598923e-01,-1.454368668999930503e-01,2.350716836601908066e-03,-1.159724802809859040e-01,-7.669652432752791828e-03,6.725626570473294819e-02,2.093359865474685340e-03,-1.262577013395481396e-01,3.599961428407222330e-02,3.515516002859962741e-02,1.028901966877956986e-02,-9.210110121867436106e-02,-2.211454856348837178e-02,3.606211908585586767e-02,-5.712456078833897180e-03,2.247297181212484507e-01,3.854400799614941114e-02,-1.130374012643686234e-02,5.737586173453679272e-02,-1.011428080991159800e-01,5.341793662660331704e-02,1.733572389873644370e-01,-7.662152870297278540e-02,4.508015751618280054e-02,9.001010691914654305e-02,-1.558288522480573979e-01,1.774375022285843706e-01,-9.298056628417633585e-02,-2.135522007204946129e-02,4.822591639412108361e-02,-1.385905936322225779e-02,9.376656386932911980e-02,2.362295868410950461e-02,6.613225247728916900e-02,2.212024169230075721e-02,1.619056340955954409e-01,-1.897622742149952246e-01,5.066563074350075718e-02,-1.862932988587922764e-02,-8.459428080016775930e-02,-6.991006379006257931e-02,-4.416491631150362696e-02,6.653799107193088258e-02,-8.040284929527367896e-02,-4.299129894833985180e-03,3.885707630704317295e-02,-1.044065164407518703e-01,1.226090677282752062e-01,2.530162331536701115e-01,-5.613720265376689195e-02,1.029741210166671833e-01,-1.891351726325629992e-02,6.607172334833466554e-02,-4.839177711079039462e-03,2.313223198813702808e-01,-2.177199769414212352e-02,9.007702378630977336e-02,7.141539105343945593e-02,-9.849281838951588763e-02,-2.024683363784515466e-01,7.137345690944549292e-02,9.263484561132147299e-02,-4.419221727227436169e-02,-5.269307149460723122e-02,1.130383539798392595e-01,9.602668408522944954e-02,1.063793533744242931e-01,4.122429354723177591e-02,-6.978253644826772073e-02,-1.046189228540846117e-01,-1.823993644425676020e-01,8.315407365648196103e-03,2.068122855277146899e-01,6.118895006524082553e-02,-1.400745239990140479e-05,-1.431070513513904852e-01,-5.911796972800653638e-02,1.291881097482934504e-02,-7.818635975807321226e-03,1.006172439312624928e-01,-6.176388120116441637e-03,7.871151245091581594e-02,1.539531620526690594e-03,-3.374140335004080331e-03,1.406300340623219958e-01,-6.658489103310623325e-02,-1.908408033786315044e-02,-1.164859395523514252e-01,2.199919858625260308e-02,1.171129722032624998e-01,7.793306636866453863e-02,8.322359775211135569e-02,1.168814908489694132e-01,7.430260439689195806e-02,8.786631150743735852e-02,5.342234059855607842e-02,-8.524216167133920330e-02,6.528381667320141968e-02,1.068788276540477422e-01,-7.672190861199996992e-02,3.638368770147470260e-02,1.193049603651234192e-01,-2.599917898888077020e-02,-1.199740940128686817e-01,1.602197038573218227e-02,1.690717662956340017e-01,-7.732193921921247382e-02,3.537143394233913715e-03,-6.427386005272833769e-02,-2.192531604145211976e-02,3.631248656792116641e-02,1.606908049353369117e-01,-5.877968290792914829e-02,-5.939165618013339532e-02,-7.705507695741142804e-02,-9.864770677704234880e-02,-1.398706778058220468e-01,-7.285007069066970486e-02,1.581552427188428252e-03,1.665700367330984547e-02,1.282321695357926949e-01,-6.984757390782861397e-02,-6.748359613176728444e-02,-6.263969610380339115e-02,3.349000118999310993e-02,-1.374134469630663080e-03,8.893570780691027744e-02,-6.755443025628998788e-02,1.025634302254277569e-01,1.054640081065341822e-01,-1.528083704835154176e-02,-4.574642080535041427e-02,3.443437668196645818e-02,-7.084500881583830068e-02,2.086239957475751472e-01,2.687037324187269149e-02,9.466734284606716232e-02,-1.140280106831746409e-01,-1.630754982407028875e-01,8.220690396374266684e-02,6.221748637035258434e-02,-5.953199166687837829e-02,-4.042081096934278805e-02,-5.421701443479508969e-02,3.748498694228103584e-02,1.052302699723726281e-01,-1.451567136555478865e-01,5.821417390174119660e-02,-7.818484113355790577e-02,-3.969364538663858882e-02,-4.114835947486224742e-03,-1.271811326860411429e-01,2.932377295542013540e-01,2.513981132014232456e-01,8.765682139958685948e-02,8.319601533452042341e-02,-8.802392211608801864e-02,2.456354419911789544e-01,1.025522880578473399e-02,-9.933095738460006111e-04,1.314150701753229455e-01,3.618056441832646214e-02,-6.797904435026685954e-02,-1.238656203401642709e-02,-2.587130571406307325e-02,1.842233441944899491e-02,6.768540164777878121e-02,6.361932485688155670e-02,1.410088345304327251e-01,1.100442319468105702e-02,1.061088329646345946e-01,1.838278324029140320e-01,-1.094975300769704674e-01,8.325943272716251897e-02,-9.465880314452017330e-02,-1.399495196863012880e-01,1.692765947380096558e-01,1.238279696491285803e-01,6.487373954470503079e-02,-3.496718319485962734e-02,1.596768009433175151e-01,-1.236134986995605783e-01,2.048127932764718870e-02,6.268630329464623674e-02,1.427184605274104956e-01,-1.436368779408866148e-01,-2.945983644969440984e-01,2.376168032034337019e-02,4.596573872910014735e-02,3.003206730584473752e-02,-7.504688723481311996e-02,8.824745859979398616e-03,-1.434235884284427165e-01,5.540463711996322649e-02,9.902156980543966314e-02,-5.944287989679062495e-02,-1.859752026064399322e-01,1.981723357992616358e-03,-8.029229706507261255e-03,3.545736410865741022e-03,1.418401226827320227e-01,2.550128772842404079e-02,2.202682163837166862e-01,5.649120768105617835e-02,-9.056510098874771819e-02,1.217891687127250766e-01,4.004293238751114063e-04,-3.462023614157207912e-02,4.273397951470936373e-02,2.558816065070628962e-02,-1.434630082642423810e-01,-7.403742426902792939e-02,1.274426403140144493e-01,3.262297004394643096e-02,7.878099780206256064e-02,1.155530016699599788e-01,1.928523488485175685e-01,-5.200419654407971437e-02,-5.962218264810694585e-02,-8.085710029153243827e-02,-4.920610163892587957e-02,-7.699940537987400024e-02,8.322419149410375735e-03,-2.035264000375125448e-03,6.675196618647052937e-02,-1.098293214070289459e-01,-5.369484605524110776e-02,5.404927173311994265e-02,8.730800249214276665e-02,-2.225418888919555305e-01,-5.071204963920596803e-02,-1.538084450956808853e-02,-1.944376050592400151e-01,5.415290896254804781e-02,1.292927684768230001e-01,-1.856538170924630360e-01,-1.440990523248293909e-01,1.079619878730490451e-01,1.264430884883724071e-01,-1.163929725737574417e-01,-8.888456854902863913e-02,7.645414906381951814e-02,-1.605717253838474107e-02,-3.856313315125203811e-02,1.726206089952441458e-01,4.293041293473175146e-02,-1.686909569089037331e-01,3.660453574521690262e-02,-1.292434271720203920e-01,8.527318448044608756e-02,1.089849863224324755e-01,5.513416509591059778e-02,1.026677954372234858e-01,2.082794375825106625e-01,8.666341809939463736e-02,-2.278941191456185233e-02,-9.503662622112581115e-02,3.169169082640831830e-02,-9.012595299847513119e-02,-1.302360025877894179e-01,-3.238431430205207517e-02,-1.651149605806491449e-01,-1.171396448223689241e-01,6.341976638010481115e-02,-3.750228112218604443e-02,-1.633888106237450441e-02,6.885359099442351673e-03,-1.814120418787511235e-01,3.261520245816938723e-02,1.405726794080430428e-02,7.694864693671018240e-03,4.585472704228480550e-02,-2.047430449506343342e-01,2.031523478975550412e-01,-1.802440968414375025e-02,-1.246035391441302764e-01,2.961900538773693664e-02,-1.174960127473982097e-01,1.724585972161676167e-02,6.921343085530419492e-02,-1.184146945372315241e-01,9.938670786854507389e-02,2.493693788873938000e-02,4.347706060878298029e-02,5.407282743007105208e-02,6.431062425577846464e-02,1.252710186413277527e-01,1.001786504045251158e-01,6.039525199773443376e-02,-6.461572971078981265e-02,4.044114679153482800e-02,-4.339072420590923962e-02,-1.326660975932874853e-01,1.099117079472833151e-02,-8.076308928521240549e-02,1.235158569345858048e-01,5.966243487502878758e-03,1.507126931900634910e-02,8.860055728428432864e-02,-2.474961778534052678e-02,-7.813353919833511754e-03,1.259627246163537717e-01,-1.285755319774249117e-01,-7.690339520231843917e-02,-3.943208191555708057e-03,8.807192188922970122e-02,3.414069241189374160e-02,-1.068057306258805156e-01,-7.848912879236073781e-02,1.833625873453012811e-01,4.547958404572664814e-02,-4.838684466132367468e-02,-3.849928272322845207e-02,3.846155367662234537e-01,1.435605788921091031e-01,-1.502908720161167389e-01,-3.299836532420624691e-02,8.635875342593171688e-02,-1.417947181213868348e-02,1.268921528352576766e-01,1.875939865221165626e-01,1.255987814627933068e-02,3.869979592640638427e-02,-6.875434131191286713e-03,9.948567941364326594e-02,1.606399362759496352e-01,1.069992962722219609e-01,-9.455287582995482165e-02,8.906110402903137657e-02,-4.627606873656982256e-02,1.895176355876549423e-01,6.253891403439873486e-02,1.190114178738751610e-01,1.065004980464681790e-02,9.758799352931904481e-03,5.617221012873790942e-02,7.179136544490023406e-03,1.729257286272361804e-01,-1.046784410881565625e-01,8.182824809026043034e-02,-4.590305761860871692e-02,9.918708220015891308e-02,-1.675452788047067931e-01,1.399302373280198741e-01,-1.917253019174313539e-02,-1.112917367446672745e-01,8.421543061933456364e-02,-1.393224095723154211e-03,4.500767707583388372e-02,1.342926638926646987e-01,-9.665869374513171020e-02,-5.789028013245054588e-02,2.016654215051897139e-02,7.129761609705216607e-02,-5.996494880903394803e-02,-6.944767250841343831e-02,9.170599675557516983e-02,1.095070936085625196e-01,1.513895397295995371e-01,-1.424935178370848217e-02,-2.480192168013465037e-01,6.528064662449230282e-02,8.847001600094485385e-02,-1.339019266572333000e-01,2.198198825982106488e-02,4.307008301223579083e-02,4.603462070616454183e-02,-3.532355262773768240e-02,1.934138662675090672e-02,7.152243164780182350e-02,-1.665920054924754923e-01,1.060341118376702807e-01,-1.933867726159221173e-02,8.537488847316285212e-02,-6.081840334089206462e-02,-1.610729340604458992e-01,1.274409756159637364e-01,1.758113440443377362e-01,-1.746380666050287023e-01,-1.181093454308329571e-01,2.449929754268206222e-02,-8.945466336070730107e-02,9.116801858177069062e-02,-6.448624353053265812e-02,-4.113316470972695760e-02,3.238845107044536348e-02,-2.061217198407691298e-01,-1.962790986015745809e-02,2.135201443639317409e-01,7.325041772549195640e-02,-8.707062644081882408e-02,1.189182124544176100e-01,2.170830044195816433e-01,1.399824019017374410e-01,-4.999986919006526448e-02,-5.646072613298414727e-02,-2.535663026201193798e-02,-9.438201466639054016e-02,1.533636430495161768e-02,-8.815061761693521181e-02,-7.523350229828874858e-02,4.528892108834674940e-02,-4.080897692823001049e-02,-4.651682759844697444e-03,2.281846391337359337e-01,4.950960785375255191e-02,1.319386582431985311e-01,5.673053696871217105e-02,7.111636118095096548e-02,-1.198205668182659445e-01,-4.449567502145573838e-02,-1.457353100832591355e-02,-3.370714819880629709e-02,-9.234903198753622103e-03,2.742998220678123655e-02,-1.165006053525534553e-02,8.022692352822873019e-02,-1.306165378019051061e-02,1.205326456954418923e-01,1.419651990477705655e-02,-4.440882118544964979e-02,-1.119396616295934566e-01,-6.277407885365943185e-02,-9.029128431124763474e-03,1.321584245881381459e-01,-1.138431915424682611e-01,1.125096627951340938e-01,1.726942864016359951e-03,-6.865779052692537465e-02,-1.219742005610948143e-01,6.544737995879613968e-02,-1.745964843424081814e-01,-3.536808449375082597e-02,-2.960478386352124666e-02,-3.668528271047893224e-03,7.090200346464894943e-02,-4.838430065600108493e-02,2.736805350822370947e-02,-1.087919739454661222e-01,1.748248472326265068e-02,7.250257680326635534e-02,-2.361761556046898178e-02,4.836319050585958373e-02,2.305175441453512220e-02,-1.887656116580797849e-02,2.535244438438633355e-03,-1.012227059278522634e-02,-1.874425837526824679e-01,-1.410980601776816445e-01,5.667393782720724776e-02,-1.955582097387245921e-01,1.286647247640208547e-01,-1.241556733910712806e-01,2.016364355925382226e-02,6.385512138496210466e-02,-4.781732350524906666e-02,1.273749047366976306e-01,-1.254455636164484578e-01,1.039695605715666160e-01,2.572737474937700913e-02,-4.323255639462566906e-03,1.155500632135195993e-01,6.583181003272733922e-02,-1.056180092610110172e-01,1.523181762327878164e-01,1.137548093335209870e-01,1.897650865715947224e-02,2.418374727881105954e-02,1.447587371358423913e-01,1.775689513291772992e-01,7.245260853647599031e-02,-1.052122445626476888e-01,2.324353989776730550e-02,9.653739956039601722e-02,-6.770379006990287496e-02,-1.044678683419538318e-01,1.458079224402893288e-02,2.365154394754229172e-02,5.040278315642923723e-02,1.358140526093019884e-01,-2.072229998971245046e-01,2.452114448887877940e-02,-9.154534489264339742e-03,1.111404766147367114e-02,2.574411369431717916e-02,1.114336046531809038e-01,6.637056425059562059e-02,5.170296971674917183e-03,1.945453651314749469e-02,2.135225097991851756e-02,-1.914711359163177862e-03,1.450699606831568900e-01,-1.787320897899354610e-01,-1.258599891083458933e-01,1.747229999252779553e-01,7.430780704337358600e-02,7.583542766768182342e-02,1.276133775570487128e-01,-1.939455049624388416e-01,1.548943907663190844e-01,-1.030229325592156298e-01,-8.829012815752994292e-02,1.140778986960551966e-01,-9.988855484147689257e-02,6.525118457071794886e-02,1.584687045089197555e-01,-5.270639495817869974e-02,-4.643602940140181823e-02,7.995749305979200916e-02,1.042297501016830608e-01,4.733763482037017106e-02,-1.466746191414046441e-01,1.724323614636577295e-01,7.308551344176644760e-02,-2.236515761661980461e-01,-7.939025917202455207e-02,-9.292292886766703730e-02,-6.756499474054404597e-02,3.659498452733730284e-02,-6.121131850923747925e-02,1.314127601815599511e-01,1.252334384870155137e-01,2.175988652426360387e-02,-9.129243609607043397e-02,1.827406475917164874e-02,5.918840550474040868e-02,1.343874906370447209e-01,-3.051011028635788533e-02,1.943151424721917958e-02,-8.771344777041475971e-02,-3.185818926041976418e-02,1.264381204181293239e-01,1.693736259735075522e-01,-2.074531674542109266e-02,-1.534192983130264545e-02,-6.164419559798847703e-02,-1.399663859182370129e-01,5.163084853523782630e-02,5.631200657207240112e-02,6.961931791873809949e-02,1.301377859889094046e-02,6.595230002332043429e-02,2.834668530705875336e-02,1.360532965977406250e-01,4.947335107654686481e-02,1.611498934988820630e-01,1.227369703633424819e-01,5.180961596642109923e-02,-1.099946848834908730e-01,6.367884423105452107e-02,4.437823859512939756e-02,2.042444657494745519e-01,8.494997486038925738e-02,-9.960532434330295060e-02,-6.653807963339562759e-02,1.050465749225285711e-01,-1.072632853428969434e-02,-1.121077237468985494e-01,5.907381627692540049e-02,5.898891345804638947e-02,-1.678576170446216586e-03,9.636940647164506102e-02,2.050215928623561057e-04,1.970377286592168431e-01,-9.973802261875848452e-02,1.052494685527128326e-01,1.138512198116618523e-01,1.436139355689451669e-01,8.964188830791560867e-04,-3.075290577315864179e-02,1.833798387421473053e-01,6.498261176182067167e-02,-4.609616002117692540e-02,9.371567452105185325e-02,1.694778450622134724e-01,8.087452438405964839e-02,-5.979810505114172697e-02,1.145356856206580648e-01,-1.418404059497632430e-01,8.959288342948622252e-02,1.100761430101609845e-01,-8.631299172253224100e-03,4.045515666976058633e-02,2.543403381281765518e-02,-4.336997970854269968e-02,-7.583961015422976959e-02,-1.514349207540436129e-02,-5.217581317122148982e-02,1.621903377590927786e-01,-1.230884566081217463e-01,1.930565913084027474e-01,-1.203348159726401988e-02,-6.692007709294398032e-02,-4.001884568127938441e-02,-8.979609567018616290e-02,-1.888133632802138084e-01,1.008796720719391943e-01,4.070304726051862144e-03,-6.481298667115469037e-02,-1.144475559952838339e-01,-4.416665016428263091e-02,-1.124679619420825977e-01,1.442294825062886421e-01,-1.795002886835708467e-01,-8.543529613712516624e-02,-7.528133268913042575e-02,5.859886095957783647e-02,3.884097462152419356e-02,5.487403920037105601e-04,-1.617172286944028054e-03,4.885495910775407985e-02,-7.077762523872246914e-02,5.919180294238866186e-02,-1.185073804993256180e-01,6.799614077128214584e-02,-3.677529609930043492e-02,1.272355777733403248e-01,-1.047495228593051803e-01,-3.031693155812703253e-02,-6.695917647992474797e-02,1.073239870364886689e-01,-1.300819123324126469e-01,1.000437487700744643e-01,5.802071261473598640e-02,6.671376211935785283e-02,-5.619939344672388731e-02,6.153815723688360606e-02,1.847585336694220204e-01,-5.912657786018659517e-02,3.502885480265172102e-02,-1.501087500735657360e-02,-9.885161908589160107e-02,-7.127876457669479748e-02,6.368850577097495691e-02,5.635595273575921653e-03,-2.360795485654637593e-01,6.172026748259559770e-02,-1.786457117363066810e-02,1.055124127129970918e-01,-4.827629825336301334e-02,2.438781485946352467e-01,-8.440003781523140736e-02,8.708545382839461002e-02,-9.790912681183550070e-02,3.086521167073275410e-02,-1.041855624052374085e-01,1.365632996365321039e-01,9.962469279655760193e-03,1.616903775118845032e-01,7.182081047310289248e-03,-1.509252784307780482e-01,-7.290104748607927065e-02,-2.760591370427743080e-02,1.508842061271758461e-01,2.853849043910040573e-01,-2.177705781685744177e-03,4.081134040490275172e-02,1.340962202025924310e-01,-1.006909486940960746e-01,-2.069275433589003177e-02,7.646714983018740308e-02,4.972125901735304637e-02,6.528190323531045391e-03,-8.503218221268281363e-02,2.206324791169298610e-02,8.495473109011265900e-02,-5.841563587846052008e-02,2.120245433313908481e-02,2.282367723112036784e-01,6.711816159680845939e-02,7.829287295261377899e-02,-8.693147153949755401e-02,-4.192091731895779966e-02,-1.813821398869043186e-02,-6.993828035414365041e-02,-1.095815340349775013e-01,-1.451743844867256772e-01,-8.342206906506274139e-03,9.513608310399508661e-02,7.412593138555294281e-02,8.394742508033126160e-02,1.082422964360932466e-01,-7.731018191713322218e-02,-6.037956481774683221e-02,-1.105399965358708561e-02,-7.500753387088809898e-02,4.114929388657454640e-02,-4.995483723605220056e-02,1.281211848306338941e-01,-6.937381950537459263e-02,7.041880697152305690e-02,1.817783713538677903e-01,-1.103166147088343318e-01,-4.535802837003991700e-02,-6.634030103771854092e-02,-9.546664999473089552e-02,3.598961116730291232e-02,6.167607210271173340e-02,-5.868152689747318379e-02,-4.113113440941704863e-02,3.496284601295002181e-02,4.217397083879041719e-02,-9.795828112671288446e-02,2.434397514387707240e-01,-1.045480527727573987e-02,2.181194857583354518e-02,-5.288895322824114370e-02,-1.723341857046620934e-02,-8.217101775169344258e-02,1.755015159010211712e-01,-1.724676935101855380e-01,-4.004038578589432136e-03,7.795026807890360898e-02,-1.486820542479808938e-01,5.701594506019814351e-02,1.410236911665025128e-01,4.082505136536299095e-02,1.030318337138165334e-02,7.619357738960170177e-03,-1.854018277778503657e-02,6.879600300786670175e-02,-6.918758889797439748e-02,4.384799106078690611e-02,-2.285340372357820560e-02,-4.722106639340457879e-02,-1.029591839427718425e-01,8.002974074692392747e-02,-4.950866957451910411e-02,1.170456283243041240e-01,7.066770315717793051e-03,1.356043559863543552e-02,-9.824258674430018379e-02,-9.004999458255964762e-02,7.018037832043276525e-02,6.064535904275364028e-03,1.893598405167455992e-02,7.755457529260517680e-02,6.439423650909641139e-02,-2.381004746066886502e-02,3.014503247260733598e-01,3.315362085972377026e-01,6.211704587630410140e-02,-1.261272692117491878e-01,-7.240917166931526427e-02,7.218308811907853118e-02,-4.348383173099436283e-02,4.731277846483894142e-03,-1.874905157236528841e-01,5.554990100779438889e-02,1.327150703549962452e-01,-1.087228540481421785e-01,-2.270120017804759874e-02,-1.951387718590441231e-02,-2.302908271347879343e-01,-3.862747139996103307e-02,-4.864608913807396545e-02,-1.253843476467975393e-01,-7.330525321779796100e-02,4.228702901891272931e-02,5.198457791368565201e-02,5.056315041034151886e-02,-3.968206058808178976e-02,-6.959412620297324159e-02,2.691524928555611221e-02,-3.041044660588949899e-02,1.123547912855671904e-01,1.258461882294771572e-01,-3.774444631880187473e-02,-1.518838874434512154e-01,2.876186676020592650e-02,-5.251600331103022795e-02,9.235660978853306446e-02,8.067843763608233132e-02,-9.409894367620554034e-02,1.195010440748173058e-01,1.539826378597175527e-01,5.290703153433623518e-02,7.553291732802557001e-02,-4.245148114841471032e-02,-7.705493590102860391e-02,1.345518086168604466e-01,3.561233683975419118e-02,2.023906903885005267e-03,5.983761934195220948e-03,8.500998804381366958e-02,-1.014961969253906811e-02,-3.937924745216041938e-02,-2.051899999182211706e-02,-4.539042398440556667e-03,-3.837106649528874980e-02,1.982724693569899374e-02,-4.036718980739328194e-02,-3.686625140553173585e-02,2.156501749054454686e-01,1.150428277681575344e-02,1.813783524334124375e-01,-9.014415033552829193e-02,8.869172428363432392e-02,1.397313525583019321e-02,1.792492300192521926e-01,-3.645856388127204778e-02,1.902150323504911977e-01,-4.477897563467614361e-02,1.254403853070911248e-02,-1.050683023628228990e-01,1.221636349629779371e-02,-5.375999869735482647e-03,-9.825310999603546758e-02,-1.720973520335907225e-01,1.002657479886042563e-01,5.959550102799297810e-02,-5.971088898956593283e-02,4.945777149534874226e-03,-5.672706656764770622e-02,1.945466692662335120e-03,4.148089795596334589e-02,4.939797283034010056e-02,-3.611841941169824377e-02,-9.744382506337917124e-03,6.435031017134389131e-02,-5.378104292165538508e-02,-4.437594372936704695e-02,2.149512616325384776e-02,6.053587062567328952e-02,-2.727278140346259608e-02,9.846107358286416977e-02,2.716793674796854578e-03,-5.797213280703821664e-02,2.403690941494797395e-02,-1.317237056526010253e-01,-1.658228292651814928e-01,5.205194269704489785e-02,-1.594111391759992502e-01,-6.425229750186557676e-02,1.113227545157844944e-01,4.421447102530476347e-02,-7.451145914693564631e-02,7.165149118423063887e-03,-1.340547010121247717e-01,-1.043295897722131965e-01,-3.272352681627876177e-03,6.787076809092557061e-02,1.008336754087215542e-02,1.514563204619247564e-03,-5.472937987817229344e-02,1.808799245853970339e-02,9.497023260305298420e-02,1.255564643470800934e-01,4.924407686824908148e-02,2.747749390847488427e-02,4.501065923073373221e-02,6.275639576978998824e-02,-3.740316626292928409e-02,-2.571458018694347189e-02,-5.516995578303834913e-02,-5.058028028617811422e-02,1.976428984032362057e-01,9.050011091109809447e-02,-5.898667040347305851e-02,1.466774076168853372e-02,4.324465771596180952e-02,2.341329221575198360e-03,-8.436988715810966877e-02,1.554237442917012491e-01,-1.091921782425332305e-01,1.030869608232701934e-01,1.574075789420631422e-02,-7.120454729310062014e-02,-6.289745239603606285e-03,-1.711931433631559418e-01,2.754032394890939747e-02,7.288952766187506427e-02,-5.296302843160800855e-02,2.982885980552766117e-02,-2.498463604662152782e-01,-5.309648713876337356e-02,-1.336970920083118963e-01,9.257232735450184047e-02,1.947438572896023276e-02,-4.680690845212968562e-03,-1.887980279951412266e-02,-2.424577158377272737e-02,7.854931481973673191e-02,-1.041322134836970975e-01,9.326837973039392438e-02,7.000195649291778011e-02,1.031185001111240701e-01,-3.475059983788818252e-02,1.081916590558795604e-01,1.001216595823054833e-01,4.500283619625480153e-02,1.123300415843968142e-01,-4.408709736340420821e-02,-7.271722191507784018e-03,1.348030249677517611e-01,2.017821050268397420e-01,-1.646204111530019665e-01,9.374741069411783589e-02,-1.257685249486158729e-01,2.107221714989048270e-02,-5.874674324528046665e-02,2.061197107664027375e-02,-2.978079793475366457e-02,3.945041217888894253e-02,6.501753606740412472e-02,-3.477251455775223765e-02,6.689940660607376910e-02,-2.871449564557259498e-02,6.852501268905501763e-02,1.177885063938897692e-01,1.655157538288102442e-02,2.335433064152780611e-02,-1.802291380375942997e-01,-7.714598082152633596e-02,-6.222259084070557583e-02,-1.502289440897877117e-02,-1.399592216848181969e-01,-1.300635408708896712e-01,-7.667628681881527054e-03,2.082559373615848128e-02,9.866265983218872049e-02,1.433187096670731631e-01,5.286891695638780420e-02,-3.673013047753934113e-02,6.921515294180889677e-02,-7.979160782162730836e-02,2.142483972965554193e-02,1.790406599588298953e-01,1.474004602224274763e-01,-3.019547322165629794e-02,9.707943745178145012e-02,-3.874863504774431894e-02,-6.146753403388513504e-02,-1.608906697672125852e-01,5.373208331577557922e-02,3.063714542144787764e-02,9.849246872203294700e-02,8.063528174850237429e-02,-2.990896637957894330e-02,8.635322798123734600e-02,1.881161424672700699e-01,2.774520550665423579e-01
