1.181948065073183118e-01,-4.169917765974134327e-01,-1.527171421398069821e-02,-4.334982601039440997e-01,-1.244445676066784634e-01,-2.113190072982810974e-01,3.441559370969305420e-01,-5.089018023612487673e-02,7.446958372669582743e-03,-5.603965297673068058e-01,-1.598975147344729453e-01,-2.963940891834510594e-01,-2.017399651377420888e-01,-7.889291782935317632e-02,3.623565082272609539e-01,3.378415409202997211e-01,5.443475608012385281e-02,7.474106933797599606e-01,-2.011333648633679971e-01,1.900863154890155560e-01,4.105778467886885830e-01,-9.568668778509828998e-01,2.348514721625261092e-01,6.009279395189571771e-01,1.629961950325832520e-02,-9.046860936015670152e-02,-6.264552946216593865e-01,-4.905317971801533283e-01,3.001052688093858167e-01,-7.642144729294162407e-03,-2.970718539283898618e-01,5.232177316559820657e-01,-1.619956325428786523e-02,-4.482109363224349718e-01,-3.124097204112980530e-01,2.623468926523900291e-02,-4.262528733517931268e-01,2.748416911226626014e-01,2.140591054867676049e-02,-6.115463296396199400e-02,4.267003119203037209e-01,2.756902954468206171e-02,-4.724090763768666323e-01,-4.424861922500553657e-01,-1.512588433563662460e-01,-5.741101497169004420e-02,-3.228621484675080477e-01,-6.911791914253616331e-02,7.175446918650039974e-02,-6.486126927253872687e-02,1.468866788344968810e-01,-7.846794615628123470e-02,-3.007866397090785404e-01,9.263912284043033032e-03,1.501818703474337990e-01,-3.498443333506132680e-01,5.792897667218099844e-02,-1.455232886089088962e-01,-1.394063253772627742e-01,-3.929078106703273732e-01,8.746857159169950380e-02,3.527558559831245333e-01,2.083742112998061835e-01,-1.886424108011325873e-01,1.045847358217149789e-02,-2.913602935293071461e-01,3.300813426521488347e-01,4.923283749830003608e-01,4.855169797550028532e-01,2.009017318729898749e-01,-4.431508175183883694e-03,-6.303624335472797213e-01,1.431886636793685830e-01,-1.859812708304736661e-01,6.093994203834306178e-02,-6.440254004784099484e-01,-2.493579391230897890e-01,2.684904179058327789e-01,4.312229479580858560e-01,6.904743676499403016e-02,2.565249574877329075e-02,-3.687821718448503483e-01,-2.115280681934507689e-01,-6.880756783897878925e-02,-1.658873865532971559e-01,-1.522180992124411991e-01,1.171457230327100363e-01,2.242684269537509323e-01,1.609739830413361127e-03,5.637651850328966319e-01,-1.182634705676010173e-01,2.729467830560115479e-02,3.178451878430105793e-01,-9.957426964452656959e-01,-8.897756527306299734e-02,2.838229197502674106e-01,1.340574266096123356e-04,-8.321731330532947113e-02,-7.987174043124476430e-01,-2.714874014888349896e-01,2.009677244862206613e-01,1.282512525417604521e-01,-2.243973018610940229e-01,4.136397159292784509e-01,-7.070253685775845787e-02,-5.931115695141778166e-02,3.447993810949520621e-02,6.352022636821594292e-02,-3.088670667315480123e-01,3.194608231741852267e-01,-2.275413369897006932e-01,-1.229450640053807164e-01,3.390000124616859289e-01,-5.592925635486235836e-02,-4.088934805537973727e-01,-6.899926047252609163e-01,-2.899499490737059149e-01,-1.688004342069273356e-01,1.854355022124639166e-02,-1.217163842854767225e-01,-8.298626246169711054e-04,-1.899270490704820236e-01,1.943430155607736853e-01,2.118671453608440003e-01,-3.267848475012830600e-01,1.589169987924018423e-01,1.196098629951234948e-01,-4.446858396519138834e-01,-3.464159604747968912e-01,-3.117328194441612577e-01,-1.479652189756742453e-01,-2.986895023402754146e-01,5.096793083672326169e-02,1.419285211187971962e-01,1.387161913837789418e-01,-1.671198073920242000e-01,-1.812469348440855915e-02,-3.065406423671738767e-01,3.468249667612036680e-01,4.442680323096653838e-01,1.427034533678855355e-01,3.101057043518282708e-01,1.361299774627113823e-01,-3.226908096674624415e-01,1.499599796943625885e-01,-5.535361409419419232e-01,-5.071213352548473857e-02,-4.236585838961706152e-01,1.547855418386163973e-01,2.990774659069793673e-01,3.011462044747182931e-01,-2.617297642914763189e-01,2.173224802857108562e-01,1.114645478238594223e-01,1.487894667836270335e-01,-1.100690552881780498e-01,-2.831181401452487756e-01,-3.147727715807203119e-01,1.410978701059526774e-01,-1.710627319604301755e-01,-8.933075257608853736e-02,-3.043666134503072648e-02,-2.144429633714422800e-01,-1.418143265713208701e-01,1.959027986466906068e-01,-6.873174146984278865e-01,-1.738404592332047360e-01,3.105723567253986742e-03,2.740030156209478651e-01,-3.383722516069258557e-01,-9.017383734238783033e-01,-1.856471383883022130e-01,2.910148345491625488e-01,2.261445825848942826e-01,2.188187843087400358e-02,2.034768913265808110e-02,4.095311595719707820e-01,2.058133657593624044e-01,3.275190103966764688e-01,6.087293072594544829e-02,-3.206823525053393298e-01,2.811251882885389408e-01,1.347996359857798476e-01,-1.379401979856548777e-01,1.602673382322896412e-01,-1.062466248650290046e-01,2.248916432745752189e-02,-2.349351988685204062e-01,-3.295934172488445557e-01,-9.439874452473041855e-02,2.222357194879299724e-01,7.410026438397364357e-02,3.637848006588041000e-02,7.595199201049609994e-02,2.484055274992673090e-01,-1.530167513922974128e-02,4.616948648657107773e-02,3.657143008345525304e-01,-2.010137330819824694e-02,-1.796207385147602920e-01,-4.007482275322801213e-01,-2.333657694976336017e-01,-2.540076219607080577e-02,1.565203083099815373e-01,-9.269965338761462781e-02,-3.084218771101330248e-01,8.840723340385915618e-03,-8.882521131140000414e-02,-1.186177970403891058e-01,1.049894751508689134e-01,1.114330275768032896e-01,4.123219784503280305e-01,4.015619522136548158e-01,3.662558156379623342e-01,-8.563539568836625593e-02,-1.428745630762251195e-01,1.691222233884669413e-01,-6.602166970359150122e-01,9.316593204255649296e-02,-5.473870571134920038e-01,4.770886158010295697e-01,2.943957141984679393e-01,3.513404626824702115e-01,-6.427518832895459666e-02,1.137481655513412383e-02,2.896630610004919393e-01,1.692716663737879046e-01,9.891679708801913440e-02,-2.306624899507690729e-01,-2.543873285975390974e-01,-4.787987189241273145e-02,-3.318059405886749635e-01,-1.018660214880418302e-01,5.157860266724320804e-03,-1.399360989531066857e-01,-1.337035994231499103e-01,-1.545535640500492469e-01,-5.401098048333430324e-01,-4.981189556952819730e-01,-1.554631893494772821e-01,9.123272717372107876e-02,-1.984356626191673967e-01,-7.996371349791649985e-01,-1.861890322336427206e-01,-2.650855847410266697e-01,3.908275719707209328e-01,2.778138879391329197e-01,-3.302804583318488807e-01,3.816590121847416861e-01,2.657396388802554799e-01,2.259175424805190957e-01,-4.860847774242573610e-02,-3.534725037756076826e-01,3.606058170119251782e-01,1.911857315830430282e-01,-4.297756137663041320e-01,1.661208770246097866e-01,-3.419802827980969462e-02,4.773015695699590055e-01,-2.121276225438313914e-02,-2.792610046563922532e-01,-9.896194961274147606e-02,2.662857850735012577e-01,1.421673806303757615e-01,-4.823180835167503039e-02,-2.651881827115393133e-03,1.768423589525987549e-01,2.971295595564318326e-01,1.109377962628888409e-01,4.546025168762698465e-01,6.501042361196804342e-02,8.785847256884643519e-02,-3.163193215451552409e-01,-4.088993630331150264e-02,2.369240557597739744e-02,1.683757700561397657e-03,-1.839510313222295634e-01,-6.840053159388408133e-02,3.460916989879846972e-01,4.219426198684580152e-03,-6.664279403107908895e-02,-3.132799033495684560e-01,1.615204351067811850e-01,8.561531112782833075e-01,2.688691088049066646e-01,4.229478857173478157e-01,2.327547528759463802e-01,8.988710853539678969e-02,-3.513727300947757093e-01,-4.409730507080426021e-01,-1.051170979225118512e-01,-4.851734739797706197e-01,3.439235262113651270e-01,1.250654104430408975e-01,-3.759261339320470446e-03,-1.620860189425190334e-01,1.234300761396027457e-01,2.184688276603752310e-01,-2.474636516243923154e-02,3.531361793995819176e-01,3.380621943777477600e-01,-1.997789002381084381e-02,-1.260782395869603639e-02,-1.241819795389220021e-01,1.242321011173931102e-02,9.726417808056837810e-02,-1.532982313760414550e-01,3.209545016691570662e-01,9.551866196426680999e-02,-8.592796198143998199e-02,-9.272319077773534535e-02,-7.506685423837058252e-03,2.040377020881799786e-01,-2.852843081811750059e-01,-4.610278322508087334e-01,1.909308644921392795e-01,-1.303582886405226238e-01,4.261818010398884526e-01,1.124249363254567063e-01,-3.097513133618737258e-01,2.365999833362294746e-01,3.198446101394660235e-01,2.670245485596166035e-01,-1.423601215987327639e-01,-4.030285844775716858e-02,6.729316822543980614e-02,1.306435504116631452e-01,-5.458932437064837467e-02,2.101696290289847002e-01,2.223054305017574672e-01,5.151809724859752748e-01,2.752007827425067554e-01,-1.170477407552346222e-01,2.094243621566628799e-01,2.033374563958977033e-01,8.967392444718076672e-02,-9.223565650380304015e-02,-3.781496148143713154e-01,-9.430159613583746769e-02,5.218028657865512315e-02,-1.421407560868164291e-02,5.708483840343751003e-01,-6.812171152749200986e-02,6.291812449474099012e-02,-1.558148925751852154e-01,1.960842802969996468e-01,4.937861221999727268e-02,1.571795892258862071e-01,1.660987525330753431e-02,-2.619190466319989974e-01,6.951378844576842075e-01,-2.397954327349036963e-01,-6.667095759055691184e-02,-3.135627960672456860e-01,3.321948043054289562e-02,4.177956775674736001e-01,5.031453591732084306e-03,3.205310431809209604e-01,3.556196679599843979e-01,2.601269521856567346e-01,-3.990333845163480109e-01,-6.163623197680381111e-02,-2.731991312809862738e-01,-2.269574545493658890e-01,1.395283899753694545e-01,-1.160654753038870696e-02,-1.051164987205240320e-01,-5.348239767746153506e-01,2.664169410644393055e-01,1.670669494534535449e-01,-1.562545113107544903e-01,1.472044853827272348e-01,1.613515584786733015e-01,4.737365320580613076e-02,3.849244343876290220e-01,2.773221289602406103e-01,4.534871991907062361e-01,-9.536201684024198100e-02,-2.041129944055037337e-01,7.492692001978698002e-01,1.069410509509269441e-01,6.620943110644331164e-02,-3.595386742881964137e-01,1.410370305591205353e-01,-5.235829480290584564e-02,-3.282175390930711645e-01,-5.395511148445804039e-01,1.689054302420234521e-01,-9.883582762335731131e-02,3.491848940947180346e-01,-1.000555110301494799e-01,6.560995500302464756e-02,4.440214564481340109e-02,1.162710143340909136e-01,-1.745219579010999500e-01,2.809342254294796004e-01,-9.221477983637579867e-02,9.194305575097062866e-02,-1.579854516144413995e-02,3.168167791826054236e-01,3.903747629280053255e-01,9.785756431029292435e-02,2.983478721707819026e-01,2.596401136230175877e-01,3.906972386082321336e-01,3.325737916827801177e-01,-2.445150894701292599e-01,-5.118044070201047818e-02,2.182091542898456638e-01,-1.508680110294402243e-01,1.873882388707879265e-01,3.683078094038255146e-01,6.193363072437579886e-02,4.013179108397430528e-01,-2.345948816724411634e-01,-2.236291778864396562e-01,9.058709866388965637e-02,4.846163985218432946e-01,-1.340700864565137762e-01,-1.112978657596441628e-01,-2.402282993448145443e-01,-1.197975036503430013e-01,5.301682340852992281e-01,-5.450560855029277230e-01,2.293689966605733654e-01,-4.807565050424785214e-01,7.655018314837024052e-02,-5.553862129881007026e-02,-4.053633226982543691e-01,5.227864900560202227e-02,6.489374950852556667e-01,4.952993521249994258e-01,-3.214102800445129415e-01,7.184705667324883804e-02,3.085048159361454267e-01,5.152830291774503774e-02,-1.681461261035462063e-02,-3.184493556208426446e-01,-6.920779002697452498e-02,-1.853098292365853994e-01,3.772156236092714110e-01,1.547608572252907183e-02,-5.240709737900242082e-01,1.624765977433551833e-01,2.069560636070429394e-01,4.076645113945782939e-02,3.048939174841027583e-02,2.260006770309939406e-01,7.956857356545379845e-02,-3.125226932652733908e-02,2.433847737955717634e-03,8.006820762059561059e-01,3.998089951315221546e-02,-2.126615462657311661e-01,-2.978367182961661960e-02,1.832052703253125581e-01,-1.427708489160820771e-01,-1.428664973408777794e-01,-3.903687169689096792e-01,5.883768528533854861e-03,-1.397971112367775610e-02,-4.373429039831564641e-02,-3.767348321053261284e-02,1.798136213360688740e-01,-2.941440585608906186e-02,-7.998874323137243614e-02,-3.083983479218826429e-01,3.247869482655102447e-01,1.068315674280796990e-01,-1.162667190137567780e-01,-1.451332810207019430e-01,4.811356369054807791e-01,5.032341322156280716e-01,2.877142507433607110e-01,-7.887077613101606960e-03,-2.903985349028919138e-01,2.254539784002189962e-01,7.718888130414652826e-02,-3.254107538090723062e-01,4.431193291347906155e-02,2.217458543232904145e-01,-4.342729339122055610e-01,7.855056315106587542e-03,-1.142941334300903375e-02,-3.496168477383952422e-01,3.954291686949523710e-01,6.354867727126069232e-02,-1.787636768483273977e-02,4.017751298792146541e-01,2.972010112873254006e-01,-4.862732137357086981e-01,1.612836279023910357e-01,-2.715899749925844708e-01,-2.621827868570330566e-01,-2.686630691820206251e-02,-6.145624434123627688e-01,1.764525460304878710e-02,-7.589468251006048494e-01,1.944864252538234806e-01,-4.112802372782455862e-01,-7.377598947655821249e-01,-9.233317509804128687e-02,4.151313070974879116e-01,3.418592763362071629e-01,-1.501970840314816036e-01,1.803975251289000326e-01,4.635286267107476821e-01,8.891383550650582002e-02,-2.728154210016248693e-01,-2.851438100637547768e-01,4.725629987808828078e-03,-4.532183113258009821e-01,2.471454950416771545e-01,-7.363175000355699773e-02,-4.208872150552316893e-01,-7.027401990327862558e-02,3.564097771533743519e-01,-1.467265830811968208e-01,-1.927010594003782107e-01,2.390631731519223327e-02,3.277590660970176040e-01,-3.061522426558603294e-01,8.579557787705563432e-02,4.522716457472518159e-01,1.402888666806093865e-01,-9.865014284556107571e-02,6.807171925406552138e-02,-1.748275968646100659e-02,1.347109541307862646e-01,-1.605177590326474779e-01,6.855775500816341239e-02,5.296529755681039786e-02,-8.794292915552312517e-02,6.034120033737907368e-02,-3.344365061327729260e-01,6.461263388311527800e-02,-2.032769286821663191e-01,-2.024256489903274170e-01,-4.592734233569250590e-01,1.842879612961464963e-01,-2.449101954520505574e-03,7.036434556491241721e-02,-4.851955301218600081e-01,6.889872678110434689e-01,-8.992465498354607067e-02,1.124666938242535746e-01,-9.682228939970720372e-02,-2.549185856605166722e-01,3.258804068158837053e-01,7.492972478914980416e-02,-5.183692950593273840e-01,-1.828339066876341623e-01,3.839000050878621506e-01,-2.704689436131999525e-01,4.046744293539186049e-02,-8.524368780183652974e-03,-2.445342876896962614e-01,3.497772283725012477e-01,-1.119036889164556070e-01,-4.738436485501099082e-02,5.130061734966941955e-01,3.124011634299880824e-01,-4.134092197985022588e-01,-1.439221952942214833e-01,-5.347414002130009836e-01,1.332943604811556437e-01,-1.095603651076396540e-01,-5.469079758795940549e-01,-2.684267734662859617e-01,-3.469848515668401689e-01,3.191172634199329616e-01,-1.267786513223441713e-01,-2.592681659621425827e-01,-9.564789161787011496e-02,2.473074922167991796e-01,4.806261383331385528e-01,4.164072616193807003e-02,-1.348228040542013006e-01,5.980253761690469405e-01,8.713054165301947762e-02,-3.620226993997289200e-01,-3.948782592384957324e-01,-3.059392024904919460e-01,-4.040039506558140703e-01,3.990657079154643488e-02,-2.138115763275909575e-01,-2.136266140378323686e-01,6.196673916249249153e-02,5.669513407114123993e-01,-2.327996435815163079e-01,-2.786108354495103745e-01,-3.119239055958051843e-01,2.486984985986915586e-01,-1.102664760410048544e-01,-8.828038319057243677e-02,9.146651068305003407e-02,1.463804844427517293e-01,-5.396991555504791760e-02,5.219575776160264441e-02,-1.095492188425479241e-01,-6.186662308088339973e-02,-2.406257361567126218e-01,-8.552604145816584957e-02,-1.290096514789917659e-01,-2.457738820241963107e-01,-2.761927672217856858e-02,-2.773931896005207287e-01,-2.049762478830491896e-01,-5.469515053105389324e-01,-9.946660455521856570e-02,3.055245661360704579e-02,9.794495570396380413e-02,-7.647542060242115691e-02,1.593258570862315648e-01,-4.366475500841406343e-01,4.269487125670873851e-01,1.048474398853432576e-01,1.753108832549112317e-01,-1.481484040352970821e-01,-5.304783804571877592e-01,2.087763798849029129e-01,8.769917092121320978e-02,-3.155007010237842469e-01,-1.924601309790513193e-01,1.644536190823023269e-01,-3.577067677007068902e-02,1.468286025123279881e-01,-5.371994585573007519e-02,4.396451341414753244e-02,-3.812934736895010057e-02,-4.118941234285261044e-01,2.665388995779534309e-02,4.232624219664791326e-02,1.007780842811878061e-02,-2.295358245769245353e-01,-1.069724508439417743e-01,-5.199430575532497656e-01,4.392055451996187271e-02,-4.338052165894950019e-01,-6.451642158500133784e-01,-1.088476586492613529e-01,3.854829097562209594e-02,1.392609578725220731e-01,1.267874252837643823e-01,1.414249186986806309e-02,-4.187576799251253590e-01,-1.642438896312566343e-01,2.293023858892993261e-01,2.896682608634224554e-01,-2.667907971535408707e-01,4.288548218270506474e-01,4.050626361495849627e-03,-2.038462423329787110e-01,-3.026060007365288795e-01,-2.252481281118870748e-01,-6.724035111529776121e-02,9.061244471122280320e-02,1.327299931197352921e-02,-1.451332062154551683e-01,1.607306980952852848e-01,4.238703527684643535e-01,-2.098804423697471153e-02,2.070208583455894480e-02,-2.369384869974824892e-01,2.347156412214850829e-01,-2.541726990333394998e-01,-1.257880938588826769e-01,1.293402548354948833e-01,-7.143327306874744376e-02,-2.935865084665494340e-01,2.423835141450696173e-02,-3.104738176865343147e-02,2.563590760869179364e-01,5.135882192361287957e-02,-1.492807562631879581e-01,-3.387860237629693461e-01,-2.630322627063887975e-01,1.639412563706291182e-01,-8.903344167430608802e-02,-3.627923809486741091e-01,-4.517896681332415065e-01,-3.665630694916676702e-01,1.635497123004179820e-01,2.432817571273204194e-01,2.239140166759319150e-01,9.995732896407662216e-02,8.801320248129285151e-02,3.184681747102874882e-01,2.833784180571154998e-01,2.353743135582561097e-01,-4.376442481910651217e-01,-1.848920635786909239e-01,1.352668685707074936e-01,2.610512608186488226e-01,-1.000556872482404325e-01,-2.329628792494252074e-02,1.742326465053638251e-01,3.836560038286437185e-02,-1.766055196691120877e-01,-3.547397160003332162e-02,1.140818417968791909e-02,1.452574478196216323e-01,-4.452305828777168295e-01,1.101918773794949846e-01,-1.539443910587915132e-01,1.044292374970345189e-01,-4.023496254523933197e-02,6.000121484667930716e-02,-4.255267553943734571e-01,1.352081906844186665e-01,-5.864015202218280098e-01,-6.160995269813930308e-01,-8.664067218375441637e-02,6.024545820925235329e-02,4.125653924413898166e-02,1.032842688375537332e-01,3.218048872198435162e-01,-2.913934159681509928e-01,5.541347517983793297e-02,1.609477708885405645e-01,2.768873381426002478e-01,1.304254324513336172e-01,7.792304079690437479e-02,-9.543678624468328320e-02,-3.486666390882824373e-01,-1.039818965446019788e-01,-2.265025621282442878e-02,1.157263982526994667e-01,1.453420703340732034e-01,7.710374527112877352e-02,4.513404724131690748e-02,4.840220659481674903e-01,4.650040547226570453e-01,3.674584559315208221e-01,1.589422813633770137e-01,-3.354739601783687797e-01,1.841594059812813877e-01,5.774598215290741715e-02,7.040537973776855862e-02,3.912714903236375052e-01,2.683691519125731562e-01,-6.085855862535038269e-02,1.995499800739529150e-01,7.063141356933368142e-02,8.680039326586054538e-02,2.445689531791677973e-01,-2.007714100849879169e-01,-3.769869621153998374e-01,-1.117360883288322365e-01,3.454431612341726798e-01,3.469108734079607292e-01,-4.182042731713386807e-01,-1.374057499363406376e-01,-2.351942932357605487e-01,2.048469232728681311e-01,-2.332826762346145721e-01,1.465102414340341275e-01,2.236862897053653806e-02,1.095881837005144854e-01,-1.652589369919092166e-01,7.146233853224145394e-01,-1.894610081449067118e-01,-3.045832870318618824e-01,3.375140495478736180e-01,2.960800957857259719e-01,-4.277924545191261890e-02,2.265707031376100467e-01,7.217327887965400979e-02,-1.735023717307628277e-01,-4.347136429389809043e-01,-2.343412077965761342e-01,4.923624775492416172e-01,4.084643196056544356e-01,2.249993393780200801e-01,1.014261897074521419e-02,1.222762557784307369e-01,-2.350554034288947214e-01,-1.353915154888016004e-01,1.032850176295275341e-01,-1.478805575931584348e-01,-1.998879719709712455e-01,1.383187681044850958e-01,-4.232477890225563866e-01,-5.432671298791071773e-02,3.007517163967264318e-01,-2.070070816438631944e-01,2.471760475196289365e-03,2.083835206069254709e-01,3.998143531456160860e-01,-4.109729864545783040e-02,5.132152826561660330e-02,1.785662192520738323e-01,4.328784870405046337e-01,2.132964561037435092e-01,2.441033426963563555e-02,-2.028908601321256500e-01,-2.006103766913526765e-01,-1.556938355565174459e-01,2.519180700147756191e-01,1.839210290734018538e-01,4.433473505450455376e-01,1.708312495923098862e-01,-3.879043323273356214e-01,3.963025357424967421e-01,-1.108720421816138946e-01,3.183690256798791807e-01,4.337344696479429329e-01,1.370191957900994406e-01,3.850686435003944919e-01,6.169206841232035554e-01,3.793175176840580254e-01,4.616373982617013039e-01,4.408879119152830928e-01,-2.755841613704112514e-01,3.785094558522415498e-01,3.861839663937315370e-01,1.492658268456981685e-01,4.001927896007293484e-01,-4.109693835375257676e-01,-1.761897595450851450e-01,1.664138555927840157e-01,3.993237839543931078e-01,2.133252797602784578e-01,-5.063982824638965097e-01,2.651635461120640039e-02,3.165345029757612311e-02,1.146960360358296044e-01,-2.620835943578747051e-01,1.850135530226240388e-01,-2.438405818149715770e-02,8.408400836550974922e-02,-5.587501202858959374e-04,6.057591080319056909e-01,-1.590013840021479719e-01,-1.913639033134352865e-02,1.833635701970863230e-01,1.337926727671578386e-01,-7.918418938673937174e-03,1.939728906464246450e-01,-8.081881283744048183e-02,2.250521993988030822e-01,-2.997922604890645437e-01,-2.661865067215347658e-01,2.740932130240413822e-01,3.672901986931998985e-01,3.285207751596934678e-01,1.212110145478144801e-01,1.298828676169466179e-01,1.721116760202005824e-01,3.200536008409410882e-01,9.710128782170256156e-02,9.404132061472011972e-02,-1.755451486995691091e-01,4.240294544432385987e-02,1.060377571432273291e-01,5.086384857955196237e-01,5.035663004055793701e-01,8.028102231447165060e-02,1.977266873830905713e-01,1.886793157194778803e-01,1.313107195174035569e-01,2.116690131341176784e-01,4.122297575773075651e-01,-2.659404484457105755e-01,-3.869909240756275737e-01,4.035555846282067732e-02,-1.959918980192226767e-01,1.271999368042069367e-01,-1.914242918825967699e-01,-1.868214170427848486e-01,5.184535975734465563e-01,-7.987784116090941577e-02,5.202073510847599058e-01,1.792817702908690858e-01,-5.680561975416253961e-01,2.057750892220175931e-01,-6.375228339700658720e-02,-1.586210076561423155e-01,2.854593155764992840e-01,-1.873335119464233089e-01,2.480647501377890307e-01,4.257083621186725231e-01,3.148230533234926964e-01,2.431274250210062604e-01,7.686872213404136178e-02,-1.988223701165823532e-01,-2.216977652106932317e-01,1.124739150263815157e-01,-4.309552888458120790e-02,8.413268717793717655e-02,-3.981701040995261898e-01,-4.513981537209941358e-02,6.872248498689677298e-03,1.987406188239638702e-02,3.991414716906391269e-02,-2.751071843753129520e-01,2.630827239168573306e-01,2.162397196814450362e-01,2.410007930518650865e-01,-4.974728568755040214e-01,2.580226701011724758e-02,4.175083892876022551e-01,2.154345243934119025e-01,2.836850944859409807e-01,4.890149824685284807e-01,-1.427672519235723136e-01,3.317807917335440782e-01,-1.646809290376576723e-02,3.529786530857104143e-01,-2.080392741493201636e-01,5.794396951370177351e-02,-1.232884867143812790e-01,1.383791848750091924e-01,-3.286361119065248637e-01,-1.880579009192565876e-01,1.641669336433409787e-01,6.819955163658159014e-02,-1.126714203841350931e-01,2.843089965903722316e-01,-1.002706469566623099e-01,4.195982528710169857e-01,1.964285571055593704e-01,7.706960380495710139e-02,1.962303254975965583e-01,-2.366031969559945769e-01,-5.613800691019208422e-01,1.415428638378433135e-01,8.812336761324418566e-02,4.518180785430265245e-01,-4.251349607420124022e-02,2.356237363270382856e-01,3.126062772085945740e-01,-3.515037083766122672e-01,2.211402068967274759e-01,8.131815464625974377e-02,-4.030683692641320870e-01,1.155920490216289231e-01,1.174473626659499337e-01,1.150166026150555854e-01,-2.323230461453698603e-02,1.293650783067101795e-01,1.491187602561414548e-03,1.159812591039245111e-01,2.037192626565723641e-01,3.647746927529234989e-02,-1.194483965696317984e-01,-9.223638508017655002e-03,8.656506778316763739e-02,1.444539190478806301e-01,-9.091272239454079029e-02,3.411651378671636068e-03,4.580039377082921470e-02,6.596631357110102623e-02,1.135088414451254080e-01,-7.237748450056266658e-02,-1.988134857773683761e-02,1.232631289048748413e-01,6.169997225724778434e-02,6.730454622298565059e-02,1.349988310112437417e-01,3.287182011572602203e-02,7.526682335200053642e-02,-8.989905046911753420e-03,-1.120345208820206218e-01,-1.070593073832919045e-01,2.989853651307997073e-02,2.510409345195193515e-03,-4.299383570768066515e-02,5.426791078673391666e-02,-6.656067406600787995e-02,3.360020778311409440e-02,2.051422531278946151e-02,-6.153241031640759029e-02,-2.073541069089668842e-01,1.681192197920959863e-01,5.413020471521278604e-02,-2.439461127813958852e-01,-2.017638061853548048e-02,6.184525426974889911e-02,-3.475879252287771698e-04,8.049949240513983029e-02,-7.486027738010700427e-02,3.998325406662391057e-02,1.711811187130114417e-02,4.160282448619428454e-03,3.635909659832812189e-04,4.244243666407980509e-02,1.157386225136262103e-01,-3.054549887518838089e-02,-1.825752125637631479e-02,3.852298031906820075e-02,1.045148358194213437e-02,6.102671037924956021e-02,9.429555472025130669e-02,1.515853714299058574e-01,1.082206631765062453e-02,-2.052633185212182632e-01,1.550402719930410629e-02,5.785352383310107122e-02,3.770979491541875603e-03,7.142864968107646637e-03,-2.207843701198930475e-01,7.326491480635484443e-02,-9.936751757183658398e-03,-1.286411796462019752e-01,-6.467572541467875302e-02,-6.401651300174171499e-02,-1.685684779760913354e+00
-1.155972339576053359e-01,-4.477164050124588651e-02,3.112350621206835255e-01,-2.791482025039895287e-01,-3.612048921892141995e-01,4.615194786256188869e-02,3.176723332297362590e-01,1.376857685821883115e-01,4.326748794738391468e-02,-5.421630850805727597e-01,-3.819933969094741477e-01,-2.590007454703350254e-01,-7.268811164089367116e-02,-5.199648195249238769e-02,2.322197807287308957e-01,4.823331182730026812e-01,2.451758511084149161e-01,1.045690269806518469e+00,-1.411133973266053554e-01,2.707302158042835249e-01,4.323673355753673841e-01,-1.284290730498295341e+00,3.003369491903655208e-01,5.539990623830698402e-01,1.079073756342782686e-01,-6.732779118870091395e-02,-3.128262997084222952e-01,-4.132818204261538009e-01,6.856192422759906924e-01,-1.370439254078807123e-01,-2.514250421435132998e-01,4.807541079617021484e-01,-2.153185309256884228e-01,-1.771848311977270995e-01,-3.339455159534656659e-01,-4.466209430534449215e-02,-4.379997232754080372e-01,2.543817437787631586e-01,-9.968780486007389197e-02,-9.402186865081964273e-02,5.539467546321430458e-01,-8.063391266059979912e-02,-5.316396537439993519e-01,-4.948948293197511505e-01,-3.986023519747599608e-01,-7.805154385410953410e-02,-2.982439769266945206e-01,-1.153164120114046481e-01,3.933863856435233612e-03,-8.133439720210941526e-02,1.354524833860229205e-01,4.632012353341458111e-02,-1.990290698168522276e-01,4.371671411352948122e-02,1.857149411965535457e-01,-3.611454260789766502e-01,-4.703406972262962754e-02,-2.121620733439686934e-01,-2.090760707862131251e-01,-6.600073578233586202e-01,9.005656237500975214e-02,2.468383889582203838e-01,-2.336752151632544294e-02,-2.352735955117927699e-02,-8.245547619366459802e-02,-9.327883314321738784e-02,4.248954157941549070e-01,3.158644378010781462e-01,3.893027374670188778e-01,4.037815920520225754e-01,-1.066454847265988493e-01,-4.112195570855607385e-01,6.548791422060791512e-02,-1.153883508758344056e-01,2.429365870194387100e-01,-2.822575976103997020e-01,-1.082388041780804611e-01,7.806999989956313335e-02,4.037876650963312941e-01,9.770473739842015781e-02,6.178384034195524149e-02,-3.739837180012292039e-01,3.512116665569773449e-02,-1.508839105851547124e-01,-1.475007776083351631e-02,-1.133179494480319044e-01,1.826469948201388249e-01,2.112134181963864210e-01,7.919246249413812444e-02,4.933506020129865277e-01,-9.374782082773779057e-02,-4.359054890286934159e-02,3.361026695234185513e-01,-8.599696256935994709e-01,-1.692196115528994960e-01,1.865429698599297414e-01,1.145589760843745281e-01,-1.142740562750767380e-01,-7.562927089385612645e-01,-3.997879945305008453e-01,2.652976582259826688e-01,1.524200238456554779e-01,-2.957629441440686735e-01,4.022442595784752606e-01,2.235978316671628774e-02,7.291767306667926510e-03,-1.300976768272676665e-01,1.351076001818910799e-01,-4.992207237623703664e-01,4.362944510342748883e-01,-1.405401515175201121e-01,-5.061631107091346671e-02,1.278677419121183045e-01,5.793116844846692148e-02,-7.467997253055062012e-01,-3.589094312073639048e-01,-2.824639882700561433e-01,-6.062836612740051673e-02,-1.411113701104681761e-01,-1.866184845320269792e-01,-3.686604178785852365e-02,-2.358025338422949924e-01,-9.068532164302567367e-02,5.715350901028183606e-02,1.124502415074536132e-01,3.279786861189482039e-02,-1.295976866198774499e-03,-4.758396367948801164e-01,-2.165742212495607721e-01,-3.884862520320150336e-01,-1.924106605970317407e-01,-1.988459410205742628e-01,4.560162269545936509e-02,1.475416870588836249e-01,1.163746703679962857e-01,-9.649929642974617791e-03,-3.861043008868277338e-01,-1.826332870763910654e-01,2.174603828372237146e-01,4.414673408108620856e-01,9.152131473222617497e-02,2.395510650359829741e-01,-4.565970465495006875e-02,-3.492795478292159972e-01,5.194874766694540513e-02,-3.317052019078759462e-01,3.672419052677213663e-02,-3.292590068888577859e-01,2.941939821123353005e-02,2.024930252732002056e-01,4.630549662496845076e-01,5.840986190171915809e-02,-2.140932619807006665e-02,-4.966051643337363736e-02,1.884101555987845178e-01,-1.529831787533111609e-01,-1.254378687694911731e-01,-4.422527731495162207e-01,6.561829523502868411e-02,-1.479015258687230994e-01,-1.630135754653746216e-01,1.711507482120266654e-01,-2.496585863122369187e-01,-4.460931440005760917e-02,3.216574933473536485e-02,-6.303896291476898117e-01,-2.966249346868608527e-01,-3.626895141873064804e-02,-4.193770459080949781e-02,-2.887677344775426702e-01,-8.352161642857801604e-01,-2.652229471276259520e-01,-4.166231583215223438e-02,3.405290619873778124e-01,1.128039788959584871e-01,9.614581570086379314e-02,2.008423309150919600e-01,3.077427863080674508e-01,3.028381856145190842e-01,4.595004930363287554e-02,-1.554836507650637634e-01,1.123410664904612166e-01,5.346633650014035594e-02,-1.418396456395509264e-01,1.012333619428438247e-01,-1.769715249940094215e-01,7.490153025542259368e-02,-1.973032435202467516e-01,-4.305878345169205645e-01,-2.461015665922657303e-01,1.664313352599803841e-01,-5.021436652188277644e-02,-2.901808284518800907e-01,-7.704466727450594299e-02,3.044725832405554833e-01,1.687712631546257613e-01,2.053982681085203890e-02,4.640459759330329281e-01,1.255011330812670078e-01,-2.870571482379630779e-01,-3.353847667913933406e-01,-1.242108497861193483e-01,9.880591478581705889e-02,-1.697531810655493467e-01,-3.489821369849973459e-02,-1.586773069449299300e-01,5.110860669142058138e-02,7.662302853618788157e-02,-1.274346773784474085e-01,-1.738568550086729003e-01,2.705061294567189800e-01,5.924104300949705193e-01,2.789596853049468583e-01,4.408826296971785630e-01,2.473814154519541134e-02,-9.225866435903860852e-02,1.145779889576882121e-01,-5.799099525536600686e-01,-6.066952242886335632e-03,-4.584385370714563757e-01,3.036496356328456381e-01,5.154037869568173225e-01,2.858651507587194329e-01,8.196507353879345370e-02,1.938477284163976078e-01,1.594222283349759073e-01,4.661685918365804926e-01,1.260566105877617693e-01,-2.101726810419907721e-01,-3.301068361680905006e-01,-1.256932948097276397e-02,-5.617751535943572572e-01,-1.517257631839185883e-01,-3.250944812383515514e-01,-7.662629423857121591e-02,-2.017130984903024449e-01,2.038233202065707628e-01,-4.398768552165484014e-01,-4.521190006423415619e-01,-3.946697404504896645e-02,8.942753891298556301e-02,-2.969750289179520775e-01,-8.146874253725899795e-01,-1.366736526275084962e-02,-2.754687120417310606e-02,4.274629044156078028e-01,2.339619029057426192e-01,-3.747511736555810824e-01,2.564660545780523271e-01,5.148270390173198541e-01,2.625173588565337113e-01,5.296396079493349493e-03,-7.940612638895987174e-02,7.633474404418959247e-02,3.350531030712906033e-01,-3.114327534137982245e-01,-7.922022505620412991e-02,-1.421010564487298899e-01,5.182630942567301169e-01,4.196236037348683584e-02,-3.005700375549004710e-01,5.498340447201887499e-02,8.189555817340526955e-02,1.702662948165199197e-01,-1.940939366679195199e-01,-2.192847031879474884e-01,1.870152857212263597e-01,1.680838487719943652e-01,3.110697603826254043e-01,7.031169044980581928e-01,7.049246182053410525e-02,1.769424203310944188e-01,-3.548467433203128518e-01,-1.059608244001878502e-01,1.157165797674029328e-01,-1.162706507037815223e-01,-1.559659551194770566e-01,-1.163713367239942176e-01,2.903718703610868035e-01,-1.334978475814301013e-01,4.485573210885973258e-03,-1.638539428121861541e-01,2.385711452607833238e-01,7.792266924152035923e-01,1.863628043359413511e-01,3.430771207083667118e-01,2.558640385244290716e-01,1.993660988427311265e-01,-3.398905375519664651e-01,-5.060090980905908031e-01,-1.166040796400409502e-01,-8.020388403896535623e-01,4.170881566294004084e-01,3.551919843447384206e-01,-8.564060017303595784e-02,-2.657800202586942384e-01,3.662723802255504063e-02,1.482229200239715550e-01,-2.902357737044894675e-03,4.637228775769365319e-01,1.319907768076967157e-02,1.188612182621118923e-01,-5.780948008669443278e-02,2.904480058955635421e-02,3.417020645391804362e-02,-1.455237045000194185e-01,-1.461850745514092220e-01,3.896741037393711693e-01,2.039947366122885630e-01,6.396740261301527009e-02,-1.683303305825865348e-01,-3.955717017427375776e-02,1.125722388302967669e-01,-3.694170917534106424e-01,-6.667958756670331333e-01,1.760079930700312878e-01,-1.275878861190690161e-01,5.342939132423513149e-01,2.842922707721537989e-01,-9.060446902016720816e-02,2.593315614038991801e-01,2.658981111431659161e-01,3.194351045212466267e-01,-4.260626977308398095e-02,-2.035312006270927759e-02,-5.918266798723553768e-02,3.176049374336482045e-01,-1.183274248912902227e-01,2.602072187182655205e-01,9.992884312175719097e-02,4.790415446490195461e-01,1.619614806052964984e-01,-7.953979630047910976e-02,2.020878496998745055e-01,4.081541591360685062e-02,4.293982982586034836e-01,-1.129870889824182573e-01,-4.212838702702138560e-01,2.148734871223469400e-01,1.940203966560150872e-01,1.148723893362409432e-01,6.655099198185938647e-01,1.359746266302372109e-01,1.148435127352208790e-01,-3.506144852528619293e-01,2.911958885790227880e-01,-9.641684137648605379e-02,1.242216945934474098e-01,-1.493258854477282627e-01,-1.072637090133412296e-01,4.962293334212135587e-01,-1.574886695585615837e-01,-3.325282275095768625e-02,-3.770403966772885029e-01,1.207457273932943526e-01,5.480621969120857973e-01,-5.629875611810766095e-02,3.473487068904319575e-01,3.709889397502173503e-01,5.345321845659505300e-01,-4.369843616054682744e-01,-1.029083770424130823e-01,-1.206791535075247418e-01,-3.914171495610255236e-01,2.984287912277601151e-01,-2.520222726283192216e-01,-5.707136284269480331e-02,-4.112021180016147692e-01,1.744231593470824682e-01,8.924586224495258124e-02,-1.658304577358546417e-01,2.294272045975395136e-01,9.449053724953637712e-02,-6.260092164226278844e-02,-2.130368553310712371e-02,1.935707049639369959e-01,1.297793797057874565e-01,-9.383683916776706935e-02,-5.725505229035515731e-02,8.901097989351411943e-01,5.188505378992291917e-02,1.182055774362524569e-01,-3.484051876702514705e-01,4.080280382645896098e-01,-1.205486790068877323e-01,-5.209524367792175426e-01,-3.286883472408193008e-01,6.631251313188679664e-02,1.596640659143584370e-02,5.713726173816676690e-01,1.221844281041163799e-01,-9.137963590848449669e-02,1.633048747909383314e-01,1.177863427586949563e-01,-7.232707581545615161e-02,2.470344216840143492e-01,1.681770814728358321e-01,1.266631373794622484e-01,-5.776665213748252876e-03,3.469353320199727864e-01,5.140007466018455817e-01,5.899057900870258164e-02,1.381601725372427758e-01,2.638399850859352719e-02,4.285925499457143295e-01,3.886900384668197095e-01,-2.754713940876953315e-01,-6.050461260190101442e-02,1.335798147535215696e-01,-1.357264409364053181e-01,5.021368603854908796e-01,2.744944910782090575e-01,8.161879416137290955e-02,4.197923438804875285e-01,9.585603343873425053e-02,-1.085985289461957881e-01,2.024496018703294264e-01,4.649234258567819245e-01,3.258186015030888061e-02,1.729018328846999575e-01,-2.153806969156338569e-01,-2.712688595073513564e-01,4.659282828584820901e-01,-3.517247389310883543e-01,-2.437972033142731670e-02,-4.069273460223594707e-01,4.389271121710468931e-02,-1.151036981153266137e-01,-6.085990458994409158e-01,4.004609384497469227e-02,6.195063834194288743e-01,6.150037241876656902e-01,-3.312654084608114835e-01,1.166093719613886942e-01,2.189809602698226387e-01,3.485509776460724712e-02,-6.873546279286278649e-02,-2.658603440846075139e-01,-1.279850263257372722e-01,-4.243565988193791494e-01,1.349518451986401746e-01,2.330555929316334152e-01,-4.491921773969342335e-01,5.819762825645320020e-02,2.117851179444766585e-01,-6.295048051049727256e-02,9.716514873256992813e-02,2.041125441150589970e-01,2.173963937282094305e-01,-3.132751105405152114e-01,1.521350576215433070e-01,6.592628987769854065e-01,-8.557741479593419798e-02,-1.006331960749843324e-01,-2.510222134246566372e-01,-2.681990525833138298e-03,1.224546097463448113e-01,-1.412445447050034338e-02,-2.193889188251750277e-01,-5.337931599205408134e-03,1.734146723178081953e-02,-1.739176772754881528e-01,-2.585424426640534623e-01,2.209110470496251921e-01,1.375514734629018632e-01,7.527389562187626094e-03,-2.666105354890605517e-01,1.711288677846289630e-01,1.666297785372519713e-01,1.900793358469483330e-01,-5.433985333399067585e-02,5.661382683247068170e-01,5.362307670177703933e-01,1.045873401767202088e-02,5.799935660339872179e-02,-2.845187174967747645e-01,2.543071419454624449e-01,3.879187448858078396e-02,-3.965468660902036757e-01,1.687823573502322261e-01,1.526140513430465639e-01,-7.571874783659193753e-01,-1.058711288791314986e-01,1.481511462118934030e-01,-5.476022274287782876e-01,3.348359257161949154e-01,1.225285319719395805e-01,-6.591328305742760740e-02,3.385470836126647232e-01,4.430313593496386093e-01,-2.651659763213288779e-01,-3.877586991280525253e-02,-1.275099713863456219e-01,-2.769319409956835232e-01,1.665020261404820956e-01,-3.486684036258591579e-01,-1.458928099726024830e-01,-4.240527210254844692e-01,2.600215832497557167e-01,-5.776561234080872520e-01,-6.170141044072227077e-01,-7.064444105675887764e-02,4.313284544194699310e-01,5.108397374980236938e-01,-1.674589405931001529e-01,1.866634582923927810e-01,4.969798689084630183e-01,4.598594336850531789e-02,-3.621168239028317859e-01,-4.517112127898084140e-01,-4.170468638694648233e-01,-4.665215444166852521e-01,2.731204620822315632e-01,-3.428734067811119862e-02,-5.680136520888307006e-01,2.850873725236254680e-02,3.910243279270137484e-01,-2.516004287271983442e-01,-1.892273690420071819e-01,-4.488314171133993280e-02,1.012399108515945334e-01,-3.444886536341087990e-01,2.351449532530929531e-01,1.525094292478985092e-01,-1.580018492229082749e-01,-3.841937340063544815e-01,-7.220935424322791341e-02,5.590987637512722513e-02,2.921986518518122633e-01,-2.635825437321752673e-01,-3.149076248832705788e-02,2.597412883810703566e-01,-3.962638342849416490e-02,-6.720032202150484635e-02,-2.557236310719236405e-01,1.129521470566080404e-01,-1.715285759314150171e-01,-3.319282427052951401e-01,-3.322578018352689289e-01,2.423808951323428440e-01,6.183721921996577359e-02,2.502964939049942550e-01,-5.290786895560863901e-01,6.850388251269725615e-01,8.775332397249648031e-02,3.227264902971272997e-01,-1.394270675611211929e-01,-4.216410332552020246e-01,3.753781627605033699e-02,2.563457656361562975e-01,-4.210436304127107565e-01,-4.959821878633732806e-02,1.936861751336633464e-01,-1.134684997797665434e-01,2.958099444538826728e-02,-1.221608880563261196e-01,-1.973127706344958987e-01,1.877734169381327090e-01,-5.554221231799156416e-02,1.122106865023829447e-01,5.380796819047577451e-01,2.045078794096155117e-01,-7.118986853891998701e-01,-2.267513340955611134e-01,-3.719325663609525656e-01,-1.480795517505907044e-01,-2.422020452126336931e-01,-6.538170125218615292e-01,-1.606166669899043442e-01,-5.096870803460915589e-01,3.417720072065305592e-01,-1.621062548245459367e-01,-1.893692497760224303e-01,-5.807166923834421457e-01,2.327191564303905946e-01,6.910509019991072366e-01,-8.111781542568137493e-02,-1.797803790789865575e-01,7.150786725661663068e-01,-1.421970316902811393e-01,-3.438821058868433700e-01,-3.101104121356293986e-01,-4.286465344376936826e-01,-4.450480895383314706e-01,-1.255200142729129276e-01,-8.394249461888426966e-02,-6.825387224102165140e-01,-5.699477471328222994e-02,3.256436559595300984e-01,-3.607257788835031842e-02,-1.014060229603668678e-01,-3.560609277910640746e-01,2.327561486895775578e-01,-2.089647428396313733e-01,-2.217972973069560760e-01,-3.470322280672711451e-02,4.393681736329274612e-02,-8.510027743776117648e-02,2.494187963457049906e-01,-2.469602365781224107e-01,1.682549186824930099e-01,-3.452523626260600165e-01,-1.639736605103828404e-01,-9.362277856392693318e-03,-2.366516564571208292e-01,4.308901733154463232e-02,-3.649564484658556207e-01,-2.829367043832065054e-01,-5.265890667023749305e-01,-3.851759179093892649e-01,-5.184537253999433465e-02,-2.876786964375312519e-02,-1.851288699081060918e-01,3.081446303438453715e-01,-3.740044919043608584e-01,5.761068550965372514e-01,6.650192292159597118e-02,4.502038939001753448e-01,-2.793105752485597337e-01,-6.455366156541335609e-01,2.313981621920107312e-01,1.177616061940156139e-01,-4.781159498025700505e-01,-2.830706068726273616e-01,5.523686848236260272e-02,1.767156097183746888e-01,-4.237276212756347499e-02,-8.942630559662666234e-02,-6.458831577043368244e-02,7.534872755158046609e-02,-2.401590946204330834e-01,1.788759156855508278e-02,1.097083718140837161e-01,1.847546735750700275e-01,-2.332569046063138196e-01,-3.165889882433484681e-01,-3.741730032695032571e-01,-1.344289943747731808e-01,-2.296018459562350067e-01,-6.625526725490559210e-01,-3.950205091964793525e-01,3.783605024322433171e-03,1.133282060850768352e-01,-2.482768740063257679e-02,4.896976867525447419e-02,-4.416575721530872078e-01,-1.921799567200979664e-02,5.127498642489354275e-01,2.416962838505460898e-01,-2.857569266669983676e-01,3.619598080248142558e-01,-1.269446895817056553e-01,-4.938685414715549560e-01,-4.954817273149352275e-01,-1.360682121337579986e-01,-8.282121563443023415e-02,1.013690232400439595e-01,-5.577427967265791153e-02,-1.229887661688482542e-01,4.653875779428766624e-01,5.093556682223698839e-01,3.688364123761718738e-01,4.886558169819336939e-02,-2.869467131095880252e-01,1.201047180655187285e-01,-4.465213231946331129e-01,-5.814254195464538255e-03,1.074541694792908222e-04,2.957146731741158163e-01,-3.214946083460625825e-01,6.959015219390116136e-02,1.433621844810048507e-01,3.193129957468118785e-01,-6.439430064440034018e-02,5.890660823423590764e-02,-2.256706912475406890e-01,-5.006297235950821767e-01,2.080631766251040959e-01,-1.420716417753231930e-01,-2.652483786989677239e-01,-2.040994328802639146e-01,-3.163662837043770826e-01,3.868920137991055941e-01,-9.407494266214107281e-02,2.282517308193467709e-01,2.541670169923727629e-01,8.965946208035750764e-03,3.941991904528004964e-01,1.609726347233424448e-01,3.518089907792236182e-01,-5.253776581089536490e-01,-1.190385426793512946e-01,3.748111498095257205e-02,1.478894006248263338e-01,-1.759715517572762178e-01,-8.654412244942356891e-02,1.235289511864395978e-01,-2.580355188351963203e-01,1.113293965426129239e-01,8.645528924628305412e-02,-1.846680098671006631e-01,2.252292614303688933e-01,-3.123781601706842048e-01,1.933233831196287389e-01,-1.546330992338263433e-01,-6.571293144307795153e-02,1.360543329765524778e-01,-1.600642223470262193e-01,-4.912151662651328410e-01,1.871685709560144684e-01,-5.271412027846609227e-01,-6.458388452305426908e-01,-7.221760191309330168e-02,6.260664452030832716e-02,1.091029737384874160e-01,-1.669044601146683904e-01,3.883391880996883705e-01,-2.381592679824657277e-01,-9.480959588506890356e-02,2.652161596713565883e-01,5.894069088536916246e-01,-4.119757661195227322e-02,1.845001219510291612e-01,3.268782694062881411e-02,-2.876384729300124690e-02,-2.191284334573726511e-01,-1.053741702201057701e-01,4.995725719803079806e-02,2.720180051848144487e-01,1.170243563837690404e-01,-1.492608393572774916e-01,2.480880437277055428e-01,1.515375298292238604e-01,6.227789905056095865e-01,1.568131031267490372e-01,-2.815860229341567433e-01,9.788276441837090447e-02,-2.715372858476756968e-02,2.609846618171927646e-01,5.813391624727844986e-01,4.806912511927833864e-01,-6.890461146587002761e-02,2.720818272512922076e-01,3.095364888130699987e-02,3.947732848846512432e-01,4.125038675206078587e-01,-3.820732563356152856e-01,-4.729092782762704394e-01,-2.213145879561358997e-01,5.711649399055924725e-01,2.764103182234042833e-01,-5.267893748756851124e-01,-1.068864431277340155e-01,-8.348001773117527669e-02,1.227975478367251683e-01,-1.049700023452521114e-01,1.448188007881866524e-01,1.797997250774364120e-01,4.507081433953179228e-02,-2.004318329991073011e-01,5.235026953091332924e-01,-1.119588279853743346e-01,-3.146144769041944178e-01,1.690709602199647887e-01,2.270815721002671927e-01,4.741113387574702465e-02,7.284401842357669798e-02,4.004402396688501453e-02,2.016173189151183598e-01,-4.431961745940261044e-01,-3.677934957469310429e-01,6.039123952690822472e-01,5.494170740142020337e-01,3.038813202851698980e-01,5.478167066122534290e-02,1.004393933223602930e-01,-1.482134863316991180e-01,8.635428139449893847e-02,1.552859930572075831e-01,6.913978237706266960e-02,-2.395268050450701791e-01,1.625552996457058641e-01,-3.749393573776555466e-01,-7.338468483339585791e-02,3.481061193266895559e-01,1.917713179561633674e-01,1.510902758813778279e-01,3.536480246834999841e-01,7.472754582715424032e-01,7.019756918159898718e-02,3.595166926119202633e-01,2.823652975046071489e-01,2.678282078858170157e-01,3.438738063458380290e-01,-9.526194720694920737e-02,-1.977158403160034772e-01,-2.686577658741928221e-01,-6.761312448398357211e-02,2.114814741668434930e-02,2.571517630993395698e-01,6.383121143723231583e-01,1.069341524051301284e-01,-1.880579229405786590e-01,4.789493512995440239e-01,-1.164795927307557127e-01,2.319886676666445824e-01,4.151083134986449652e-01,-1.937167849734430236e-01,3.327725676189518533e-01,4.807259275180578717e-01,5.227168293604197435e-01,6.311385535844550310e-01,3.281580138677090974e-01,-2.533170554936126639e-01,3.195506237007233324e-02,5.039857505795457548e-01,1.742963233963840466e-02,3.963041717416677656e-01,-5.248232597404938193e-01,-1.189579470015364598e-01,7.084092683632980947e-02,3.261970391964941762e-01,2.710982945287518375e-01,-4.490890427846730981e-01,8.920108905963183843e-02,1.168526295804742376e-01,1.263703603491312666e-01,-2.902811841711502305e-01,2.655101943336951043e-01,-1.122628758646582181e-01,2.376016820135005703e-01,8.308931300917396512e-02,6.833417180177437933e-01,-7.487008833677590014e-02,-4.390077467269036006e-03,1.895420873517470461e-01,1.528766714483446032e-01,-4.899899808273790180e-02,1.300859122006203239e-01,-9.791442802758532071e-02,8.010955888201258535e-02,-4.911015100059056282e-01,-2.687891478990069305e-01,4.557350423785370142e-01,2.433794707144917302e-01,9.735109612070300122e-02,2.115398376131072400e-01,1.613785454139061437e-01,4.115928665487709748e-01,4.247806029041945042e-01,3.236948472620407302e-02,2.803914032579664095e-01,-1.457145540014788410e-01,-1.704612296430432217e-01,1.399316580170101021e-01,3.615472130703389353e-01,4.906683951859115433e-01,-1.468794660536575305e-05,1.695708159416510485e-01,3.186482713969108205e-01,2.134630677003532540e-01,2.098573633816990247e-01,3.100855326261940936e-01,-1.521015424428849572e-01,-3.466600825167833744e-01,-5.499226010304943818e-02,-2.716766240273497668e-01,1.667146383000528420e-01,-4.137845859499775791e-01,-1.627229602351530635e-01,3.096825363912329987e-01,-1.172365297433515946e-01,4.716774382235933705e-01,1.551091310267501133e-01,-5.445678831605802461e-01,2.354666369613541907e-02,-1.855664976205280425e-01,-2.440617840691346185e-01,3.119703069933582595e-01,-2.748019892045099333e-01,2.506072694407240342e-01,2.000274521689288931e-01,2.677501912280116358e-01,5.036787851233513746e-02,4.610770477831007547e-02,-1.418284718483516504e-01,-5.023948357328437142e-01,-7.281966694400530959e-02,-3.133409732817459686e-02,2.471761957467155102e-01,-4.680969500029555919e-01,5.669092696089920308e-02,3.481867710448301456e-01,-2.583723944300674868e-01,1.341102929168819791e-01,-4.512863305638940559e-01,3.442526029660841758e-01,5.305414894790274616e-01,2.971901734097982528e-01,-4.703264377374169469e-01,-2.044046607295473342e-02,2.945150467352574686e-01,3.208513527899273798e-01,1.427431550240871039e-01,5.275935862400794596e-01,5.792834521762801545e-03,1.952839835989541315e-03,8.803016447436608216e-02,1.059281157861430983e-01,-1.703463170005164173e-01,-9.173271503148316963e-02,-2.504002431076803870e-01,1.188433045029581164e-01,-2.323051297193965137e-01,-1.169105784324619146e-01,8.339589809290029465e-02,6.509193228617693450e-02,-1.492671131861354472e-01,5.089341659684268881e-01,-8.759989253744820958e-02,3.143543101352962998e-01,2.306771959097600466e-01,1.259359947174653327e-01,1.792773937045542276e-01,-8.717715356623965961e-02,-5.949357340836139985e-01,3.646894684550128912e-02,2.284941696868860450e-01,4.235258323056175223e-01,1.752991636879824670e-03,1.822345341783679351e-01,3.249379327361980319e-01,-8.962839841592402934e-02,1.188113810708551210e-01,-1.080231881202139282e-01,-2.367485955809538467e-01,5.245051599925479313e-02,-3.390190095302773876e-02,6.428158176768199172e-02,9.538969748242102920e-02,2.136522647580300083e-01,9.411196876121104629e-03,1.504254072673846254e-01,-2.273020405518756670e-02,-2.852148395705347839e-02,6.482273312377262453e-02,-8.905136031522783990e-02,-1.077505124972740619e-01,1.187646998183645719e-01,-1.738621166905395810e-01,3.378021562165007402e-02,-1.002883629977507733e-02,-1.485662912718392105e-02,-1.107851392473206548e-01,-1.811448533963786189e-01,-4.364545750168626753e-02,-9.407641009868128457e-02,-2.009651237617481739e-02,3.124899971680928507e-02,-5.173063304593285283e-02,-8.480714009477345605e-02,5.144952653987144853e-02,-5.373807895352376157e-02,-7.350779218517117242e-02,-7.469936981763360649e-03,5.099453372050331140e-02,2.333202331041830391e-01,1.838015452135490502e-01,-1.038927040023225057e-01,-1.099795316137096302e-01,2.891712732307657324e-02,7.814528412157213666e-02,9.274833846892611283e-03,2.396786697298629587e-01,1.401524121263449385e-01,1.864511268692276014e-01,-1.934167167386934005e-02,-6.724256853728942385e-02,-8.458343905528561968e-02,1.106723367294679822e-02,-1.033896016239760907e-01,-4.093381526534756870e-02,-2.063158383490559106e-02,1.168738630242512622e-01,-2.484216579863402635e-02,-1.182610209454299649e-01,-2.230193716864239950e-02,4.130368134209164155e-02,7.853719594565690409e-02,-6.972051534705706044e-02,8.718290168946297991e-02,1.611279494984248217e-01,7.139705191850095889e-02,4.632497585661606021e-02,-2.236579050503027799e-02,-3.863411018052034102e-02,-1.805491168142084324e-01,8.324004871323578691e-02,-1.296549825164729393e-02,3.770353911647052886e-02,7.257287500840615968e-02,-5.619488696521515725e-02,1.241449586715793474e-01,3.375644829172387562e-02,1.721449148704477239e-01,3.933915688994819165e-02,5.430785963632119018e-02,-1.806282501302139298e+00
8.941778186505847104e-02,-3.133685015771525695e-01,4.822536135979240551e-02,-6.534655690729837541e-02,-3.059684340799366797e-01,-7.638455686516504306e-02,-1.278370547321130701e-01,1.530778232751338064e-01,-1.860881513697619505e-01,-1.853027811540829406e-01,-1.277825185369653727e-01,-1.298232898339973518e-01,-1.159215655652495874e-01,-1.320849448966888440e-01,1.931199797410469710e-01,2.379493818626416402e-01,1.931576532882026409e-01,3.911906894049819172e-01,1.244516232869296857e-01,5.327927029804728487e-02,2.224091289267985105e-01,-4.959068077260350704e-01,2.527633603402678064e-01,1.847646837548048981e-01,-6.403358191584587744e-02,3.180221051227382148e-03,-2.796367799484631989e-01,-1.568114660256463566e-01,5.081481657596744611e-02,-1.071674281933074069e-01,-2.434973076832248340e-01,4.395662222456903079e-01,-1.180169528225991221e-01,-1.264046947945010602e-01,-2.621426968786896849e-01,-1.104210958168850149e-01,-3.300438418043176725e-01,3.374824956892788497e-02,-1.149122656074547943e-01,-1.446677075794130796e-01,3.947072501519852117e-01,-9.535111480803118433e-02,-2.626643854258402522e-01,-1.563205038401982161e-01,-3.227633660349601419e-01,1.592776505429019385e-02,-1.084297167492919711e-01,-1.376727608773976597e-01,-1.180755878018918403e-01,-2.953880675140420631e-01,-9.049729354496399703e-02,4.617308944145626787e-02,4.432677533326392916e-02,1.677739811268739167e-01,3.133829001498509292e-01,-9.655872988224183107e-02,1.341645495963663358e-02,-5.265633212453212086e-02,-9.271187520250231962e-02,-1.922205875844013867e-01,9.373953683687420713e-02,2.733045296186392692e-01,5.813910507126909127e-02,1.898897803642171922e-01,-1.863638530083887301e-01,-2.839600827380497731e-03,2.578491873605662787e-01,1.196169152909941080e-01,6.748473665069855409e-02,6.844530363473128043e-02,1.754557486512609357e-02,-1.771898096240927811e-01,2.199658563216419851e-02,-2.088613182138211177e-01,1.011756234229760493e-01,-9.447194155751889588e-02,-1.681560011854887071e-01,2.182864827392658191e-02,1.874519326149208798e-01,1.034190062058133186e-01,-4.380868293658429086e-02,5.571596703451464627e-02,-3.285683683441549541e-02,-9.528550946936679977e-02,3.911244210510041175e-02,-2.503270318190740085e-01,1.227685496210475374e-01,2.612096835197126876e-01,-2.414330192006319126e-02,2.529220613602446432e-01,-4.236105960858362919e-03,-1.788490127564633936e-01,3.835948239584211494e-01,-6.373392201427551251e-01,-8.305513970649128219e-02,8.802575909354282135e-02,1.669718606821843712e-02,-3.921332696626393666e-02,-2.447613845100435059e-01,-1.667885509894175833e-01,1.689241549876156212e-01,1.291541992674172523e-01,-4.262646610020289772e-01,2.419248234856861690e-01,1.593601353134219134e-02,-9.723733796114565620e-02,-1.722261212950100817e-01,-5.718491812218214065e-02,-1.482277179614091001e-01,9.632362875569927541e-02,-2.582823447418384349e-02,-8.537827729874503113e-02,9.392740515852485844e-03,-2.846390927471767821e-02,-4.453937291784373920e-02,-2.572383027389421595e-01,-9.140313465978384955e-02,-6.966110162252878157e-02,-1.568120237330601630e-02,-1.560263433421542334e-01,1.112540732845441471e-01,-1.952085247493159370e-01,8.478692766609054188e-02,1.090934846948717757e-01,-1.016444247933547679e-01,-1.859677609432039136e-01,1.032291279258558264e-01,-1.589729908068115427e-01,-1.644399286308752262e-01,-2.419108443602370762e-01,2.464853492147718594e-02,-1.064695084397307839e-01,1.257476547702834624e-01,1.670414618812087748e-01,2.449567405961376385e-02,-2.731936106779912776e-02,-2.708870812802178785e-01,-9.576164413564713929e-02,3.721499895240306111e-01,3.866570207075732402e-01,3.765942914152940052e-02,3.259034870520037541e-02,-8.070179778348904320e-02,-1.324018421045450589e-01,1.480605047051927921e-02,-1.599617871356822651e-01,-2.949181904344677294e-02,-1.366036740243427305e-01,-6.062249522054470423e-03,1.604976438689335871e-01,3.068034848639442647e-01,-5.792301855663069265e-02,-2.429229851410200786e-02,-1.819591199440243612e-01,1.310823804066856835e-01,2.719828484058462933e-02,-4.553404502944672499e-02,-1.416795035327897134e-01,1.207920942999155395e-01,2.649098557742199725e-02,1.057721168310281623e-01,1.899652515528894164e-02,-2.132643014933812697e-01,-4.896982119157582830e-02,2.184457200735612781e-01,-4.373926625369233823e-01,-1.298135443756800456e-01,1.906396258769616631e-02,8.423090883953425478e-03,-3.142749370059677583e-01,-3.423083739084143984e-01,-4.966633053454718588e-02,-3.161137556671150123e-02,1.650665094873713934e-01,-8.987063763033374675e-02,2.405611127992804063e-02,1.951362631458731789e-01,2.917879838422310357e-01,6.237829581934205975e-02,-5.847796858351844707e-02,-2.230764800110209001e-01,-1.066367773882213356e-02,-2.155804732490381598e-02,-2.376179046235913361e-01,5.189798639670330227e-02,-1.260240987694614678e-01,5.404979105527170369e-02,-1.137732937336510403e-01,-2.472297629003282482e-01,-1.209417241847342006e-01,5.001226764841669448e-02,-8.806615478249542675e-03,-8.165470238561248206e-02,-1.916565365128762854e-01,2.057728937718593942e-01,2.006166976113104294e-01,3.375466970558307217e-02,1.237382490657378403e-01,3.625640851109495494e-02,-2.342598914968722357e-01,3.076104494838323086e-02,-1.158712403621491721e-01,9.117323724915732397e-02,-2.145139918333926754e-01,-2.102508802997285209e-01,2.677243824436801797e-02,1.561895652494227626e-01,6.728482563071552791e-02,-6.700762320483151513e-02,-1.045031695969813185e-01,1.458864383594034309e-01,4.775248507635446726e-01,-9.143475808899391780e-03,2.932063325164591117e-01,-1.030293430822646350e-01,-6.688864671231119219e-02,-1.938718644207446454e-02,-4.663969695681111083e-01,2.123947151426346103e-01,-7.173128071018268492e-02,2.114808091822995284e-01,2.614919187323540561e-01,-2.428331082340356994e-02,1.805618031623566488e-01,1.003047755620617085e-02,-1.184252084470282379e-02,2.936242894166520845e-01,8.721141736440558845e-02,-1.943922642114445098e-01,-2.172321376325375142e-01,-1.777316519574939635e-01,-1.863063875417924065e-01,-3.353132570796039935e-02,-1.284880147686779106e-01,3.108139383068297262e-02,-5.466070018273257863e-02,1.245601412116930234e-01,-5.054645531934172376e-02,-3.518689188366712073e-01,-1.078427533873527189e-01,-5.555243608695780572e-02,-3.671897363946469151e-01,-2.141341381643529218e-01,1.852091298614424661e-02,-3.946845594578803768e-04,2.015246614890429389e-01,2.807950443010304165e-01,-2.543927887837325597e-01,1.402263644768878270e-01,2.409845922982899458e-01,3.084992178266260932e-01,-1.629986572260054001e-01,-3.448967650105021487e-01,6.118633442117303589e-02,2.259530654097086644e-01,-1.445733995273669192e-01,-1.493964364001375000e-01,-1.209512796389598660e-01,2.780596043256080771e-02,1.382787107630273071e-01,-8.460370343728049539e-03,-9.654436325390498147e-03,-1.241351268544319542e-01,9.489304316222384184e-02,-1.263638590375482373e-01,-1.635703502417710509e-01,2.380871567124190069e-01,1.441172014090946474e-01,2.775472687628235957e-01,3.477829406405439916e-01,-6.752203182079988264e-02,5.478605338966945071e-02,-1.777259624543772176e-01,-6.517627231010188205e-02,8.847975369839128357e-02,1.654525239799179218e-02,-2.066733321662516387e-01,-2.187756558865161238e-01,2.760600850693643027e-01,6.652565758468897972e-02,8.916289840518412668e-02,-1.961732874561773060e-02,2.984785569074181466e-01,4.044691097042857342e-01,8.467654477278394043e-02,1.427456351536541546e-01,4.535434371024711642e-02,7.142492239325617942e-02,-2.109614441371215066e-01,-2.891913718112859577e-01,-1.232319646070131891e-01,-4.462541211655540740e-01,8.738316756764272220e-02,1.461551042880673557e-01,1.244055295551522652e-02,-3.692948046498458758e-01,-7.915494584998997163e-02,-4.080141177062257887e-03,-1.558813071371791259e-01,2.307111231897831793e-01,1.420987034439643304e-01,-1.919361372164806179e-01,-2.176847941755575278e-01,9.776301515523075358e-02,1.031825931409023345e-01,-2.135123255230109707e-01,-2.182084552429791324e-01,2.330966249608024954e-01,4.781472136414691154e-02,-1.711630150781696599e-02,-3.348266631070446250e-03,-2.352645647356634354e-02,-1.633833097226857767e-01,-1.983166629869624054e-01,-5.301425889272413094e-01,6.827127272751361275e-02,-6.154748353170318327e-03,3.218701702491841843e-01,2.026870508001600846e-01,9.002254421795402584e-02,2.403364049420774196e-01,1.257655230727164897e-01,6.446211458617502610e-02,1.772559248560840600e-02,-1.429749304636380447e-01,-1.183666800723061352e-01,1.459360617895379963e-01,-2.462852445908713661e-01,-6.305658512680591132e-02,5.957667909180294763e-02,1.142094586410215967e-01,7.480064286065159218e-02,3.123822818747381408e-02,-4.008260837908027285e-02,2.940926646033857964e-02,7.368081076667765128e-02,-4.164428827293752133e-02,-1.398046385967144645e-01,-9.249914199567599304e-02,3.125252285866841340e-01,-2.191238538052592624e-02,1.416057314026462621e-01,5.084434397498065888e-02,-1.214798050909509236e-01,-4.630240789233018225e-03,2.203833360546170184e-01,-7.775674911518352939e-02,1.566892356768530836e-01,-2.467980665062302799e-03,-1.148190181130426396e-01,3.374297862219375332e-01,-2.836321802943523457e-02,1.370808786708953286e-01,-9.349014490532056576e-02,1.011722724537067186e-01,1.705208881058695725e-01,1.899562338208627896e-02,1.315723144395047894e-01,7.472965718391509637e-02,3.142935340442032377e-01,-3.548929510279190680e-01,2.091554391539093491e-02,-1.909072280535979715e-01,-1.977798134293000942e-01,1.610976142579653436e-01,-1.556795278404623506e-01,-1.917851646193411697e-01,-1.318981018544898853e-01,-1.357319929811898196e-01,-8.870543630566946058e-02,-1.296414695431249153e-01,2.396591988333091339e-01,3.938514774911316269e-02,-9.107348235292743455e-02,-4.128376597817153687e-02,3.545569868646930023e-01,1.418989393574670299e-01,-6.443087746463366239e-02,-1.073967350331193338e-01,7.300155504579670662e-01,1.993888092730145001e-01,-8.988242715097660707e-02,-1.890783470088375218e-01,1.337574579192901125e-01,-9.994310805530312591e-02,-1.227644925522980990e-01,-1.069333272556167863e-01,7.374973177078046616e-02,-1.777121035153280543e-02,2.020279653885024562e-01,8.773944842232825336e-02,8.936246286531358829e-02,1.913052600520242230e-01,-1.367967046633777606e-01,5.901317047263217319e-02,9.315634494156659062e-02,2.473521529593417922e-01,1.594521174581535750e-01,1.336211634302628681e-01,8.397599157110771650e-02,2.058196622513308871e-01,4.760588198857016590e-02,-9.129360228704998942e-03,2.120313513222528146e-01,1.208031195680751291e-01,2.533677875521009870e-01,-9.539314792929752540e-02,2.443436558958708357e-02,-2.100895645626507657e-01,-6.088763672533331617e-02,1.091480550193716093e-01,-2.891606813088747063e-02,-2.856731534699672500e-03,2.559872795035442183e-01,9.605080557718229106e-02,1.329256409383126059e-01,5.766139364222201691e-02,2.005359926607104271e-01,-4.003349718580536537e-02,9.080876325017135653e-02,-1.766438632086040628e-01,-2.920163345386942444e-01,4.247859270369216955e-01,-7.433689317078677472e-02,1.981275604557739267e-01,-2.598233097669601643e-01,-2.353263583595486819e-01,-6.453017904889281342e-02,-2.012938461203137019e-01,-1.213996951653180806e-01,3.069808019275908073e-01,3.852058248687480480e-01,-2.462651178065050628e-01,4.083749188236281830e-02,1.606681071502978272e-02,7.229495584764368543e-02,-2.100712181148591817e-01,-2.365772672022836975e-01,-1.975448252405010707e-01,-2.422589728293425282e-01,-4.662715866137895349e-03,-1.466532288880584012e-01,-1.753679814904319512e-01,2.647060441594322189e-01,-3.868031130513974875e-02,-1.139035541724539302e-01,8.893242831675696181e-02,4.077960630861132696e-02,1.371792166559367421e-01,-1.442351621518969118e-01,-6.506862667012880408e-02,4.384057327326088549e-01,-2.094546232042716616e-01,-1.329041839810677084e-01,1.061041688242318204e-01,1.632857455130790891e-01,-1.343218848212655303e-01,-4.261750219610055401e-02,1.318162286334494115e-02,1.611118270440314859e-01,-1.355387061803110804e-01,-6.405220118512011673e-02,-1.922946178098783043e-01,-3.049264038284527079e-02,6.798599964931768824e-02,-2.214041774232564930e-01,-2.889896116793184144e-01,1.608088879307122132e-01,-2.686430046988813256e-02,8.378689688871844565e-02,8.175541126980778728e-02,3.387555249981283878e-01,3.644955787497042299e-01,6.587421690046987854e-02,-9.599218567117276391e-02,-3.028152480322320317e-01,1.180247235343167278e-01,4.304444825188957768e-02,-2.626355002098867408e-01,-8.529405955002511419e-02,-1.001575345270237609e-02,-2.267295301932472362e-01,9.852560806162206919e-02,-6.204005131550292818e-02,-1.929399272596002413e-01,2.308793815533088101e-01,2.643620663820509149e-03,-1.281243919252268992e-01,1.624262107195681148e-01,2.895531296705269320e-01,-6.295296231704118617e-02,-1.019063056214590118e-01,-2.680378175638352053e-02,-2.227221618278808490e-01,7.506464767406420546e-02,-3.814556401605146418e-01,7.061337294539986320e-02,-4.509042155440274868e-01,6.494726691300255206e-02,-3.380795961082840306e-01,-3.980108406942163835e-01,-4.013886276976617179e-02,1.838651276007537139e-01,3.379394792655677771e-01,-2.142600009397097605e-01,1.678869916293846409e-01,3.116474037849670253e-01,1.213682567572847010e-02,-9.621892769680351343e-02,-2.542104466330009638e-01,-1.874528888521578285e-01,-3.746380451482460017e-01,3.330331501254060744e-02,-2.100762755413212168e-01,-4.937231395657045718e-01,1.466416716083273064e-01,3.376976756090291354e-02,6.302200507340403879e-02,-1.752758515707077414e-01,-3.333969887901568237e-03,1.600898706565238860e-01,-1.673364681846548629e-01,1.171451938779919516e-01,1.044241270608950028e-01,1.185584397600624312e-01,-1.557374821923991348e-01,-9.062003948318611557e-02,9.056608936917104336e-02,7.687946951927474015e-02,-2.729964858718951781e-01,9.816567012378768498e-02,2.100698346583254328e-01,-1.145844696710540539e-01,-1.060474255428975159e-02,-1.179819959298949172e-01,2.568186714100434420e-01,1.607677912801033782e-02,-3.116024475837382290e-01,-1.598397085624507497e-01,2.297144753597872291e-01,-4.120502647816833702e-02,1.119589391585796012e-01,-1.976499601508395765e-01,3.665472044789807593e-01,1.138239818806821707e-01,2.337424220591904078e-01,-4.168190349636591296e-01,-2.207382725534780543e-01,2.125885067258470595e-02,3.949642357456739639e-02,-2.493930255438667754e-01,-3.676106323767825562e-02,1.147031066251569531e-01,-9.498525178624277199e-02,-2.498201753068983715e-03,-5.954835753572319812e-02,-1.838254027343259045e-01,2.714400495395928870e-01,-7.586872245230776024e-02,-6.241158851977776645e-02,4.679731177881562010e-01,3.473445564659832785e-01,-1.746162247654614308e-01,-3.919563981732089586e-02,-4.540203290766449129e-01,-4.131386911660048927e-02,-9.240337138715470910e-02,-3.820584523262023913e-01,1.253055246440015758e-02,-3.090346776214623614e-01,1.981845323162934602e-01,-3.322125746229295795e-02,-3.083812503730906651e-01,-2.386110216048423216e-01,1.245350036114367953e-01,4.072169191284988332e-01,2.774228999129104908e-02,-1.449872929981410319e-01,5.073034378198101324e-01,6.279600524311979015e-02,-5.222876532643150327e-01,-2.614326261277150065e-01,-2.254891912823579481e-01,-3.759250054676797625e-01,-6.335783834835526443e-03,-1.751712581650650968e-01,-1.646847229173704907e-01,2.781893080960305964e-01,2.829978032070034621e-01,-1.471379012824230136e-02,-1.300741319626260058e-02,-1.025098013227693505e-01,2.391552843314801169e-01,-1.740552059445659716e-01,-7.261843186782498960e-02,-2.746259219134700169e-02,1.578274466853103741e-02,-1.721980993654784534e-02,1.568639986845122569e-01,-1.846403969387563071e-01,-1.886588732051501364e-04,-2.021547067731351288e-01,-1.039388274719359878e-01,4.291283660774424663e-02,-8.592788192327653618e-02,4.451300411493890052e-02,-2.119039545418900938e-01,6.815417875078321266e-03,-1.207972647998404037e-01,-9.132622915318718004e-02,1.103471004035109365e-02,2.216903992732839057e-01,1.546063888108873373e-02,2.848079023041883984e-01,-2.629802156952312786e-01,3.720180483181085296e-01,5.907799848210998350e-02,3.007197080970045455e-01,-1.610170430564139832e-01,-3.599343930178553475e-01,-4.730507213500255784e-03,1.754618042851416038e-01,-2.520805409746209036e-01,-3.268180102164839895e-01,4.908552938420070177e-02,-6.333444506473527753e-03,6.106511510102987858e-03,5.336476273310198498e-02,-7.229271383359026082e-02,2.416283018348552025e-01,-1.544586893012024065e-01,1.754086185473269222e-01,1.997354852809409276e-01,2.521410438443815738e-01,-7.262377136931311150e-02,-1.552981853829605852e-01,-1.579174231206333934e-01,-2.050561125888131220e-02,-1.664480686940295051e-01,-2.336262432430598335e-01,2.727973978531014407e-02,7.293880842601625607e-03,5.790323475465838921e-02,9.895381343115586259e-02,-1.560697265859704586e-01,-1.865579125785487846e-01,1.569122628398517127e-02,2.047151027794005818e-01,1.745224226159323155e-01,-8.293353397368841140e-02,1.103006760621616927e-01,-1.200727098223125372e-01,-2.818324921407608930e-01,-2.372437398203653680e-01,5.419786473930416487e-02,-2.173491751822380358e-01,2.623115071104560325e-01,3.743252298080067264e-02,-2.041267160607295739e-01,1.786843718482892807e-01,9.456503398298825303e-02,3.088936891849618574e-02,1.961648606495726699e-01,-1.062018886766644549e-01,1.417077278853198872e-03,-2.572930151798326071e-01,-1.582284933307384622e-01,-3.509067134218060019e-02,1.880465277598291907e-01,-3.651735838024541825e-01,-3.687097193982903642e-02,-1.284644061462274500e-01,1.974373427217660792e-01,2.935667983844854334e-02,1.680187796106768355e-02,-1.710073451579492143e-01,-1.733409521305868117e-01,-1.329312077376615560e-03,1.151740448937737908e-02,-2.783762643524871350e-01,-1.428770942985893855e-01,-1.749411944841629263e-01,2.774281551577894578e-01,-4.673790464558166130e-02,-6.468791709824128766e-02,9.832915027874565561e-02,1.494828612208798368e-01,3.403366576324060033e-02,2.366958008126126556e-01,1.594591104788539160e-01,-1.624359575136492539e-01,-1.551015021886279488e-01,1.515344641527837100e-01,2.560433233444945889e-01,-1.376202339392427476e-01,-6.406180346039938578e-02,2.093134233107507569e-02,-1.652372717703540772e-01,-1.077306929347728315e-01,9.313073252154807635e-02,3.619856807376824887e-02,-2.333867903318523895e-01,-9.346653139353082451e-02,2.039728342886370713e-02,1.016621646181634642e-01,6.598423459444079098e-02,3.300690162905424163e-01,-8.713595563491224882e-02,-2.387848950658155167e-01,-2.929457653780452933e-02,-2.403587452854358819e-01,-3.073323894261323352e-01,1.048147597315557261e-01,3.562936301673487894e-03,1.692586472239101802e-01,-1.142336638132419348e-02,-2.193207136805638141e-02,-2.520941189510338409e-01,-1.184358562769010220e-01,2.201803253836049079e-01,4.961433440141138629e-01,1.974525636128561523e-02,1.028089863826274902e-01,9.282112388257034163e-02,-2.424928879072570653e-01,-8.881582282286218377e-02,6.903844742876943941e-02,4.683391859472459812e-02,2.207436651074773104e-01,-5.391265229729660935e-02,-5.722204471774085949e-02,3.643710949948988920e-01,2.431014631626240291e-02,2.838520999078120166e-01,3.430518887195096456e-01,-9.714862865114938517e-02,1.218919525902211060e-01,-8.580647489218129476e-02,8.843804859243738214e-02,2.823707870102667994e-01,1.184294812830157806e-01,-1.331566888911434876e-01,-3.027962901289410133e-02,2.087127219780736398e-02,2.027116797115535440e-01,2.298543104535882842e-01,-3.077007413915810660e-02,-8.514182654850542542e-02,-2.106445556667352892e-01,1.516797612815677376e-01,1.336164622122584800e-01,-2.319356039776040157e-01,-5.481729518295028192e-02,-4.553875331484893291e-02,2.194247635151709008e-01,-1.349754677031318184e-01,1.203114961877862210e-01,1.742844088211744913e-01,8.729833484051803842e-04,-1.409847199346054847e-01,2.306650102782450418e-01,-9.193885386255727654e-02,-4.809796637323344309e-02,1.405306047443974915e-01,4.694712827727731685e-02,-2.920179385135020234e-02,6.153191656163813777e-02,-3.905909319547815886e-04,-8.954181994183668669e-02,4.119240561179982746e-02,-1.391931122140702415e-01,3.379936651118304880e-01,1.463949652315381655e-01,1.044320113492210600e-01,-9.031986305469355547e-02,2.682021898334627230e-01,-2.129184810145951512e-01,7.459834729313568127e-04,1.351987127969120628e-01,-5.253770360524484540e-02,-2.067016656717933498e-01,1.862181247568722164e-01,-2.171009920329907694e-01,-1.946355432745803735e-02,1.873970491461575405e-01,-3.521656000766499456e-02,1.064402086242297457e-01,9.348373766734342782e-02,2.673704410140056997e-01,-4.597399199339632231e-02,2.506708935553696432e-03,-1.073599128491198873e-01,2.496308010918962261e-01,6.391257362581254098e-02,5.501809152788411650e-02,-2.468763234440244508e-02,-1.530139939431635343e-01,-2.315472635165266857e-01,-3.027411742762986871e-02,1.433266320305343344e-01,3.208561696944851604e-01,1.156606254382370330e-01,-6.866428743575281324e-02,3.793632449096427939e-01,-1.076779167849257167e-02,4.341742216588013736e-01,5.867996279589025033e-01,-2.965629962229658265e-04,3.261881716038422807e-02,9.735852666738620265e-02,2.896444877153501185e-01,2.640249221776396760e-01,2.773154425349829144e-01,-2.192927473091371426e-01,3.726461575164713436e-02,2.680220606543176065e-01,-1.077741750180145550e-02,1.812570377118779830e-01,-2.366258806978742968e-01,-2.967000083454484627e-01,-1.601227789099894661e-02,1.130318308551493955e-01,-1.437930141603657383e-02,-2.650923891622143369e-01,1.525998857910161599e-01,2.450129106878282947e-01,1.060336624903960023e-01,-2.209498389430741838e-01,-5.929994087102894579e-02,-5.783274983767610483e-02,6.017649981143748106e-02,1.759291422887269279e-02,4.200223264138731594e-01,-4.912402254131922191e-02,-1.126417711019391532e-01,6.011452433865843714e-02,7.194376326789920367e-03,2.681254915805916100e-02,1.003831652043229855e-01,-2.566900961171446616e-01,1.456775983925321927e-01,-1.774515866465130320e-02,-1.236645826326151082e-01,3.976065535349186941e-01,1.584397799198046242e-01,2.230794887749324232e-02,2.682641912869293543e-01,1.526704654713262610e-01,8.793921695125471449e-02,1.295420995673393083e-01,1.376893760172100134e-01,1.338872279374665186e-01,-2.017738959539402410e-01,-6.904729589191214989e-02,-4.162774645662063733e-02,1.495340570599207053e-01,3.927131664606734462e-01,2.048856059442442576e-02,6.225282377878197217e-04,4.057645803365541592e-01,1.343720895455030873e-01,3.283157179087280997e-01,5.337004062302737328e-02,-8.240019591298906876e-02,-1.770506953543797279e-01,2.165415703747712584e-01,-1.861072809286797858e-01,2.763860069997603475e-01,-1.841661482535431049e-01,-2.274292857585961114e-01,5.491678123467765016e-02,3.407888558736352214e-02,2.467653020623697402e-01,-2.402176608253902418e-02,-4.598981838867123306e-01,2.538151359998701007e-01,7.825842475278128874e-02,-2.462889299875110349e-01,9.881777286470426469e-02,-2.422462124365992453e-01,9.771463964223967014e-02,1.650892166346253909e-01,2.177816330100664777e-01,7.788071731390303065e-02,9.486351693079721203e-02,3.817421297807162966e-02,-2.940475009554274766e-01,-1.730839223460326481e-01,3.235071399491847022e-02,1.669731033877525361e-01,-3.476764236209616277e-01,8.444419808933306681e-02,1.053167717094815325e-01,-8.068421905433310892e-02,6.066787128724485806e-02,-3.186379470184336204e-01,5.282092846827886323e-02,4.381412094835713811e-01,-4.508983629494917739e-02,-2.950675855907914369e-01,1.074792548549569904e-01,1.920780245673547604e-01,2.985443858070737158e-02,2.971355405207276937e-02,7.112960669229002886e-02,-7.313821529133589239e-02,9.738526041687969870e-02,4.918867121148529781e-02,2.452983018027498491e-02,-1.493101236979731683e-01,-1.330827378068763778e-01,-1.749461957987604177e-01,1.908398109863706227e-01,-4.525216088898913885e-02,-7.210585354000043079e-02,1.223848727698470806e-01,1.009947115767634990e-01,5.233121831558541076e-02,1.589949243302204718e-01,-3.023161736541158523e-02,3.840072528015411185e-02,7.210820193436116854e-02,1.820265598999985523e-01,2.002215162241426649e-01,-1.647727134970106144e-01,-2.507970715278471929e-01,1.138066655172318004e-01,1.232656419715416063e-01,3.149542419226757928e-01,2.381430912011684442e-01,-7.727292528303027208e-02,2.864924972949112192e-01,-1.121780798465274176e-01,7.367047113084383703e-02,3.548259862396502262e-02,-3.812644359414385509e-01,4.390961585473897311e-02,8.925881956770481684e-02,-3.659373652577849884e-02,4.619815171135720211e-02,-2.334770685603874685e-01,-3.672719523293386384e-02,-1.173278001024816025e-01,1.089416192603315930e-01,3.584367763478982227e-02,1.168860106061670075e-02,-2.510510893684464624e-03,-7.876479677943028571e-03,9.491860672556648448e-02,-8.776292157786734494e-02,1.096376716362236770e-01,8.637124839874753268e-02,1.194877920169538227e-01,-1.838130793205845770e-02,1.245609509617093130e-01,1.164909514881352359e-01,6.137212810208431124e-02,1.286993334902241104e-01,-2.771780545757449032e-02,9.097569714321886158e-03,1.511723168735795708e-01,2.181513969326675517e-01,-1.482511192471741568e-01,1.101167025999475885e-01,-1.093992330427856902e-01,3.744150905572006527e-02,-4.237745133945095694e-02,3.698126298246985633e-02,-1.341150602892397618e-02,5.581970408471845224e-02,8.138682797323387730e-02,-1.840322265192251977e-02,8.326869851190352168e-02,-1.234520373974289792e-02,8.489430459488477021e-02,1.341577982997170793e-01,3.292086728871061740e-02,3.972362254735740256e-02,-1.638598461317664901e-01,-6.077668891569688175e-02,-4.585329893487606612e-02,1.346397496850879711e-03,-1.235899297789879309e-01,-1.136942489650594468e-01,8.701663223948148326e-03,3.719488564198806385e-02,1.150319517380184731e-01,1.596880015729009727e-01,6.923820886221764004e-02,-2.036083857170962325e-02,8.558444484763864935e-02,-6.342231591579755579e-02,3.779413163548512450e-02,1.954099518646577049e-01,1.637697521282552859e-01,-1.382618131582660781e-02,1.134487293576112027e-01,-2.237934314191461493e-02,-4.509824212805562532e-02,-1.445213778613847755e-01,7.010137522160540813e-02,4.700643732727741164e-02,1.148617606278626996e-01,9.700457365433212686e-02,-1.353967447374925318e-02,1.027225198870670986e-01,2.044854343730978796e-01,-7.304978177560137453e-01
