9.372156046209337288e-02,-3.072712891672212954e-01,-1.376581145655634934e-02,-3.499456688342965083e-01,-4.889120660044905115e-02,-2.267252147596096890e-01,2.863043562010865739e-01,-9.850755935867747115e-02,2.937796475578767236e-03,-3.656165379995944265e-01,-7.522853991772905646e-02,-3.516391526431691394e-01,-1.839278124701944905e-01,-1.627755198195709185e-01,2.736391042301405396e-01,1.963533008334638896e-01,3.662356951935732789e-03,4.460070254680739144e-01,-1.433883836833508563e-01,1.097063602845379515e-01,2.632977074389199479e-01,-6.136333171475162329e-01,1.213827295226156816e-01,4.244813173491264746e-01,3.345993841995814622e-02,-1.225367407469468983e-01,-4.230811078157538097e-01,-3.736370712121951376e-01,2.571069241829334606e-01,4.015302697913162439e-02,-1.948016871107928760e-01,3.217505268847496991e-01,1.762772755499690709e-03,-2.970669337145470101e-01,-2.327478944067212785e-01,1.270946441708950894e-02,-3.303629838690059772e-01,1.643857257628250912e-01,1.475497336728413648e-02,-8.720257778122245118e-02,2.326691886579375923e-01,-4.596340989896822993e-02,-2.963574102178273550e-01,-2.857154952646253077e-01,-9.982646656681330721e-02,-1.130894635494924944e-01,-2.000211539427577956e-01,8.374556693925802597e-02,2.771017832216725665e-02,-1.393116601879958172e-02,1.269092651812003814e-01,-1.187103378865892317e-01,-2.988550572418743889e-01,-2.894572539030521030e-02,9.959923400357353906e-02,-2.213211491995866198e-01,7.813267187863586274e-03,-5.984954940462663964e-02,-6.124050357025642016e-02,-2.363211091757961846e-01,3.449486723249611808e-02,3.086708284837583194e-01,9.872787086631736042e-02,-1.155057373190583603e-01,2.297307399922003321e-02,-2.265170460462085089e-01,1.773647070773122780e-01,3.791750568605704586e-01,4.509553954555207689e-01,1.008002621621125194e-01,-5.137398671948645301e-02,-4.008427636283476980e-01,8.823764857192248345e-02,-1.075665653162120872e-01,2.934883787710248701e-02,-5.346573579600889525e-01,-1.761876713834052977e-01,1.816619975603737946e-01,2.918498879138894386e-01,4.972287418139307441e-02,-3.562495643004699036e-02,-2.329346371842645758e-01,-1.643495633858423344e-01,-9.092025884554409687e-02,-1.174898766312685028e-01,-1.612494310177307877e-01,4.857096581060422330e-02,1.631493617217190106e-01,-1.301554131924209830e-02,3.907231215396200219e-01,-6.423480866815201029e-02,-9.897492428504324827e-03,2.127357145513838754e-01,-6.972550101220236218e-01,-9.954731230688521060e-02,2.137183315371723458e-01,-2.577295801200949615e-02,-7.398641248872869780e-02,-5.428967670288122882e-01,-1.693052596266388377e-01,1.641171426991136773e-01,1.305735754704607510e-01,-1.520444133210912818e-01,2.919197842669030707e-01,-6.602689091115236664e-02,-4.707340344326444923e-03,5.897215459351511785e-02,2.361335199433769669e-02,-1.959565849432529372e-01,2.124017354583354333e-01,-2.328961813533693970e-01,-1.210027112651119174e-01,2.177422579022252336e-01,-8.727953881949040982e-02,-2.475217135005237101e-01,-5.635181770397211798e-01,-2.131631834665026204e-01,-2.078231673806324453e-01,4.156538045862096659e-02,3.854335968583912694e-03,-1.641708972982384995e-02,-1.465314424295900975e-01,1.864357606890230945e-01,1.698460398648543590e-01,-3.131550408981010336e-01,1.199963719678591445e-01,1.418525826369673726e-01,-2.986401180878752726e-01,-2.904130913156225957e-01,-1.599693395137390672e-01,-1.155081994434647291e-01,-2.514095498639390414e-01,1.465669678161026987e-02,1.567771176392633303e-01,7.399628724114709621e-02,-1.301796217782423826e-01,-9.068587056601238802e-03,-2.455772790862710830e-01,2.392925233447104338e-01,2.908743870897632644e-01,1.170285991614931909e-01,2.048375272194606078e-01,1.150509786948904351e-01,-1.453267655043872786e-01,1.148520070855815478e-01,-3.884973821384935522e-01,-8.919759165988286331e-02,-3.152282315884989417e-01,9.386750007085878367e-02,1.650373981796490752e-01,1.715523557841410751e-01,-2.631248927067570409e-01,1.164971525620759341e-01,1.763966809577549311e-01,7.369763652696362244e-02,-1.086892991312272405e-01,-1.848781742478467216e-01,-2.202211334736980941e-01,1.117157303176107425e-01,-1.193146739439956000e-01,-6.716101854505225621e-02,-6.331021277089500521e-02,-1.511009517444126815e-01,-9.790816759238719913e-02,1.611345500692582255e-01,-4.647262156518193188e-01,-1.004570943985708953e-01,6.618439080872312585e-02,2.253570836190805504e-01,-3.197847117865031952e-01,-6.081877387763583442e-01,-1.036907780476088309e-01,2.993628738864709260e-01,1.570282572513784225e-01,-1.484259866505308924e-02,4.417381102983358732e-02,3.476973744155943957e-01,1.353000511904872971e-01,2.493337035182457417e-01,1.963864897461939027e-02,-2.374090395118232111e-01,1.948051700088777316e-01,7.426213598912841107e-02,-8.364598490516486629e-02,1.232404819825596437e-01,-5.429454385415150020e-02,3.609807686208513222e-02,-1.865077109465073657e-01,-2.326783790559573128e-01,-8.589605702454089498e-02,1.732293892965135751e-01,1.140568229886586571e-01,8.816605213210247649e-02,1.081049386019115183e-01,2.045814150589191360e-01,-7.521082770112334781e-02,6.565654926915194534e-02,2.302929987876666529e-01,1.794507771146761424e-02,-1.032063668568868470e-01,-2.382859611348977225e-01,-6.864140905115573288e-02,-7.238969534932848671e-02,1.118757178040948735e-01,-6.458621049652563118e-02,-2.293965652570182367e-01,-7.568000086551102124e-02,-1.023257380858016569e-01,-1.334968664960094753e-01,1.698671088335879653e-01,7.487657998868177400e-02,1.853384068366855653e-01,3.217119076765465047e-01,1.913202600742984483e-01,-1.067026370444028177e-01,-4.684840455268956400e-02,1.355222865573558200e-01,-4.659125148406991213e-01,4.235472571037074418e-02,-4.225313310737833783e-01,3.482304882436556559e-01,1.626398977390033362e-01,2.947371203481831126e-01,-3.868861570649274884e-02,-1.002647296805511817e-01,2.974885837636399577e-01,6.261507572396984855e-02,4.506157959802554319e-02,-1.745020583646476608e-01,-1.633350637714580389e-01,7.252265754512899135e-03,-1.714490985563743575e-01,-2.848910837256686882e-02,4.534689029877204958e-02,-1.036719197293773237e-01,-9.132195345605906289e-02,-1.289205209320774259e-01,-3.738239804435454228e-01,-3.704891823941717788e-01,-2.604217214931032337e-02,1.421146630071122401e-02,-1.936604378441870444e-01,-5.314948900320001224e-01,-1.613502263140637605e-01,-2.132137622604487193e-01,3.029534022106635804e-01,1.739382247544484783e-01,-2.095039631240314115e-01,3.106504737271656991e-01,1.238334822225427706e-01,1.278214353977344397e-01,-8.177652289186192192e-02,-3.223265020778654510e-01,2.943429778823162812e-01,8.571848738860103623e-02,-3.357638125258882167e-01,1.903174728749324196e-01,5.035218794600278963e-02,3.049582919349382859e-01,-7.556017467228696993e-02,-1.638017543177346103e-01,-7.802705482113127256e-02,1.889541029199501010e-01,1.168407320045267150e-01,3.750736601777736757e-03,5.838984390006366626e-02,1.350171581259891063e-01,1.948978413510158991e-01,1.234474618383167438e-01,2.645620288706849177e-01,5.247247052671433903e-02,6.178626464909612453e-02,-1.378933029913965713e-01,5.847222541499927373e-02,-5.739183466470110240e-02,-8.163198693213569168e-02,-1.526242094702981722e-01,2.234962652276618195e-03,2.064968043662439301e-01,3.065371732655370121e-02,-1.061881174382625082e-01,-1.579885577894090121e-01,1.530502957350771409e-01,5.477463382232053979e-01,2.086340476402796518e-01,2.296208792030110246e-01,1.655850741379528979e-01,7.858780408278538687e-02,-2.792856428954270109e-01,-3.168305572488976929e-01,-1.162968135677912990e-01,-3.520074423715033873e-01,2.325162082760397764e-01,8.444257147406696376e-03,1.312389944825887410e-02,-9.384372846205031593e-02,4.263335794086638847e-02,1.817482642808890825e-01,-7.347877100040263454e-02,2.333131211441959174e-01,2.871544618064505450e-01,-5.501809565198430285e-02,-8.809292049623086707e-03,-9.364283830006407683e-02,1.283858708043538778e-02,1.079172864954964089e-01,-9.327544615173070930e-02,2.260038423019384846e-01,1.116499020547243592e-01,-4.425615494832867841e-02,3.121596337922906417e-02,3.944746049381999548e-02,1.684765303831751992e-01,-2.677456900896835190e-01,-2.535813982159093039e-01,1.491256365602698364e-01,-1.140263762334646630e-01,3.013896304826537142e-01,9.257022776279806228e-03,-2.415101299420787939e-01,1.281223871185943886e-01,1.719810001171977187e-01,1.966620950480099661e-01,-1.750450854091675224e-01,-3.466292362610861461e-02,5.119331339307264805e-02,2.287567469178767438e-02,2.081482627157175275e-02,1.321174176877382422e-01,2.428052483646755411e-01,3.218430984470510570e-01,1.913010785162903848e-01,-5.369879678152361668e-02,1.812348206213041657e-01,1.471016615197853761e-01,7.898600009462132532e-02,-7.836670527386357943e-02,-2.745071971739942995e-01,-1.337899560598979076e-01,-2.622698051782377041e-02,3.440206927895304162e-02,4.082186715454957371e-01,-1.015129243200659642e-01,6.015267075048721934e-03,-5.368924192485487190e-02,1.764882105060131545e-01,-1.083732472136485908e-02,7.475881773214790305e-02,1.065809947426878471e-02,-2.498332431453365032e-01,4.646650973745586888e-01,-1.659935578429572733e-01,-1.067826841538677546e-01,-9.811963830616614313e-02,3.469893308566278367e-02,2.318918837184286708e-01,7.073480504881306252e-02,1.703119721884379378e-01,2.635681383925904675e-01,1.625720845882080434e-01,-2.709651225738560765e-01,-4.811336938815357483e-02,-2.497489967439884551e-01,-1.279420988083898592e-01,5.693383950223925016e-02,-4.051532448650477930e-02,-6.349120319530465739e-02,-4.315300808311672287e-01,1.569193873808083783e-01,1.593037052859763714e-01,-9.287732181598856718e-02,9.512378287421237311e-02,1.331487168830803591e-01,3.359935129838671070e-02,3.445091513468946931e-01,2.167000084112230551e-01,4.022078755861293597e-01,-8.208653734803476876e-02,-1.771966868335957956e-01,5.606607577664139974e-01,1.541002028098331089e-01,8.745044523626967214e-02,-2.096157877248415458e-01,8.167244294715056419e-02,-3.797450217164154845e-02,-2.678904110432904773e-01,-4.445914399102860459e-01,8.406513171616862568e-02,-1.640644326049469914e-01,2.306770370599660891e-01,-1.697472164783137005e-01,6.476449894811167618e-02,-6.826651665158026128e-02,3.802181484160729874e-02,-1.135006083645901526e-01,1.928011511244364096e-01,-1.377275538306880487e-01,8.928530721864405550e-02,-2.948015891622445157e-03,2.966911345295618063e-01,2.004210014708559251e-01,8.613140590310236488e-02,1.739922659620708190e-01,2.109137346238540989e-01,3.313609409108978499e-01,2.592028586597503459e-01,-2.731793142881088765e-01,-2.875211441486857228e-02,1.918984703863483299e-01,-9.165899265654906631e-04,1.360182480685198647e-01,3.323091750349064788e-01,1.786319318722075777e-01,2.441606160179803087e-01,-2.410089467743045388e-01,-2.187293963904221039e-01,8.958300631306417849e-02,3.860273151369848499e-01,-1.204048243633476373e-01,-1.529016398630571871e-01,-2.002384814169791694e-01,-3.083214870842185262e-02,3.346844356429393708e-01,-3.939667665172323363e-01,1.743431898560489079e-01,-2.337910351717907287e-01,2.307858684734681587e-02,-2.088866897804941142e-02,-1.916761099184236816e-01,2.460943894405004037e-02,5.488733946356300075e-01,3.854558597452271140e-01,-1.983092577280670399e-01,4.474700783857088471e-03,2.596392118484910916e-01,5.000010822475135785e-02,-1.491920670630515582e-02,-2.110221825438420573e-01,-3.601248750623051859e-02,-6.186691801823076403e-02,2.109810580759832188e-01,-3.494687712035363840e-04,-3.762854389992071336e-01,1.953575537496546610e-01,1.401494814632095187e-01,8.570644899387398763e-02,3.279681913692288064e-02,2.155209655874799901e-01,6.301353427689145026e-02,2.731583038820587991e-02,-1.561348840290687802e-02,5.971027886809616714e-01,9.252143634535761607e-02,-1.318783292565017251e-01,6.490062847757567532e-02,4.461208613461659089e-02,-1.508157919085429677e-01,-6.361019876604946666e-02,-3.862925921056843404e-01,-4.530333049537151741e-02,-8.012748368616680328e-02,-3.644136921667144591e-02,-3.871150717157579441e-02,9.273136629037219414e-02,-9.037352835915007931e-02,-9.659000431452671731e-02,-1.598530634516570348e-01,2.443013026514927188e-01,4.918745146941772700e-02,-1.190714938040327991e-01,-4.481904898425648209e-02,3.152268504023140738e-01,3.348667157788765003e-01,2.530290299324144954e-01,-5.714760395405531213e-02,-2.295126809945864099e-01,1.640009943247851265e-01,1.184258493140164306e-02,-2.380978136055306726e-01,3.108921944340314186e-02,1.626731231905566843e-01,-2.667976022970017791e-01,-4.760206345072540320e-03,3.145324299209693863e-02,-1.222121144899467188e-01,2.245693349666980920e-01,9.455333270570803750e-02,2.686146723995506622e-02,3.288411263531333950e-01,1.702356083020205857e-01,-3.442534078858812685e-01,1.272169221134342443e-01,-2.334775729525550847e-01,-1.392905092997846483e-01,-5.331608058982843096e-02,-4.224166533384483002e-01,-9.495343117299322871e-03,-4.978480396425193355e-01,4.782674008324114268e-02,-2.421564843237659082e-01,-4.725129173628802026e-01,-3.793878715100144905e-02,3.441025864168245074e-01,2.114157843919450275e-01,-1.657037382111797297e-01,9.094182081453333621e-02,2.998952524639580397e-01,6.813261434849753051e-02,-1.817295720070318532e-01,-1.905783280009727687e-01,3.984517457637732490e-02,-2.935425878548098555e-01,1.269172443561581987e-01,-4.335667932272042197e-02,-2.299227248900862497e-01,-2.199243794934091153e-02,2.173862459119315083e-01,-4.320458199669467009e-02,-1.079809646148866403e-01,9.464491209869584087e-02,2.798140483004628032e-01,-2.245535662362685980e-01,6.754109282483852783e-02,3.819021739751893851e-01,1.726926661730144308e-01,-2.411128639692396852e-02,9.191793485797465635e-02,-2.942260794956993650e-02,9.812363556231776252e-02,-1.786461323479626023e-02,9.604174184913423160e-03,-2.185833619589387655e-02,-1.127110224146029571e-01,8.926457283909232376e-02,-2.229574673538556873e-01,1.162256295404319462e-02,-1.307056868391228421e-01,-1.634471846019312502e-01,-3.438640086212637614e-01,1.228995522894637676e-01,-4.621283962510850524e-02,1.957795376100016430e-02,-3.391455596541670392e-01,4.645976968035699928e-01,-9.778354498415241236e-02,1.795657719651612763e-02,-1.192441849016274008e-01,-1.509478754674656031e-01,3.097713967650151945e-01,-7.939856320975319584e-03,-4.086738406357943720e-01,-1.606138334556500291e-01,2.507817309142956197e-01,-1.823418238795791457e-01,1.096118490793339395e-02,5.697636782392193761e-02,-1.566444319167742127e-01,2.093701593500837121e-01,-8.478962879048410062e-02,-3.511969618579160318e-02,3.865871665120257927e-01,1.999978847890676870e-01,-2.710222898823153037e-01,-8.619302611315600438e-02,-4.214110876997303468e-01,2.499669532098466873e-01,6.348222828344398001e-03,-3.531989253195679801e-01,-2.610771684297505946e-01,-1.652002772236440264e-01,1.280787229503508595e-01,-2.159316880790357676e-02,-9.068014028438450835e-02,1.468748419459556774e-02,2.502965757134914537e-01,3.009800430749038913e-01,-2.616145122819374391e-02,-1.426497295298285728e-01,3.810981511575382008e-01,7.402592402557879592e-02,-2.037948163267659929e-01,-3.396927607514357850e-01,-2.584978519794524088e-01,-2.495188078968764434e-01,5.893731817141760476e-02,-1.153739826661132617e-01,-6.127115570551888019e-02,5.205228597615491060e-02,3.884224139969469913e-01,-2.029571659703163777e-01,-1.995166433138558515e-01,-2.049219840180064589e-01,1.737944193417194638e-01,-3.986701882744519455e-03,3.544018803903127134e-03,1.611565947346889904e-01,1.381918480405760208e-01,-6.031114620866680730e-03,-1.712112741648923056e-03,2.125139961761381494e-02,-7.909544655167409510e-02,-8.605121359212694609e-02,-1.584546148141336430e-01,-1.142687188665088283e-01,-2.093842660050675430e-01,-1.243189264445391726e-02,-1.362773464841971205e-01,-1.177266339485181501e-01,-3.571934283107738306e-01,-1.430476295998796277e-02,3.295912567076961924e-02,9.292803690393300342e-02,-3.136367160165070417e-02,9.432658120826156734e-02,-3.384680591459723331e-01,2.158662752519020789e-01,1.788760078654917929e-01,8.664393078649687552e-02,-1.434742901724732067e-01,-4.092247505378265315e-01,1.777091745600841433e-01,-3.636787107165783545e-02,-2.600359887260542679e-01,-9.665273345060941546e-02,9.551302501257934174e-02,-8.277233723908830609e-03,9.697086423158954305e-02,1.077146631576911175e-03,6.532433215826630168e-02,-9.014898700049969738e-02,-2.618754217714494015e-01,5.592115597338077893e-02,6.096257166972488678e-02,1.162374047012407555e-02,-1.820003018020338315e-01,-5.252317210905164263e-02,-3.343875184107434340e-01,4.720918614075912678e-02,-2.309608254580096942e-01,-4.624227275936115822e-01,-8.605675051433081535e-02,1.169200861585128620e-01,1.851061475722163771e-02,1.188426662166155306e-01,3.217807707723640154e-03,-2.223460479039711668e-01,-1.118867916164784926e-01,6.085220553459467357e-02,1.415358356323510314e-01,-2.044639156116515311e-01,3.232147934007249535e-01,2.752153945136056462e-02,-1.147960881579475761e-01,-2.345271771097341973e-01,-1.900800714695726479e-01,-3.329984391718617681e-02,1.528694017071159927e-01,3.228560359194764667e-02,-9.869260760049015924e-02,9.633326285769365505e-02,2.966594425088204812e-01,-8.064167599891763905e-02,5.045688266479786584e-03,-1.620705093451662027e-01,1.620669952290587912e-01,-1.996330135597461641e-01,-4.581635247495411539e-02,1.335059184125425846e-01,-1.268111998639275262e-01,-2.248288806670234175e-01,-9.509914472150561571e-02,3.142526754564684000e-02,1.999668827872273791e-01,8.936445185140538816e-02,-1.457153604365793442e-01,-2.039772743176767322e-01,-1.299537934646701476e-01,1.105120000998487534e-01,-1.596930027708493016e-02,-2.139225220090461288e-01,-2.218126075099537131e-01,-2.456797805782666155e-01,6.507375832814234207e-02,2.318320921717189065e-01,2.057619321979671234e-01,4.061899482267810474e-02,6.906308333434293956e-02,2.296487510199557991e-01,2.674242864710664747e-01,1.872451487312647433e-01,-3.724481164592809979e-01,-1.505608798141171711e-01,7.076167271582600726e-02,1.528996877637368579e-01,-1.625189768838515014e-01,-9.219999371054549272e-05,9.720891403426309973e-02,7.197470964052818387e-02,-2.080184407538190339e-01,-3.531382199690125817e-02,-3.300595237476078303e-02,1.413206538357069109e-01,-2.674432924805142386e-01,1.352629599449974573e-01,-9.559070670328659314e-02,1.081179856999857636e-01,-8.809710701329769023e-02,7.928581587778812945e-02,-2.618414207975626740e-01,3.114071284901913372e-02,-3.054652902155929328e-01,-4.937034917713041815e-01,-5.952951916537557731e-02,1.153367250845630798e-01,3.845110751112847114e-02,1.171117176894486134e-01,2.230113066219467366e-01,-1.257701779159204336e-01,8.654283719147810860e-02,3.886162415333783288e-02,1.094897957845767239e-01,1.259385250777146081e-01,3.103342094676162649e-02,-5.273083046934958634e-02,-3.190450083081342036e-01,-9.452174535879059869e-02,-2.442850893803804463e-02,8.472061979320294478e-02,1.661071584191825823e-01,7.747304467923525617e-02,6.967005178307422719e-02,3.343380216867342658e-01,4.469578624141054002e-01,2.550618698483600455e-01,8.541969805673457761e-02,-2.509908756608139058e-01,1.127708692037185656e-01,-7.733807959826467966e-03,-4.555480990793615154e-02,1.588915549838083863e-01,1.027958436466556436e-01,-3.083379177552617034e-02,4.835254251366700312e-02,6.376017220255893701e-03,5.048660714033642583e-02,1.161498201420416571e-01,-8.398855187476682305e-02,-2.526120934112688898e-01,-1.536000743300326883e-02,1.638308531428752102e-01,3.089102342877346197e-01,-2.974058899994367899e-01,-1.856200315082978322e-02,-1.293301506647207832e-01,1.522691216115298618e-01,-1.800112474080539093e-01,5.090089954400377897e-02,1.721083247804010979e-02,3.813319958371976653e-02,-6.974517878551880767e-02,5.529551431088847169e-01,-1.048850384432320065e-01,-2.384612360989024904e-01,2.852364080108807931e-01,2.057006866041964921e-01,-1.282350193801293503e-01,1.035874253579776444e-01,7.499204698508932232e-02,-2.341454853320288354e-01,-3.289214597987336619e-01,-1.885438633800732289e-01,3.569650756594876517e-01,2.831173992097237302e-01,1.814987580834694081e-01,4.235385433240815983e-02,8.017500120352800963e-02,-2.161679273338058538e-01,-1.162518370296586195e-01,6.481432359797877074e-02,-1.620761831714094825e-01,-1.220150620656869356e-01,2.616056272804614252e-02,-1.993520145147943123e-01,-4.813022205449961344e-02,2.503414795136892357e-01,-1.470250373180094494e-01,-1.120248607372401062e-02,1.572771638377108705e-01,2.550071117423934330e-01,2.274410542857347936e-02,-3.504724646722968268e-02,6.582108254796446845e-02,3.109631086826877278e-01,1.199215261028245133e-01,5.934000436516678051e-02,-1.887073941273058886e-01,-1.398979416357312433e-01,-1.343207543399034531e-01,1.643566438898975413e-01,1.112179043684188018e-01,3.771377329494786657e-01,1.410013057648252244e-01,-2.811992605386090527e-01,2.263689396800739884e-01,-6.173387413776413452e-02,2.266323291025954811e-01,2.534842478787718845e-01,1.659090970601592718e-01,2.601349420713952587e-01,4.546202930440665924e-01,2.189006144679082055e-01,2.458892911165494188e-01,2.668070277417164404e-01,-1.708603876327995097e-01,3.695749062414583341e-01,2.244999220593711098e-01,1.043454290605078383e-01,2.023661048487593872e-01,-2.543242219640401980e-01,-1.470975604355921618e-01,1.464485385233920134e-01,2.119881784571395755e-01,1.418920304174737246e-01,-3.644498855764143896e-01,-6.266391426784370666e-02,5.529500567581537018e-02,1.285459633110211941e-01,-1.162584997908239354e-01,1.400503572735445068e-01,-5.561869741841996354e-03,2.022087478648549111e-02,5.106850434704084118e-02,3.893464699962884690e-01,-5.840262448456243899e-02,2.181363130591704863e-02,1.518703187566656509e-01,5.280693541155295073e-02,-1.885908712814454019e-02,8.917609982134054591e-02,-1.100434792462762039e-02,1.761486468748298118e-01,-2.080873084287052088e-01,-1.854238329597017176e-01,1.359181447520629860e-01,2.690442389756335650e-01,3.595971999885955173e-01,1.863820948790543761e-02,7.002909261211029412e-02,3.770543332707416984e-02,2.363167230184804457e-01,9.800398601429337331e-02,6.070859317430698371e-02,-1.757248934595119216e-01,5.014239393294307734e-02,1.265630836925500657e-01,4.141271499905682663e-01,3.814773413421834181e-01,9.637162019319295281e-02,1.286009989799049569e-01,1.248958904531660696e-01,5.643008706343794617e-02,1.078755579669447434e-01,2.472620886694857079e-01,-2.941331411632622239e-01,-2.805895228265010144e-01,-5.590517917744317056e-02,-1.388897646478590431e-01,7.018502620747112120e-02,-1.325820503192806921e-01,-9.018828896055737510e-02,3.370769183224757715e-01,-1.405712030776018473e-01,4.232317674754478287e-01,1.536162974729782804e-01,-3.615706656666802798e-01,1.150343399199089400e-01,1.082367945409534390e-02,-1.035782349992562523e-01,1.734433496711863532e-01,-9.455903182022973308e-02,1.846777865599878166e-01,3.390627738613883890e-01,1.919119021130819280e-01,1.790404330821385170e-01,3.061561267352372676e-02,-9.257670008441705456e-02,-1.109546637079254494e-01,9.981208256721942063e-02,-3.489582970966017411e-02,-2.601524118917489942e-02,-2.414574792325300534e-01,-9.998806864017055485e-02,-1.144478539490723784e-01,8.438611602026422145e-03,-2.348963296723884445e-02,-1.284084382962746296e-01,8.427266662688215337e-02,1.166973730019440769e-01,2.283067983466127160e-01,-3.097237939227872050e-01,2.526003606841124155e-02,2.704687031266459485e-01,1.367228630731183725e-01,2.038346993734703461e-01,2.995353692270422696e-01,-1.174483409058410394e-01,3.457858301801048917e-01,-1.086458424685870193e-02,2.593959915059158572e-01,-1.723233750185297064e-01,3.020037499500038275e-02,-3.023298109057718716e-02,5.560173002997930575e-02,-2.630602140390554955e-01,-1.486639410812105599e-01,1.507681711037745231e-01,4.937224648035234975e-02,1.890763752063017930e-02,1.459871646789408506e-01,-6.158917223174080469e-02,2.389151644292616672e-01,9.635059678848068021e-02,1.115293192152179563e-01,1.526865337577156256e-01,-2.316093888171123494e-01,-3.724254826080680147e-01,3.747602241451067351e-02,9.547267723507975659e-03,3.197899154460902005e-01,-7.506929615220603313e-02,1.879768743346547644e-01,2.287973656806139844e-01,-1.613296623102342675e-01,1.642988417267673695e-01,5.888361677970241348e-02,-3.482189462226034093e-01,1.155905945271549912e-01,1.174459081714760017e-01,1.150151481205816534e-01,-2.323375910901090413e-02,1.293636238122344850e-01,1.489733108087437901e-03,1.159798046094505791e-01,2.037178081620966696e-01,3.647601478081815424e-02,-1.194498510641057304e-01,-9.225093002491814229e-03,8.656361328869370542e-02,1.444524645534049356e-01,-9.091417688901472227e-02,3.410196884197638605e-03,4.579893927635501905e-02,6.596485907662709425e-02,1.135073869506514760e-01,-7.237893899503659856e-02,-1.988280307221075571e-02,1.232616744104009093e-01,6.169851776277358868e-02,6.730309172851171862e-02,1.349973765167680473e-01,3.287036562125182637e-02,7.526536885752660444e-02,-8.991359541385912646e-03,-1.120359753764945537e-01,-1.070607618777658365e-01,2.989708201860605263e-02,2.508954850721196051e-03,-4.299529020215486080e-02,5.426645629225972101e-02,-6.656212856048181192e-02,3.359875328863989874e-02,2.051277081831554341e-02,-6.153386481088178595e-02,-2.073555614034425787e-01,1.681177652976202919e-01,5.412875022073859038e-02,-2.439475672758715796e-01,-2.017783511300939858e-02,6.184379977527470346e-02,-3.490424197027679112e-04,8.049803791066589831e-02,-7.486173187458093625e-02,3.998179957214971492e-02,1.711665737682722607e-02,4.158827954145496476e-03,3.621364715092904776e-04,4.244098216960560943e-02,1.157371680191522784e-01,-3.054695336966229899e-02,-1.825897575085023289e-02,3.852152582459400509e-02,1.045002908746797514e-02,6.102525588477536456e-02,9.429410022577737471e-02,1.515839169354301630e-01,1.082061182317646530e-02,-2.052647730156939576e-01,1.550257270482994706e-02,5.785206933862687556e-02,3.769524997067878139e-03,7.141410473633714659e-03,-2.207858246143687420e-01,7.326346031188091246e-02,-9.938206251657817625e-03,-1.286426341406776697e-01,-6.467717990915268500e-02,-6.401796749621564697e-02,-1.065485231910634711e+00
-1.092852046719859360e-01,1.030291289347463326e-03,2.513342346761431312e-01,-2.645346453208852200e-01,-2.997433591521838081e-01,8.436644626534224589e-02,2.625118632155071796e-01,7.560628020599048649e-02,7.783279440146592676e-02,-3.968979145193672897e-01,-3.161204211197874980e-01,-2.355397693911381041e-01,-1.090573685139875904e-01,-1.453866456029103416e-01,1.364752922770018639e-01,3.060332693772293555e-01,1.652648209591853767e-01,6.770475583590837010e-01,-1.449473817619168492e-01,1.851421077061931320e-01,2.562266665909291863e-01,-8.827457490588076494e-01,1.311435832625739706e-01,3.359967994874511477e-01,9.965568823914257301e-02,-8.875518419064418185e-02,-1.214587667517189468e-01,-2.505229360028630725e-01,5.390227057969053659e-01,-8.451932387361604793e-02,-1.767221569304141537e-01,3.312109682627871754e-01,-1.724264279057816374e-01,-9.910178110012646258e-02,-1.615245881455609211e-01,-1.598263032923596255e-02,-3.384177612530385182e-01,5.054343209156093170e-02,-7.889680481869464079e-02,-7.395711695262910390e-02,3.705175366726565778e-01,-1.234277157166135813e-01,-3.375586575624949792e-01,-3.725762573655251875e-01,-3.073947192452040622e-01,-1.274092086656373746e-01,-1.505158739451081806e-01,9.905627200170952912e-03,-4.853757768495015057e-02,4.288256648034136282e-04,1.039141335250027276e-01,9.917155387200091848e-03,-1.635153730717477105e-01,3.008725194324370425e-02,1.121985593501952649e-01,-2.627361217759442424e-01,-1.391906864497930996e-01,-1.387571714234287767e-01,-1.396227663474046143e-01,-4.994117404589483722e-01,5.468507358838325949e-02,1.455476354905083369e-01,-9.398977702674989054e-02,2.601113427054210780e-02,5.416210452809205878e-02,3.542651680480597177e-03,2.702103317390120440e-01,1.989829346003588184e-01,3.374302446573489989e-01,3.088946872867058269e-01,-1.364130691997281208e-01,-2.518882599994061722e-01,2.414232812860490907e-02,-9.818914996995976863e-02,1.451615887771558477e-01,-2.312488694348948937e-01,-1.911915759713226151e-02,3.604347725858183388e-02,2.608166953590611015e-01,7.293508646093513348e-02,4.300285173040056808e-02,-2.998646936548751696e-01,4.555125473205572095e-02,-9.928638991478436204e-02,-1.356829104911575282e-02,-1.263908827835048543e-01,1.054809276095544229e-01,1.283252944643251403e-01,3.935477647849795757e-02,2.828062386902529535e-01,-7.362846733831243662e-02,-7.100975033418370497e-02,1.923242867192349603e-01,-5.130121557062444770e-01,-2.314291919515519824e-01,7.110146961807474464e-02,7.555549373736106245e-02,-8.116036511482946358e-02,-5.135404094576655476e-01,-2.630829413092409808e-01,1.407287546475974593e-01,1.273677621717178576e-01,-2.609401367085079637e-01,3.263871380944132761e-01,6.689649613040607457e-02,-2.796020470062786627e-03,-4.806125244212864495e-02,1.218858660117919657e-01,-3.810575797264383335e-01,2.624304981161339478e-01,-1.265911922399462486e-01,-1.819080421798170439e-03,2.790183505831516503e-02,5.271216714965189926e-02,-5.498746531331185627e-01,-2.598854859012372787e-01,-1.774562797752665677e-01,-9.044990592571902632e-02,-9.947715244408485147e-02,-9.276707520257543305e-02,-5.020935795597984697e-02,-1.668405247578066408e-01,-1.314177649098903500e-01,1.947322293617859135e-02,1.323502274023755088e-01,5.874840755409490266e-03,2.088727280564554867e-02,-3.517982017332618172e-01,-1.717138224136429137e-01,-2.398840679327767789e-01,-1.583647091697015508e-01,-1.332976887895717943e-01,1.728779649634180904e-02,1.158026922104272716e-01,9.014456261949525817e-02,-1.552297083783544737e-02,-2.586787336984794905e-01,-1.028785857835602530e-01,9.812887930883194831e-02,2.864178556237602091e-01,5.470179979771528506e-02,1.549657885965868009e-01,-4.881042730600605034e-02,-2.509794341701343523e-01,1.071781534415521334e-02,-1.915915845469841894e-01,-5.858659912600519548e-02,-2.684124918470613963e-01,-8.414614934829768664e-04,1.056540661523346636e-01,3.387476388013039852e-01,5.420801665707471184e-02,-7.767936326816214654e-02,-5.054780905769120508e-02,5.837735591892440068e-02,-8.924033706466372173e-02,-5.206525734327722976e-02,-3.494747756490667046e-01,5.108528839780803257e-03,-1.070420214840290957e-01,-1.750631583131502245e-01,1.361782875497233591e-01,-1.885689386676323021e-01,3.153271316948084990e-02,-6.411133529601376058e-02,-3.676830797708646181e-01,-2.700645239197643210e-01,-1.099627572865117262e-03,-7.668632553239834726e-02,-2.243243561989681500e-01,-5.544666596745978504e-01,-1.588735567375580970e-01,-7.726340806530178351e-02,1.981120054880554926e-01,1.384611608715901124e-02,1.447706868535778846e-01,1.878299129661855082e-01,2.162617125059554668e-01,2.286453517143986758e-01,2.668087231666620152e-02,-6.328462946407503731e-02,3.057853654302966975e-02,-1.866357486930375967e-02,-3.774784916064636425e-02,8.357212496001428792e-02,-1.229910293751214495e-01,1.137556004880696386e-01,-1.711746860327801323e-01,-3.142716704332419453e-01,-2.276050860743432380e-01,1.293157538879394497e-01,-4.306747722276947632e-02,-2.132918638798749766e-01,-1.991794005325146083e-02,1.825102199434639194e-01,1.140182622198907397e-01,8.895170854759663209e-03,3.142550951502247059e-01,1.726139885459594403e-01,-2.427128309035231912e-01,-1.713536770638711404e-01,2.484391170392583406e-02,6.731551566559555722e-02,-1.831069483407238296e-01,1.556950369975830225e-03,-1.031907012200989765e-01,2.208693627395162326e-02,8.773475189844070349e-03,-5.529035980610111367e-02,-1.211368258651856905e-01,2.230258866763348002e-01,3.660011246832703957e-01,1.925782241556653895e-01,2.989892236023757865e-01,2.377989548915396267e-02,-8.404100224751505366e-02,8.090586344633625415e-02,-3.706099920633710298e-01,-1.023679115735966344e-01,-3.494279969445912570e-01,1.907704377247347038e-01,4.100413905088274302e-01,2.498723771150841433e-01,9.773764883056619557e-02,1.227956259847557824e-01,9.927985223376303847e-02,3.087172835320968756e-01,8.889093261696047465e-02,-1.826125504841327740e-01,-2.383809048900636940e-01,1.474200118315268336e-02,-3.907027993243245012e-01,-9.934737410185000284e-02,-2.473584760513879155e-01,-2.122477608976256619e-02,-1.263330844727827418e-01,1.601425912968595378e-01,-2.404746407245549056e-01,-3.586118179636043624e-01,7.053737835540621615e-02,4.428297648540332337e-02,-2.488992794694706578e-01,-5.494365469896169696e-01,3.228324191590012382e-02,2.943542673308061422e-02,2.435336175768801625e-01,6.693538991001660166e-02,-2.463293062819890966e-01,2.457859106353621204e-01,3.998707380123227018e-01,1.393960620237951198e-01,-1.967395834179621814e-02,-3.475697619445938802e-02,4.339668934945489776e-02,1.999957489203768313e-01,-1.870152494477919924e-01,-3.361032834293641719e-02,-8.388838005712515034e-02,3.421763075216647243e-01,-1.764586825258425765e-02,-1.726361061850286982e-01,7.472502043039837283e-02,1.302490882991259652e-03,1.227247365331808338e-01,-9.593066143849175720e-02,-1.270715184771689099e-01,5.337269828640740094e-02,6.968870958137028671e-02,2.659643873099889477e-01,4.747048726516998607e-01,7.501850463277134895e-02,1.214615199091844122e-01,-1.771646883433488362e-01,-3.696556737212279564e-02,7.018242834757441873e-02,-1.848829817142449705e-01,-1.207611960724929295e-01,-5.348582372619450909e-02,2.218273196749385445e-01,-1.528252731152477395e-01,1.131828009069964745e-02,-4.916652180789744114e-02,2.291709739873749041e-01,4.671275941495225403e-01,1.345487007420745340e-01,1.859957839996123907e-01,1.853414596690663718e-01,7.969211991101091130e-02,-2.209343559843243987e-01,-3.379321413128237306e-01,-1.381926401748410638e-01,-6.413973354545243755e-01,2.830582385897389419e-01,2.429242103684200738e-01,-4.527190657478843971e-02,-2.065628981916089180e-01,6.922471916423679483e-03,5.817692950926152406e-02,-6.301583210676214852e-02,3.220661943710335096e-01,-7.924663062247466749e-02,9.408775834594707010e-02,-7.586018747881990987e-02,8.187217941404134613e-02,4.778232280629272216e-02,-1.007273483233967343e-01,-7.244200081775344080e-02,3.002374984535356450e-01,1.574633183716969420e-01,1.168229127915666188e-01,-7.177732245944666578e-02,-3.196042247554779087e-02,9.383931594334922466e-02,-3.344591061668718002e-01,-4.266034512721059713e-01,1.556180823961287041e-01,-5.222539715253942533e-02,3.268674659299840579e-01,1.515349926117514068e-01,-2.575465988151890567e-02,1.843906710524869652e-01,1.652448674989902555e-01,2.143536128498199633e-01,-8.747229915482650220e-02,9.697165536359650048e-03,-8.826060959511487780e-02,1.820360674213155894e-01,-4.746046153084267777e-02,1.908593605128613147e-01,8.784277291347783456e-02,2.658528844464776442e-01,8.208771810775794542e-02,4.840218649716497915e-03,1.585231363953769068e-01,-1.840263376705626383e-02,4.128136846105245894e-01,-5.167199884707206203e-02,-2.754553219518001694e-01,9.629632986223728153e-02,1.154173489295243354e-01,8.374885407471084620e-02,4.514949046307978886e-01,1.241172094231947215e-01,3.902173459863600424e-02,-2.669768315472366704e-01,2.193446286674929080e-01,-1.180594520045599866e-01,4.504941055635345443e-02,-1.407005990089665037e-01,-9.452168785946028773e-02,3.038457970328383162e-01,-1.038094612018397589e-01,-6.184711254691053345e-02,-2.241131059135662851e-01,1.291922049232515912e-01,3.689669123465517675e-01,2.614160087836759488e-02,2.261396613674368228e-01,2.646786918758235463e-01,3.330673776245831053e-01,-2.355389331091035932e-01,-5.013508481538243855e-02,-9.732391859396249956e-02,-2.637315130923078565e-01,1.617936686991535977e-01,-2.875255012043119174e-01,4.723489714993134997e-03,-2.970221744494144223e-01,1.290274415898906568e-01,3.621696011830424777e-02,-7.923057926060164680e-02,1.479021766854378972e-01,3.490880029221130054e-02,-6.205017367539374107e-02,-7.960070895904529376e-02,1.564207549512245110e-01,1.080231592526582074e-01,-6.006386663342291182e-02,-4.124369229624979399e-02,6.755662659804912984e-01,5.727657281407037837e-02,1.451307155995692211e-01,-2.096656156782461811e-01,2.918031769105147166e-01,-1.274626851481580336e-01,-4.770348855419463407e-01,-1.670218803368876404e-01,5.898930355518600815e-03,2.361234333477778974e-02,4.071354687253884164e-01,7.093219065563735604e-02,-1.006689710493991891e-01,5.884351242968316464e-02,7.789394077640678093e-02,-3.287995616897676499e-02,1.316337338387735534e-01,1.411951271988952650e-01,6.714978932179635485e-02,-1.178314218263801574e-02,2.699838808927124134e-01,3.248501526576861864e-01,4.192095850326044842e-02,1.425117388243774853e-02,-1.652482776386999391e-02,3.792712510767021761e-01,3.013947599293447244e-01,-2.830739890574499595e-01,-3.304328737998718513e-02,1.486841061830299349e-01,6.226741197631778524e-02,4.099339641878302909e-01,2.239483917312657668e-01,1.429371342813533785e-01,2.237149024910326522e-01,9.145196355346676964e-02,-1.246613346155031887e-01,1.637165181267755121e-01,3.124677287679500925e-01,8.491867777328229727e-02,1.292624424422992857e-01,-1.516489420811449607e-01,-1.920298019276371615e-01,2.661660352243537253e-01,-2.075348726771849839e-01,-7.811552846058479604e-02,-2.232894106912884091e-01,1.101457035177687933e-03,-6.561202452328997181e-02,-3.632924600815513605e-01,4.482619927588436803e-02,5.026301139547427743e-01,4.373109701785163339e-01,-1.345332682190003015e-01,4.917363430951754433e-02,1.350785680122315591e-01,3.205356383796668929e-02,-1.353221381037407467e-01,-1.482887153995224028e-01,-8.499852908241105343e-02,-2.864893123853861079e-01,2.315577458795232274e-02,1.839097443010901112e-01,-2.447192351317344639e-01,7.370319636959388188e-02,1.299415362390733408e-01,-1.487180003275757022e-02,9.772228634831320315e-02,2.286987747354693734e-01,2.444598986166050814e-01,-2.372186313750237197e-01,1.014107273177961704e-01,3.996209107762591639e-01,-6.452945200282460270e-02,8.970388829573752720e-03,-1.541646931088890837e-01,-1.739708581978134105e-01,4.374550671107816507e-02,3.654923185650513912e-02,-1.269912921369525938e-01,-1.529867143768824829e-02,2.292971020036470645e-02,-1.860934404725297642e-01,-2.401315555959431802e-01,1.039631933491266674e-01,5.287541854985118583e-02,1.527393099463418731e-02,-1.088602270133066513e-01,7.403734501133654722e-02,1.196630600319188442e-01,1.077412811332092019e-01,5.749636439302678592e-02,3.126969184404440605e-01,3.589160385708304868e-01,-7.268564293729246582e-03,1.713921911992652425e-02,-2.065921768666629521e-01,2.193095126521871774e-01,-2.966138466268918722e-02,-2.558519169752184186e-01,1.611129443955312823e-01,1.297596224240839813e-01,-5.173904049722305443e-01,-1.044989314423315219e-01,1.782206134778093753e-01,-3.064124265989727758e-01,1.654327723326121935e-01,1.193683043651026371e-01,-6.211598829900290969e-02,2.178622385174782128e-01,2.649038825236316730e-01,-1.041114510797077064e-01,-8.750206648373230756e-02,-8.691806081849826060e-02,-1.858954185216281640e-01,1.109710030226221528e-01,-1.447484604813444042e-01,-1.526958489665226903e-01,-2.038842004272987118e-01,1.236141270244816570e-01,-4.030159798846728036e-01,-3.539624620813409117e-01,-7.372782583799016541e-03,3.350654658539396480e-01,3.507369465483616278e-01,-1.465267303501911478e-01,8.808629508016717347e-02,2.858382206769794487e-01,2.796750484651802302e-02,-3.173186082076075998e-01,-3.273779331825311667e-01,-3.591068043001794940e-01,-3.056292052460787279e-01,1.477270630825516240e-01,-3.774268956488163740e-02,-3.118954901641313171e-01,7.972067737351573591e-02,2.518736876402424274e-01,-1.565067252424638677e-01,-8.727408577700486447e-02,7.390161227873869032e-02,9.128976684414989717e-02,-2.280694610793147503e-01,2.038462939352426451e-01,2.499586532815233422e-02,-1.607465272190500005e-01,-2.738729381642668881e-01,-4.805945293733215190e-02,2.958283010835933979e-02,1.530890918191902539e-01,-1.245898392551589295e-01,-9.524653905959254777e-03,2.252190818069532141e-01,-2.806773336204695588e-02,-6.772102097704411905e-02,-1.499496299403157151e-01,4.512831447171120579e-03,-1.483229483124886283e-01,-2.769932478282747801e-01,-1.825109079485412455e-01,1.648164585874050680e-01,8.997869860362947905e-03,1.012762259904907425e-01,-3.396187469422912164e-01,3.733665936049585521e-01,5.838242285454703362e-02,2.521823211886154992e-01,-1.381803521825033521e-01,-2.965078343905376279e-01,5.860894565764773745e-02,1.769792596416470409e-01,-2.375649172488224214e-01,-2.657710844624353377e-02,8.888088867257988579e-02,5.176221960807660810e-02,2.390551128895808050e-02,-7.928742659601022147e-02,-6.991085669100148559e-02,7.295896798738163436e-02,-1.011326918341609038e-01,5.032074934626690199e-02,3.717540555649789802e-01,5.906446173441485398e-02,-5.646584071161689922e-01,-1.690055210608913394e-01,-2.573634016068507280e-01,-7.138058543942120415e-02,-1.811047124308228229e-01,-4.313116160616956574e-01,-9.864754027905570100e-02,-3.373849489020737114e-01,1.852206702797017379e-01,-5.270224309375254323e-02,-7.015460853712709999e-02,-4.861829114087832804e-01,1.860438114026479184e-01,4.935358814455228504e-01,-1.308537958569371273e-01,-1.519386314954416228e-01,4.760084082999682664e-01,-1.332071950928233883e-01,-1.778971872767168838e-01,-2.233155244166216136e-01,-3.426107395765778940e-01,-2.843778211252876997e-01,-1.501191157626923789e-01,-1.563535276373206190e-02,-4.825343184547091768e-01,-6.012720454741974502e-02,1.750470388071476702e-01,-2.765216107168488174e-02,-9.009229936986813334e-03,-1.966976960210860825e-01,1.893687166678443834e-01,-5.354725311335038762e-02,-9.587144281680132218e-02,1.562145214463165135e-03,4.780289382932018626e-03,-1.487747232249389366e-02,1.831219523827403162e-01,-1.202845974715410077e-01,4.111689880830503990e-02,-1.748926524343715760e-01,-1.749167215398662878e-01,3.750013261476243392e-02,-1.913258377701221036e-01,1.522236091533183365e-02,-2.672777022983190975e-01,-2.583045955009301564e-01,-3.922293219687154053e-01,-2.946150367300203188e-01,-9.411219772171047770e-03,-2.671882422779838645e-02,-1.339311506942220398e-01,1.651726827601306680e-01,-2.272099527481231118e-01,3.015071792650840798e-01,1.203271837545685230e-01,3.825790526765867616e-01,-2.240623177799280774e-01,-4.898948497057705187e-01,2.139205910071750871e-01,2.343173778130969512e-02,-3.442807854405808832e-01,-1.873567206839211741e-01,2.100437407093873332e-02,2.814505244884729085e-01,-8.766471081532771492e-02,-5.567144929055439784e-02,3.704152058003364317e-03,3.268403530347879782e-02,-1.676563571139619013e-01,-4.351778461013024873e-02,1.356770424443439482e-01,1.715724580284492817e-01,-1.954242662008380538e-01,-2.621418130138501446e-01,-1.805050703600072359e-01,-1.673440585620125653e-01,-7.970234753497484892e-02,-4.285109024661627464e-01,-3.161891917167575228e-01,8.103493813144614644e-02,2.897177346927871933e-02,-2.659996660154199596e-02,-4.305696914423030874e-02,-2.709796447894006755e-01,-2.143722477404940915e-02,3.218477598766116277e-01,1.088409340327024383e-01,-1.359612718431619793e-01,2.836672027474411162e-01,-8.605412529702266555e-02,-3.921838372478962942e-01,-3.725068166491397603e-01,-5.524430999282661792e-02,-2.861257181814886447e-02,8.150987094405079403e-02,-9.828763654840769193e-02,-5.590508135268784651e-02,3.938692388503166608e-01,4.083184126854168539e-01,2.744921026878914816e-01,3.035980090499500184e-02,-1.678052855018778156e-01,8.161319566860576746e-02,-3.208142842545210205e-01,1.420221775169229761e-01,8.455514346934927747e-03,2.316717489402974617e-01,-2.227638487071643136e-01,-7.034613774770852312e-02,1.870420778271199846e-01,1.568274135820917903e-01,-1.972559261435065034e-02,1.103420468167559954e-01,-6.548519937919933254e-02,-3.636692237358379876e-01,1.177862212876544523e-01,-1.161514597333921511e-01,-1.577388407118623659e-01,-1.658314368407229691e-02,-2.077649038019065419e-01,3.099294303599898770e-01,-8.922890352363956057e-02,2.289761666156356068e-01,1.696448521651039432e-01,1.456638197510691859e-02,2.798979971474609973e-01,1.138685044142978275e-01,3.211528731941294401e-01,-3.908395941023285469e-01,-7.205843286744556542e-02,-2.457777180454350646e-02,1.113547826723041145e-01,-1.725471768925936067e-01,-6.078430916947204221e-02,8.445175845982150209e-02,-1.644433931366826862e-01,7.511493270705582592e-02,6.350836420128087856e-02,-2.101051724443942781e-01,2.031431149279602222e-01,-1.847437078206619898e-01,1.704987493403976040e-01,-5.420704014250832259e-02,-7.649763203169236692e-02,6.977801120996050821e-02,-1.664035906685264743e-01,-3.060515954445576781e-01,6.040887189712878386e-02,-2.744259871940871176e-01,-4.855299744552832308e-01,-4.031441457971835646e-02,8.268319555234932006e-02,1.136713799965357180e-01,-1.288266858643825896e-01,2.182400324725598251e-01,-8.855937866400918901e-02,-1.066630472550611913e-01,1.420576847504266826e-01,4.436845091902536509e-01,3.953499882384190617e-02,1.651214902516916772e-01,5.812318367134519659e-02,-3.425328949736132500e-02,-1.688597849353242752e-01,-7.340220814824789664e-02,4.617011838232486926e-02,1.902379802702232892e-01,4.680067631534945427e-02,-1.099260862443003500e-01,7.172512285650094188e-02,1.347911378387246506e-01,4.942747620706577361e-01,7.816390282297620840e-02,-1.558963022751048977e-01,5.339341141021520382e-02,-3.665939996074910057e-02,1.871372057335262129e-01,3.761211431733976207e-01,3.265125710530570879e-01,-9.974843848585429953e-03,1.071619296678510413e-01,-6.919896555177355857e-02,2.838730194588254263e-01,2.563517747302127558e-01,-2.185411509943415986e-01,-3.310100907037986651e-01,-1.106517981326575195e-01,3.673023965612430830e-01,2.011992301310064069e-01,-3.952021251295724236e-01,-5.341463225844339177e-03,-3.894337267344458956e-03,7.653154954784777142e-02,-4.250116629407339058e-02,6.543512732488544759e-02,2.034210789458326119e-01,-2.249320436723755909e-02,-8.769472901411948240e-02,3.178340404358546145e-01,-1.977461340974634788e-02,-2.097071185029569240e-01,9.293867918102897974e-02,1.452447862529682443e-01,6.403567219052593018e-02,8.712755609184094641e-03,5.735215009597507962e-02,1.743315476317994772e-01,-2.886346540235177893e-01,-3.037382612090209766e-01,4.415784350815441517e-01,4.243880495378323792e-01,2.162046093735733032e-01,5.186092831303049794e-02,4.173564706677595354e-02,-8.952007328302157008e-02,1.003052678268707421e-01,1.064519893147439222e-01,2.426362702822629919e-02,-9.818460093759674712e-02,5.585037249616395943e-02,-1.429663926140456454e-01,-6.650965303456539413e-02,2.669488344877291031e-01,2.020276442937449513e-01,9.945376098975126922e-02,3.060118708330720194e-01,5.532680064763999539e-01,1.255119202055905159e-01,2.380751719888781204e-01,1.897245863994345139e-01,1.552342093658648503e-01,3.082285533057654292e-01,-3.360956210741593286e-02,-2.231431395028545817e-01,-2.462176611400082871e-01,-3.006763745036567567e-03,-2.412545236930743742e-02,2.294919221966570944e-01,4.971568684072587008e-01,4.843704264585044412e-04,-5.257215308636743051e-02,2.894861469387543518e-01,-8.563267701138836674e-02,1.632384636447304915e-01,2.420234500300495473e-01,-1.485413510156133599e-01,2.166434827075602310e-01,3.401723378553762056e-01,3.736767462907324977e-01,4.504677991796000591e-01,1.716648206656089248e-01,-1.218615019140078942e-01,2.165441174820582557e-02,3.006578447966170575e-01,-8.637966282511591598e-02,1.347138195947713835e-01,-3.245118647850575577e-01,-1.068829817197683024e-01,7.577858823488979600e-02,1.363096845759304565e-01,1.868349062171165698e-01,-2.620382556268870400e-01,-7.060318002570941179e-03,1.108964929084742951e-01,1.410894822117579883e-01,-1.473128927501268781e-01,2.403939392656957441e-01,-4.250387806894164594e-02,1.656075530991447387e-01,1.474274522665111053e-01,4.229391313182178647e-01,-3.266168659213834844e-03,4.245528501243739372e-02,1.286274396378948581e-01,1.026545255717419558e-01,2.205999821641388067e-02,5.811181922988518239e-02,-5.200661407859893080e-03,6.066734835047851715e-02,-3.625450931762956297e-01,-1.618822578647940713e-01,3.190669406749304660e-01,1.599964744011831697e-01,7.621545594759970843e-02,1.079050091919577098e-01,1.221031404861427083e-01,2.927276947364398363e-01,3.475019222808954367e-01,3.230544712956309045e-02,2.363396486209376757e-01,-7.939617332202210387e-02,-1.686868514201093072e-01,1.757398686288494383e-01,2.669264856634928074e-01,3.448066440788467024e-01,-3.669177668566316747e-02,4.159182131353005712e-02,2.538139763625226752e-01,1.333295393903589920e-01,1.048376437139789813e-01,1.359147036582077361e-01,-1.391545485792043402e-01,-2.397582418457542275e-01,-1.118286593813054008e-01,-1.902882113224896310e-01,6.360107028114686534e-02,-3.574841480244101977e-01,-2.324298802646940568e-02,1.643094723940646817e-01,-9.146530987030679349e-02,3.553316544430252799e-01,6.056950097219079149e-02,-3.067810513288490304e-01,-6.609582958948347076e-02,-1.266222368215101368e-01,-1.109154900771499030e-01,2.350174365582816116e-01,-1.735945944823920617e-01,1.977325952546928611e-01,1.255354221281830829e-01,1.461774895426691256e-01,3.722337516235528498e-02,4.136075495978334959e-02,-2.425196020104981864e-02,-3.498800782041384116e-01,-7.747849264351766574e-02,-7.493118369830349679e-02,4.978359703321087043e-02,-2.510923246302885214e-01,-2.677455088907079728e-02,2.680098533781331560e-01,-2.435396851891552528e-01,8.079829215774075868e-02,-2.442569750732412615e-01,1.557626131898856570e-01,4.023450020559104501e-01,2.844203612538754866e-01,-2.943223169207447865e-01,-1.595250848980837508e-02,1.357453132264999085e-01,2.442553537983012391e-01,5.784347603711822994e-02,3.135239861014382234e-01,-1.128638239448571425e-02,1.547735637574157788e-02,7.159033957566034168e-02,6.709070376747716669e-02,-1.058291366020870095e-01,-1.167737411672508802e-01,-1.618996163627424989e-01,7.415840294088858753e-02,-1.396632718768907044e-01,-7.152214011534978322e-02,1.017796771851796067e-01,9.822440495021722562e-02,-4.739973690998677130e-02,3.947801120161987254e-01,7.480944614479167858e-03,1.218477647380057372e-01,1.554213868577170865e-01,1.572585174845838041e-01,1.537399296247231317e-01,-1.233891804820299622e-02,-4.113093372325144492e-01,-8.424527651436369835e-02,1.742233122108372279e-01,2.890887049452426361e-01,-7.605432079905800891e-02,5.251820709641125129e-02,2.363834869661236293e-01,1.124269133846745039e-01,4.222149680769226449e-02,-1.369609823018760331e-01,-1.285464806199978216e-01,5.244977613934403982e-02,-3.390264081293849208e-02,6.428084190777018370e-02,9.538895762250922117e-02,2.136515248981200321e-01,9.410457016209673037e-03,1.504246674074746493e-01,-2.273094391509856635e-02,-2.852222381696447803e-02,6.482199326386081650e-02,-8.905210017513964793e-02,-1.077512523571858699e-01,1.187639599584527639e-01,-1.738628565504495571e-01,3.377947576173932070e-02,-1.002957615968650892e-02,-1.485736898709535264e-02,-1.107858791072324628e-01,-1.811455932562885951e-01,-4.364619736159702085e-02,-9.407714995859309259e-02,-2.009725223608581704e-02,3.124825985689828542e-02,-5.173137290584360615e-02,-8.480787995468526408e-02,5.144878667996069521e-02,-5.373881881343451489e-02,-7.350853204508298044e-02,-7.470676841674673413e-03,5.099379386059255809e-02,2.333194932442730629e-01,1.838008053536390740e-01,-1.038934438622343137e-01,-1.099802714736214382e-01,2.891638746316557360e-02,7.814454426166032863e-02,9.274093986981179691e-03,2.396779298699529825e-01,1.401516722664349623e-01,1.864503870093176252e-01,-1.934241153378033970e-02,-6.724330839720123187e-02,-8.458417891519742771e-02,1.106649381303536663e-02,-1.033903414838878987e-01,-4.093455512525832202e-02,-2.063232369481659070e-02,1.168731231643394541e-01,-2.484290565854502600e-02,-1.182617608053417729e-01,-2.230267702855339915e-02,4.130294148218088823e-02,7.853645608574509607e-02,-6.972125520696886847e-02,8.718216182955117188e-02,1.611272096385148456e-01,7.139631205858915086e-02,4.632423599670530689e-02,-2.236653036494127764e-02,-3.863485004043109433e-02,-1.805498566741184086e-01,8.323930885332397889e-02,-1.296623811155872552e-02,3.770279925655977554e-02,7.257213514849435165e-02,-5.619562682512591056e-02,1.241442188116675394e-01,3.375570843181312231e-02,1.721441750105377477e-01,3.933841703003743834e-02,5.430711977641043686e-02,-1.147052331755264554e+00
9.066404593235628806e-02,-3.062387308834367272e-01,2.273293823518293677e-02,-8.266951320254709024e-02,-2.418242880802709549e-01,-6.762842888466535918e-02,-1.452257144274573530e-01,1.001428239350087707e-01,-1.629611888112047491e-01,-1.186546865876151047e-01,-1.197606330587104861e-01,-1.465505307666272461e-01,-1.684978465394904035e-01,-1.502304570776271664e-01,1.410253232727211592e-01,1.744355688979606633e-01,1.291304423523065292e-01,2.419864017267043810e-01,1.305501954953824928e-01,-4.383499978534328122e-03,1.303699638880655431e-01,-2.941707085717996106e-01,1.721288885432202820e-01,1.450535444584900580e-01,-5.107647416193694667e-02,2.572195535856508161e-02,-2.240040772477822628e-01,-8.228267905979234909e-02,1.387433047397190582e-02,-3.775406416216662425e-02,-1.388589437122059733e-01,3.190750075540485509e-01,-1.424522965712735345e-01,-9.236638716115859460e-02,-1.628930097723262083e-01,-5.103759110899366847e-02,-2.552084345788700470e-01,-3.877534774964920550e-02,-1.102678649533152533e-01,-1.478909615364242258e-01,2.771991641745076285e-01,-6.394399194807684483e-02,-1.512211029805307361e-01,-1.324247458935080557e-01,-2.660767323329755185e-01,-3.703773637824198453e-04,-3.905419874653054402e-02,-4.267792504398772169e-02,-1.106549112865516521e-01,-2.294534474317305173e-01,-9.552496542767388577e-02,1.309355850412903879e-02,1.967480234072547726e-02,1.502077567427759497e-01,2.529931225762777069e-01,-6.440956101651171273e-02,-2.936217917173511785e-02,-4.342466931217968396e-02,-6.277335345750562068e-02,-1.171327096299175363e-01,7.987779177626674887e-02,1.942143750101215649e-01,-3.623987795959680153e-02,1.745821251054385237e-01,-1.415132119621435314e-01,1.925434924112304561e-02,1.751521494952910374e-01,3.584265401475350554e-02,7.939823810423654593e-02,6.613484268900795930e-03,-2.808733053300425161e-03,-9.209299358682657144e-02,-4.368580406266067175e-04,-2.133310257685890887e-01,6.754171709419166947e-02,-9.105266946591114574e-02,-9.834164353139616954e-02,-1.891914473049588138e-02,1.232169075443587253e-01,7.444009344828199370e-02,-4.982564623138106136e-02,1.036765421406139337e-01,-4.361251246463185294e-02,-8.883495150901316029e-02,1.893158924443416949e-02,-2.313745542215562279e-01,9.810067533331176537e-02,2.373320893993264569e-01,-6.811476740211810932e-02,1.844115452376507147e-01,1.094065396315800111e-02,-2.018698598588787863e-01,3.099790358972654980e-01,-4.667316760365193273e-01,-1.060078232738410758e-01,9.528643649115703385e-02,7.757832651809662763e-03,6.039276404459914885e-03,-1.604866991940016863e-01,-9.975853573542743657e-02,1.321854476574460813e-01,1.509429164233631604e-01,-3.557073007325353697e-01,1.667128455404296716e-01,-5.321527414877113074e-03,-1.056110337371635455e-01,-1.226720699239389339e-01,-3.109502776556006751e-02,-7.264912974632414810e-02,3.280132231516095370e-02,-3.398183950963558353e-02,-7.778265613555393476e-02,-6.013254802573717722e-02,1.931521820302606329e-02,6.695252235065379809e-02,-2.470070574741644320e-01,-4.014163810354633849e-02,-8.416410012350437897e-02,5.511539283989006985e-03,-8.526857433617085480e-02,1.318350830819712272e-01,-1.334897854472909540e-01,7.736564112570130936e-02,7.626329043191737433e-02,-1.200341403244548355e-01,-1.999211168283465956e-01,8.505564346567053013e-02,-1.085709881073485261e-01,-1.468782951928603864e-01,-1.893323420636351395e-01,3.967807196661476965e-02,-7.468336401617747811e-02,1.236954220931170134e-01,1.365513552371742378e-01,-3.257390812891139409e-02,-6.304122375643671228e-02,-2.254447083462958190e-01,-7.375846581819625603e-02,3.062051989386633810e-01,2.789479876055441232e-01,4.510967575845140076e-02,-3.110910965007848347e-02,-8.740524155125577177e-02,-8.190783315209634874e-02,-7.375082799936564723e-03,-1.025987764026279198e-01,-5.332463804997925050e-02,-1.153581483077085745e-01,-7.999223023652399451e-04,8.009697469683281501e-02,2.469044703075406466e-01,-6.420270935252447853e-02,-5.227693588370698613e-02,-1.542331471915843188e-01,5.765712275673452042e-02,5.026759943724419533e-02,-8.835845818548916306e-03,-7.685635095387327587e-02,1.320635710470672297e-01,5.582349168332127048e-02,8.652592498282771216e-02,3.515349659850298958e-02,-1.778939367713245623e-01,-1.231742404416589359e-02,1.682113573230849535e-01,-3.183071613689371637e-01,-9.834150316787824975e-02,8.330171508496166111e-02,-9.881640266104498374e-03,-2.538237254872126591e-01,-2.299650059305063665e-01,1.330181857264839743e-02,-4.402277907210910834e-02,1.151409212831557421e-01,-1.044737266616139609e-01,2.214529746297974264e-02,1.505687480682314228e-01,2.399249131785703981e-01,2.654036352708362759e-02,-6.144740378064603159e-02,-1.719720053910755164e-01,-3.769991056076012897e-02,-8.379083999976508212e-02,-2.045725597261903728e-01,3.669397032962674193e-02,-5.110105666732737278e-02,9.748694489135968644e-02,-1.350167526555020592e-01,-2.059485691795360229e-01,-1.224274604942437589e-01,3.968783777179926003e-02,4.156641109168802452e-03,-3.413127159256277438e-02,-1.338702068154836167e-01,1.637244362419863208e-01,1.662204536378842634e-01,2.085836499721622703e-02,6.209937586261038422e-02,3.229333951338923120e-02,-2.117265906709939194e-01,1.012777678272977072e-01,-5.047650941669706848e-02,7.025077170422036610e-02,-2.180062723939105718e-01,-1.756663735087129474e-01,6.200978168298303811e-02,1.180511445909677992e-01,4.230284107683297129e-03,-4.681191965097787622e-02,-8.203254887276065221e-02,1.083554329184382159e-01,3.312154382115538587e-01,-4.129362730218427008e-02,1.965073329420302106e-01,-1.045716690021613188e-01,-6.876337372454471852e-02,-2.556846633680355529e-02,-3.693971644112278852e-01,2.005847589066193370e-01,-1.704560987583318352e-02,1.643617130292191197e-01,1.757358561192522983e-01,-3.736349661227733598e-02,1.977322523835528811e-01,-2.389405080109419446e-02,1.015233909983943384e-03,2.112094088922846780e-01,6.754724795587715991e-02,-1.536759100172161996e-01,-1.542933975639608213e-01,-1.021738779170879990e-01,-1.048038679610033969e-01,-4.964574087131383949e-03,-6.743410972613979315e-02,6.801006788675127701e-02,-9.319317239903812666e-03,9.770244617123546860e-02,3.140986472990264788e-02,-2.771531690968310757e-01,-2.679880371593807917e-02,-7.533816601268067403e-02,-3.079693467082799119e-01,-9.833266201242059357e-02,5.744181977771049136e-02,1.243952158029760537e-02,1.202516421748386355e-01,2.120854479082140143e-01,-2.044898869392250129e-01,1.032812533410692041e-01,1.796644440120418462e-01,2.388081062437026059e-01,-1.898563854429362041e-01,-3.260693323628959805e-01,4.797197962491382695e-02,1.263128700881775979e-01,-9.652915091524039148e-02,-1.238197402812953735e-01,-4.629211412891838517e-02,-1.892177294834402820e-02,8.497203911691948719e-02,2.878611749215581606e-02,-1.456881274711290149e-02,-1.492125364994594250e-01,6.601681935399225654e-02,-8.065609211889547547e-02,-8.917787696251829044e-02,1.925530138943092606e-01,1.039613649444083160e-01,2.757123139966830561e-01,2.553251073994761700e-01,-8.261252486967543551e-02,3.686646564815106858e-02,-1.034957215861811441e-01,-3.161645987092077253e-02,5.323140235349612531e-02,-9.856786747535014118e-03,-1.802908374032797800e-01,-1.631250553110079327e-01,2.347372132109876997e-01,2.943473956914591586e-02,7.693037723986863308e-02,4.473728494192904387e-02,2.744418465031248089e-01,2.285313635586155301e-01,5.456735393177043758e-02,3.879614945043922958e-02,1.812644513616893521e-02,5.669331081587336389e-03,-1.440646355235473408e-01,-2.107272461798750662e-01,-8.003886802876677975e-02,-3.589994666229208153e-01,3.292999064497369871e-02,8.869184344725523916e-02,4.869957708036617983e-02,-3.162422397249793904e-01,-8.952344197035418116e-02,6.337480573118930288e-04,-1.850871287534140153e-01,1.579840809335667784e-01,1.339495560562162513e-01,-1.971269784454960095e-01,-1.632180048728187893e-01,1.005526554996810651e-01,1.168625766470727523e-01,-1.851509830158668268e-01,-1.739783528685821534e-01,2.031879671688091582e-01,8.840902535321651032e-03,-1.211569728576950174e-02,6.877873638279420609e-02,5.260227203886721874e-03,-1.647819857535226806e-01,-1.388348818921992522e-01,-4.243904509570682881e-01,6.927083601430762683e-02,7.971536922194138314e-03,2.317218147310147192e-01,1.404921052970497519e-01,1.222083238947478390e-01,1.864988304273461350e-01,7.937044628962962312e-02,3.947049088379285878e-03,-2.310527901348110799e-02,-1.367124337591183736e-01,-1.448597397327278657e-01,5.387769844239455319e-02,-2.153124382143875026e-01,-8.575774291295246154e-02,9.361975404562690450e-02,6.679973461505157861e-02,3.084145749693136679e-02,4.673810099403271495e-02,-7.129052943317298885e-02,1.384998996999924417e-02,6.461069981231058745e-02,-3.689737253566435435e-03,-4.706014335839985019e-02,-1.365880542740725845e-01,2.878525235542959138e-01,2.949144420595697490e-03,5.394412554363761658e-02,3.052018071316994069e-02,-1.522525667245935022e-01,2.296689134536691532e-02,1.884755746890902917e-01,-1.093725541467465701e-01,1.266953049432815726e-01,-5.088060640490464637e-03,-7.594762096591509137e-02,2.405729392608073336e-01,-3.020380729279599150e-02,1.011961700204364184e-01,-8.627950283529174647e-03,9.593452019788864527e-02,8.748808092951190774e-02,5.893504197237613151e-02,5.289977344838325130e-02,2.902980708298646267e-02,2.034658627017236765e-01,-2.568410038571146137e-01,3.101882971256016835e-02,-1.218161860796377616e-01,-1.268136494984191676e-01,1.192456681253676043e-01,-1.409123533755324009e-01,-1.312191587196610554e-01,-4.302291462732836524e-02,-1.377181038313723960e-01,-6.436304801505944584e-02,-7.989231051538832340e-02,1.859245653289509359e-01,3.329327196058851773e-02,-9.984541367555115066e-02,-2.363046427483940504e-02,2.978906735462801270e-01,1.320148907948560657e-01,-5.137573343849529545e-02,-8.390686423945235839e-02,6.379139191875218273e-01,1.852887670168421042e-01,-9.671074148277644666e-02,-1.117381292300764495e-01,1.124246971319089600e-01,-8.403907598190424322e-02,-5.695936885846043102e-02,-4.202276951041528791e-02,3.798403210744888403e-02,-3.029303321313496153e-02,1.378349567633945505e-01,6.460534180716295816e-02,8.858739024997565326e-02,1.268375643021628640e-01,-1.434203365521778684e-01,7.579442064293413772e-02,2.138765858396168493e-02,2.288943985021849870e-01,1.089804265918860177e-01,1.260062022374562607e-01,5.664730549641227436e-02,1.269790590992533330e-01,6.623891946500110040e-02,-4.164988459414456674e-03,2.004313628223710342e-01,8.534836301842427253e-02,2.102524680324287798e-01,-9.697944086599748215e-02,6.035128648155006076e-02,-1.806947383829175524e-01,4.038430116072031645e-02,6.775221159534385029e-02,-4.031439991484129376e-02,6.574248790277874288e-02,1.675658974355261899e-01,7.821528248463609223e-02,1.181602456764431486e-01,2.770660233272639189e-02,1.202563685950951561e-01,-4.731090309626783535e-02,7.846828920447705691e-02,-1.640701317202023501e-01,-2.182360273506472048e-01,3.153692581462851363e-01,-3.091185964584493295e-02,1.451257028460231080e-01,-1.631240784210303552e-01,-2.509177877890943487e-01,-9.762842318247930487e-03,-6.650930005897937036e-02,-1.279915124960037121e-01,2.543239247775441747e-01,2.713626825668237208e-01,-1.572002246082387922e-01,-1.916522595797542222e-02,2.488405370356405397e-02,7.300689161267299998e-02,-2.096701289310783922e-01,-1.334423675194577885e-01,-1.372041098080932220e-01,-1.346129211322044661e-01,-2.827659915015772255e-02,-1.331138038739259621e-01,-6.614786660262064744e-02,2.397663574934251751e-01,-8.178598347622853537e-02,-1.017992026988394916e-01,1.026090536654390428e-01,1.432234348129670862e-02,1.462678143468437719e-01,-1.074344252464981692e-01,-6.390509564557896038e-02,3.160694344719167659e-01,-1.961322241751905504e-01,-8.536983917171997449e-02,1.514331161647656798e-01,1.130481817367746944e-01,-1.399250190143044581e-01,1.926600751997954372e-02,4.178153661053952972e-02,1.357943822289570390e-01,-1.346320897658567772e-01,-5.119387972506630330e-02,-1.586485762719158088e-01,-8.744120487862690194e-02,6.753058356922172524e-03,-1.937169782163948861e-01,-2.132028736042715644e-01,9.840236930726847797e-02,-5.009297550773671170e-02,2.277694268666550018e-02,1.424603363457642990e-01,2.299428011730387800e-01,2.873080576774125761e-01,6.770253414236164502e-02,-4.883230836442034595e-02,-2.527734007492862811e-01,1.021639980352751081e-01,2.119083819802559943e-02,-2.098197239565695871e-01,-5.037332926211100098e-02,5.602636051098828542e-03,-1.261323689965453410e-01,9.484499317618272363e-02,-3.535052299092011213e-02,-4.709130988661303779e-02,1.407840689872670858e-01,-1.826519776674908127e-02,-1.505206682871454149e-01,9.166958346515670375e-02,1.774596364672872961e-01,-1.978376042407502602e-02,-1.153543153851507019e-01,-1.499741168630861279e-02,-1.381030449245333191e-01,2.579218263598216654e-02,-3.040805035061019956e-01,3.856851159527878437e-02,-3.434638676601725615e-01,8.751714982379019125e-03,-2.122394191785826334e-01,-2.361927665032927115e-01,-5.366088032464032959e-03,1.544775862946303480e-01,2.223922744785269690e-01,-2.163657679446071291e-01,8.092597490919149761e-02,2.362765604425218768e-01,-9.895417514093846154e-04,-3.666157630285831609e-02,-1.656646756903439321e-01,-1.278207196561926551e-01,-2.503403778662381951e-01,5.019020886543705540e-03,-1.902193599732765195e-01,-3.582334244014878100e-01,1.239216645339926287e-01,-4.089986017516838990e-02,9.217233237881970742e-02,-1.445804501130888153e-01,3.463619866997137003e-02,1.512621569324904269e-01,-1.083409954015205484e-01,1.251771547342515334e-01,3.626938743689326478e-02,1.389715624535111105e-01,-9.018515265057455710e-02,-7.350837173015545289e-02,1.010757917962554348e-01,5.278833219830424139e-02,-1.890763006691810744e-01,8.731654400326097076e-02,1.681807818006231803e-01,-9.052250365771086216e-02,9.249189444082130118e-03,-2.823637460696282186e-02,1.976443192260173565e-01,-1.074296305668255005e-03,-2.510821808555768753e-01,-9.109718312637760107e-02,1.767949067638458771e-01,-6.295215931419476108e-02,2.000241548010692899e-02,-1.003448228621926924e-01,2.299158311028786372e-01,1.070843015502523643e-01,2.015707099113167866e-01,-3.624808475625245774e-01,-1.610817073890468132e-01,3.271285520458802609e-02,1.248110301113792772e-02,-1.953935962617280586e-01,1.475818954859024063e-02,8.608176142970926092e-02,-3.596867929724039542e-02,-7.794841311118260764e-03,-2.651752683520902654e-02,-1.042033764465729040e-01,2.019951455927958273e-01,-1.215919487524599052e-01,-1.140852577660445427e-01,3.703478920969153210e-01,2.408716722150923695e-01,-1.246758029414956476e-01,-2.513443667063386053e-04,-3.872583991703601458e-01,3.770649082492767007e-02,-9.038979711090495972e-02,-2.966764082383554491e-01,2.134100960131220248e-02,-2.270115542426142663e-01,1.222633094449654262e-01,5.404246903384979372e-02,-2.042047583891288265e-01,-1.855105343706102972e-01,1.445693233459423577e-01,2.791837303672923820e-01,-1.108708657906111797e-02,-1.782451334310453661e-01,3.953702075769258695e-01,5.334396736673421152e-02,-4.072170521303299373e-01,-2.296304432838501552e-01,-1.780688718412794525e-01,-2.616008005158495520e-01,-1.231112075223378443e-03,-1.402616781471772989e-01,-5.078349912897284213e-02,2.312448491080769386e-01,2.084373687075422865e-01,-3.228028280871062666e-02,3.048349907496622664e-03,-3.043296171018974872e-02,2.174298888273221153e-01,-9.470223813996007933e-02,-9.412336361508987555e-04,-2.377229651901692498e-02,1.544703397637484446e-02,2.602339494249018143e-02,1.401183457380666963e-01,-1.114325615981427153e-01,-2.314593214219325817e-02,-1.236436225146178430e-01,-1.397792171345686729e-01,4.849487567607154576e-02,-3.451123940091201103e-02,4.706567049793836804e-02,-1.329254102706409479e-01,8.035484452686047357e-03,-7.701098330675601455e-02,-1.711312708080646450e-02,2.498303567888060517e-02,2.007979256961400782e-01,5.429636012003606627e-02,2.010936495066315555e-01,-1.951116509641748487e-01,2.466705248298131370e-01,8.749623322536652370e-02,2.669411959686708302e-01,-1.116802108401848681e-01,-3.096067328780199301e-01,-2.354042310384472925e-02,1.260164226862673653e-01,-2.234386033774040659e-01,-2.424104507098840677e-01,4.195132230219677377e-02,3.053370800987069769e-02,-2.005424731897516646e-02,7.348210169116346779e-02,-3.282071542795271524e-02,2.181120937017276273e-01,-1.345049465347223083e-01,1.349119343517481417e-01,1.821605053802214103e-01,2.108939183015168806e-01,-6.749935179043153877e-02,-1.283877589536153718e-01,-3.701564509046441354e-02,1.161028053036423577e-02,-1.079792628984266312e-01,-1.525477102078537373e-01,4.728717385140573937e-02,4.909851377213692025e-02,1.743494711483985606e-03,1.081813245676448848e-01,-1.547791809512765460e-01,-1.041622407270423600e-01,6.760353336794215628e-02,9.478606119472640645e-02,1.141141791336241357e-01,-4.762228733166430639e-02,6.446599584106502134e-02,-1.136771422893557426e-01,-2.061738639887750468e-01,-2.187014238835429114e-01,7.476577930424974094e-02,-1.736163783615023160e-01,2.446045574566090008e-01,7.994744860076711049e-03,-1.502312883129745535e-01,1.107181681325555139e-01,5.104219802206452078e-02,-3.712250233283556633e-02,1.707466602438675318e-01,-4.346065465333198707e-02,-1.192539310081346116e-02,-1.912100588037295434e-01,-8.436056823250169534e-02,-5.823688672328831278e-02,1.556826552244851836e-01,-3.265764601233132058e-01,-8.606716068789260765e-02,-9.751200882630259303e-02,1.399469993781283228e-01,4.153224618292364334e-02,1.203417416662148735e-02,-9.460737969640455047e-02,-8.005830581168438265e-02,-3.877347024675176224e-02,2.926855357697396090e-02,-2.414516813083285585e-01,-6.377124778318264686e-02,-1.140978415358495229e-01,2.286119697232365244e-01,-6.978621808448343122e-02,-3.900854925385586341e-02,5.654339150235671713e-02,1.419615619647568439e-01,-1.940308093018629568e-02,2.233725210877282596e-01,1.316826696834040578e-01,-1.152626712337927323e-01,-1.495797813945715926e-01,1.088347140250368744e-01,2.222314484664822953e-01,-1.523752094553636471e-01,-2.146026669053632818e-02,-8.142765684684135502e-03,-1.260563696146045076e-01,-1.298890019606515345e-01,6.570902859608783453e-02,1.809173819789598389e-02,-2.425011603006078098e-01,-4.398655284948878308e-02,-1.878480670939392883e-03,1.097552948532673905e-01,4.401907723969318564e-02,2.912521049430137898e-01,-1.075306643885446112e-01,-1.177366613597225636e-01,-5.309374517456644238e-02,-1.157180219956413236e-01,-2.662694857469698473e-01,1.035162547050001158e-01,2.911440165077295791e-02,1.595507401366735856e-01,-8.860266163546940202e-03,-7.094861718946461615e-02,-1.968342195008379591e-01,-7.634784395436523818e-02,1.590029667847349670e-01,4.365725775789960905e-01,3.257290237718390991e-02,8.291354225020254598e-02,9.870964528647428737e-02,-2.283796173270249419e-01,-8.286560528555335370e-02,6.066018125439930769e-02,5.276996618049104026e-02,1.572859618711777707e-01,-9.078620662770406358e-02,-1.818499986212121847e-02,2.533135907820642241e-01,7.101008035091795588e-03,2.084799927619644666e-01,3.021821733095600981e-01,-3.034267692178681600e-02,1.112162539043879544e-01,-7.471379021274159038e-02,4.939229601285247823e-02,1.524682827846986777e-01,1.975394406436213612e-02,-1.390792734551914434e-01,-9.201056668065216160e-02,-1.387353425048195449e-02,1.475782540048280744e-01,1.611579473983947020e-01,3.644773216293462764e-02,-4.407054283978445453e-03,-1.380226670269713851e-01,5.530050349126869325e-02,8.957761243277524710e-02,-1.947272492513849318e-01,-1.361795523391576626e-02,-2.272029634414144891e-02,1.921093649756472621e-01,-1.121038295700117898e-01,1.190413173808885783e-01,2.042107056116051755e-01,-4.714547663874898986e-02,-7.795663720989194634e-02,1.544615722170780692e-01,-7.469918826584603933e-02,-3.244880115553300248e-02,1.003976715635509637e-01,-1.398108325842457736e-03,-4.323621886314323731e-02,2.882520545048224830e-02,2.987772003213548175e-02,-1.059207821575399722e-01,1.086289390332854377e-01,-1.109321992532266432e-01,2.247807432882227840e-01,6.875517734092773114e-02,6.105784077368390378e-02,-9.345141145064196631e-02,2.363585016249398485e-01,-2.146285648530440182e-01,7.451110429002759904e-03,1.042055617285100044e-01,-9.859776328352040653e-02,-1.182126575580678823e-01,1.553379375134707752e-01,-9.054638324875666222e-02,-4.725352753812542966e-02,1.185537837038350695e-01,-1.475194543286048945e-02,9.692339099577954031e-02,4.731743360073962373e-02,1.887760874286496249e-01,-4.793120537783922969e-02,-1.993139397595591542e-02,-1.373051536397180694e-01,2.068328204545042959e-01,2.518030464791917028e-02,7.641787716316214563e-02,-3.815805000181943935e-02,-1.325227743909529743e-01,-1.872955735826284940e-01,-7.077825267238320450e-02,1.229576030475883347e-01,2.233307565984212761e-01,6.668308348570856081e-02,5.466914967760631849e-03,2.514155418860410385e-01,-2.316605862236824007e-02,4.061020188550760190e-01,5.022262724923274302e-01,3.223595102560792430e-02,-1.027399213368092486e-02,5.177365871351259641e-02,2.072276956146501259e-01,1.501695758533095060e-01,1.669041698129714035e-01,-2.018409666363532862e-01,5.226047831953953976e-02,1.904073844311499619e-01,-7.435116327660078184e-02,7.010528393630660604e-02,-1.354086587673423991e-01,-2.765719495161365060e-01,-6.023370377304667657e-03,2.295575403110517582e-02,-4.877718741043518547e-02,-2.002581910966073353e-01,1.000875882860706584e-01,2.058550547964853039e-01,1.093844533808791680e-01,-1.357629230709910262e-01,-3.754997123894342897e-02,8.845798575401783281e-04,5.637863965597158557e-03,6.609672788549028621e-02,3.226773459798750188e-01,-4.150027533686598269e-02,-1.218978255986785247e-01,3.457889330476066059e-02,-2.134331685153485411e-02,4.529658368715264172e-02,7.323658258075245453e-02,-1.844387268386092626e-01,1.381633523689767273e-01,3.446376973646855107e-02,-7.099589631441428905e-02,2.958568551234641020e-01,9.872785941519281183e-02,4.862160852246329851e-03,2.130373602154738144e-01,1.313140423820268743e-01,2.856369892310080261e-02,9.397439679073966989e-02,1.307177979183820338e-01,9.277984331042615773e-02,-1.684742317716076132e-01,-7.559150549381780937e-02,-1.147553076713843032e-02,7.243865178263682314e-02,2.665929746474410278e-01,6.184693937056921428e-03,-3.147291843102754949e-02,3.415792838055814462e-01,9.227503010301198183e-02,2.434699474626726146e-01,-2.044418134284872735e-02,-5.216454630896943945e-02,-1.164502939094136241e-01,1.755331919203894364e-01,-1.498186292508564554e-01,2.301379582526535683e-01,-1.522498807657668429e-01,-1.276857275374468637e-01,-2.408975663255384647e-02,2.068981026339484358e-02,1.642351538339026640e-01,-7.417123278184048485e-02,-3.528037735480120118e-01,1.718563506207843317e-01,6.523714234726578354e-02,-1.582034793652555560e-01,6.301733936630610211e-02,-1.771456712304866898e-01,8.054500625089652810e-02,1.406634650568353850e-01,1.437133611834064406e-01,5.078471082015385829e-02,5.375871787535427271e-02,6.008596657297025911e-02,-1.911308429420713606e-01,-1.467497955885458116e-01,7.219671569805744676e-03,8.052124792593212677e-02,-2.272123020952084849e-01,5.685547238628331501e-02,6.727895597359948021e-02,-7.332264768266959221e-02,5.967518561811099159e-02,-2.323778205231393224e-01,-4.227102508921350837e-02,3.239679604263830948e-01,-5.348134986897746385e-02,-1.817930640432396938e-01,1.261894610694906105e-01,1.325868912124391341e-01,-2.815200533141743247e-02,1.217032004173472168e-02,-4.960052385583103157e-03,-9.994538496852893583e-02,8.612513077806892292e-02,5.768724102120244973e-02,1.239406038791880313e-02,-1.138246868061657258e-01,-1.348835027558402955e-01,-9.767500219526584204e-02,1.734368156431277674e-01,-1.101129568097556841e-02,-5.208756248507476899e-02,1.146703184965176675e-01,9.990186057050157165e-02,8.515106693679881655e-02,8.810599864827017846e-02,8.289496565866980374e-03,-2.797489190262406403e-02,3.068914421942868162e-02,1.943967111588438545e-01,1.742872728857820241e-01,-1.460180051496349773e-01,-1.874712015526384667e-01,5.696369546434659065e-02,7.156741024006606222e-02,1.810678103593322541e-01,1.858352823092874750e-01,-1.117005920022838550e-01,2.107261537950210206e-01,-2.696878029979080799e-02,1.382093126515557616e-02,1.401561323283634884e-02,-3.135014950294420788e-01,4.390436687930608650e-02,8.925357059227152778e-02,-3.659898550121138544e-02,4.619290273592431550e-02,-2.334823175358182179e-01,-3.673244420836675045e-02,-1.173330490779148916e-01,1.089363702848983040e-01,3.583842865935693567e-02,1.168335208518365455e-02,-2.515759869117462251e-03,-7.881728653376074770e-03,9.491335775013319542e-02,-8.776817055330063400e-02,1.096324226607903879e-01,8.636599942331424362e-02,1.194825430415205336e-01,-1.838655690749158370e-02,1.245557019862760240e-01,1.164857025127019469e-01,6.136687912665142464e-02,1.286940845147933610e-01,-2.772305443300761632e-02,9.092320738888839959e-03,1.511670678981488214e-01,2.181461479572368023e-01,-1.482563682226049062e-01,1.101114536245142994e-01,-1.094044820182189792e-01,3.743626008028717866e-02,-4.238270031488384354e-02,3.697601400703696972e-02,-1.341675500435702238e-02,5.581445510928556564e-02,8.138157899780058824e-02,-1.840847162735564577e-02,8.326344953647023261e-02,-1.235045271517594412e-02,8.488905561945148115e-02,1.341525493242863298e-01,3.291561831327773080e-02,3.971837357192451595e-02,-1.638650951071972395e-01,-6.078193789112976836e-02,-4.585854791030895272e-02,1.341148521417883386e-03,-1.235951787544212199e-01,-1.136994979404927358e-01,8.696414248515102127e-03,3.718963666655517725e-02,1.150267027625851840e-01,1.596827525974702233e-01,6.923295988678435098e-02,-2.036608754714274924e-02,8.557919587220536028e-02,-6.342756489123084485e-02,3.778888266005223789e-02,1.954047028892269555e-01,1.637645031528245365e-01,-1.383143029125965401e-02,1.134434803821779136e-01,-2.238459211734774093e-02,-4.510349110348851193e-02,-1.445266268368155249e-01,7.009612624617211907e-02,4.700118835184452504e-02,1.148565116524294105e-01,9.699932467889883780e-02,-1.354492344918229937e-02,1.027172709116338095e-01,2.044801853976671302e-01,-4.075352277883985130e-01
