2.826450938713485628e-01,-1.740928672666800792e-01,-4.984118062922289830e-03,-2.002702550979393592e-01,-2.554013089895934008e-01,-2.999486797332561738e-01,3.030654229398597188e-01,-1.564694926738689068e-02,2.579360007134769428e-01,-2.167488174729478856e-02,-3.111851624963538065e-02,-1.658548943550508248e-01,-1.877166105099478677e-01,4.697427845518257344e-02,4.124701464397916018e-02,-8.457330671096097152e-02,-2.543347196883653100e-02,3.600225420277737565e-02,1.482474942814805408e-01,1.575958999974083063e-01,-1.264536455891469013e-01,2.243102998451854124e-02,-6.939630080106029553e-02,1.461174728800083422e-01,-1.795329126903013051e-01,-2.176828373413030038e-01,-2.511639849560071136e-01,-2.665071545313461576e-01,-8.273087205059326266e-02,-3.885159998902211476e-02,-4.467388682242667136e-02,1.419187948849302272e-01,-2.966977295902106793e-02,-3.991775633643718235e-02,1.131294158775707215e-01,-2.340005187046658719e-01,-3.463741862450585018e-01,2.221921431918954803e-01,2.758423495438623863e-01,2.449636169132593244e-01,-9.130322400490760437e-02,-8.066264865210956425e-02,-3.162233538625314894e-02,4.148433940978716802e-03,-6.291160079034199826e-02,-1.635130774474970461e-01,-9.455132475995298158e-02,5.236262967942309499e-02,-1.555153038015000544e-01,2.047882799192693171e-01,7.734892406449553337e-02,3.044005724259387161e-02,-2.569737888832263756e-02,-1.554547909244387849e-01,4.458053060479254259e-02,-2.642876957176203412e-01,2.253177370474185315e-01,-2.328244016188614485e-01,-1.215864648811578047e-01,-2.830091105387802508e-01,-5.713251959200013608e-02,4.409101569143364374e-01,1.858129916607102750e-02,2.313064579388406927e-01,-1.451515406546146914e-01,-2.980448603304420782e-02,1.573053360605074780e-01,-1.673678972624705330e-01,1.661331774705137043e-01,-4.365871961493360265e-02,-1.053405784561347314e-01,-1.762878337474778345e-01,1.184032826824422124e-01,-2.432713739144183249e-02,6.601279672935327081e-02,-3.402008183769550387e-01,-2.939921827708332769e-01,5.958564026422937671e-02,1.874797373627118680e-01,1.418777662637460690e-01,6.481863634629850268e-02,1.033061278357980811e-03,-9.171510285500962534e-02,5.191338610295533063e-02,-9.882386360220302146e-02,5.577727690320180565e-02,-1.905094461655769122e-01,1.003265322474480511e-02,7.558718282697468593e-02,1.621451656111686235e-01,2.244534628901638518e-01,1.114244337100956384e-01,-4.589315144987535927e-02,-1.653453603815370210e-01,-8.639050367687273191e-02,5.912499872313110860e-02,-2.678960793151354824e-01,-1.220394468130685250e-01,-2.462211253916007092e-01,-1.083443511487097582e-01,-1.323045861868579476e-01,3.471464376202625102e-02,7.196992603444028747e-02,2.393114556919585245e-01,-6.293681803717589285e-02,4.685443584759989982e-02,2.216035718617768435e-01,-2.841631941517493987e-01,-2.376556746715251522e-01,1.878209938460665140e-01,-4.241459945732254516e-02,1.511900894536208351e-01,-7.509290615548684655e-02,-8.174120072558782590e-02,2.915918583196969519e-02,-2.869986381057119673e-01,-4.675381944909386134e-02,-2.745713817328538364e-01,-2.943318998649121707e-02,-6.840205357939081743e-02,-1.273416751862353202e-01,4.098949504209338512e-02,1.510461013343204206e-01,2.272262291365195475e-01,-9.088946805599368295e-02,3.074907904872365913e-02,2.579377432727905095e-01,-2.421803398704650001e-01,-6.180623107159963908e-02,-1.349820626474844687e-01,-1.515528207380654746e-01,-3.363920157464513894e-01,-5.585521104687338895e-02,2.895010626232195072e-01,3.706344514413789648e-02,1.822428913438194353e-01,-1.458279678852341665e-01,-1.540634031458594511e-01,1.078582641213851057e-01,-2.803447595710969464e-01,-6.470078158505190857e-02,1.089113303880743788e-01,1.655793514701546509e-01,-3.489943385865555692e-02,1.344839159269826945e-01,-7.096284236540878476e-02,3.303983995773575322e-02,-5.365548634171708742e-02,-6.059626196541160331e-02,1.034547587063764928e-01,2.124453708140463248e-01,-1.108550701305272973e-01,2.118326152530819115e-02,2.626226989284711766e-01,1.886629429374546765e-02,-6.740181432162632713e-02,-5.240521476383600691e-02,-4.440647484541883350e-02,-2.015194905590945162e-01,-2.135529528840768299e-01,8.254142582864792965e-02,-1.551963424199532537e-01,8.039831204379495333e-02,1.737255628302066673e-02,1.849993861132265618e-02,-9.099595585981756773e-02,2.035179972194132644e-02,8.941127956547291131e-03,7.605194341546762937e-02,-2.719951294361138139e-01,-1.381328659264541847e-01,-6.261264542930461419e-02,1.589971024164200941e-01,-8.532290306255260748e-02,5.138192538422765160e-02,1.699074431079871106e-01,1.701932540969101348e-01,3.610895938226522245e-02,2.251293750921289916e-01,-1.451193992941236799e-01,-2.590595742499143261e-01,2.329767636146111431e-01,2.090643694686574461e-01,1.683755330388410354e-01,-2.269788108510113755e-01,-3.470586905558161600e-02,2.099953760830976582e-02,-1.213222537441781684e-01,7.294378609657395374e-02,-1.036755643459872506e-01,-6.196275254589141135e-02,-2.754438407012040069e-03,1.471374486159819917e-01,1.911630734877804438e-01,6.072315466248930094e-02,-2.142227508971475403e-01,1.513665545463233064e-01,7.175022449187963558e-02,2.456114777714991371e-01,-7.637040641986635181e-02,-6.586901630631963878e-02,1.461942906586158504e-02,-9.674624037924094144e-02,1.153779193802149383e-01,1.454211088198960160e-02,-6.950375814293810461e-02,-1.851882583099279667e-01,1.382370987858760336e-01,-2.494639785411377764e-01,1.630031757798320324e-01,-1.740450005568211153e-02,-3.305232310786016536e-01,1.301458152770645360e-01,1.575708559400655073e-01,2.994198611542472216e-02,5.902761871045258263e-02,1.374189916934802080e-01,-1.072888130255958833e-01,1.505123125240759308e-01,-4.682769742499631738e-02,2.671219291604564061e-01,9.517832194139053126e-02,4.301147763091801579e-01,2.608611805327086253e-01,-2.889857320832716625e-01,3.551326272946753182e-01,-5.513201585170770386e-02,-1.166947301162251094e-01,1.978661451485179065e-02,-1.176896096839524786e-01,-2.248600626004980396e-01,-9.804067291280037233e-02,1.703834986027763509e-01,7.223147546684877129e-02,2.775090004951276043e-02,-1.374332260640421799e-01,-2.105802960566625082e-01,-1.149417364496307242e-01,-2.387599643084005463e-01,5.444932977000016550e-02,-1.005016752069133601e-01,-5.180671406039977916e-02,8.821532107474336706e-03,-2.250689732332071535e-01,-1.705771261518403692e-01,2.158878823798209348e-02,1.248717758249908022e-01,1.854718345500906418e-01,2.038542259133534484e-01,-5.672499647405655765e-02,1.363793680651457785e-01,-6.264070377308317283e-02,-3.011957430694822690e-01,3.326396218130272531e-01,2.796011434809524410e-01,-1.052224060019514573e-01,2.520442661879333801e-02,1.226220833114743808e-01,-4.168426371504988653e-02,-1.850967974298483587e-01,1.696241821846863340e-01,-2.257235058745990508e-01,-8.727973893481377754e-02,-3.976986094039697966e-02,4.126734879783519605e-02,1.252474816232165833e-01,-2.790724099912507070e-02,-5.069299352494789634e-02,6.361098095909276107e-02,9.169632192707355411e-02,2.562848636813477854e-01,1.149321189686741407e-01,1.112467567358924221e-02,1.799995601749555529e-01,-3.319985722627154939e-02,6.326191510753181868e-02,6.001491276540034392e-02,9.693053511564145297e-02,-1.743946151263640540e-02,3.431075869331737249e-01,-1.090745661374895731e-01,-6.682136201738582415e-02,3.879892129222539676e-02,3.326472548715871808e-02,5.851630532800448231e-02,2.793849161628874089e-01,2.132269345637259617e-01,1.339666129359196600e-01,-7.088643264804241062e-02,-8.729720251648483142e-02,-5.355883674402413253e-02,1.715195182385423692e-02,2.062213979464050384e-01,-4.280499032351956640e-02,1.983925350468659921e-01,2.558101526694035455e-01,-1.399526160504304950e-01,2.663382260625269948e-01,-1.605381238437093572e-01,2.255144185996450432e-02,3.096130427338144031e-01,-2.226110324146734487e-01,-3.118607816535497457e-01,-1.044245290324205544e-01,4.654238210402361631e-02,9.246545360321201112e-02,9.433275036255754642e-02,-1.193500149167125712e-01,-5.418697785938427630e-02,-6.688951613020541198e-02,7.974195637815668924e-02,6.495658999617733020e-02,1.371314046973917677e-01,-4.340561290806239057e-03,2.850361196989422141e-01,8.441239379731459158e-02,1.124297832445995265e-02,-6.291344569067475190e-02,-1.863895818335635848e-02,1.345406655315580235e-01,-1.850454271274439705e-02,-9.132198391353120448e-02,1.460297764866953785e-01,-9.104811797919208638e-02,1.055825143426295659e-01,1.324618270491718652e-01,1.035374618597256352e-01,1.312228869964374711e-01,-6.359593821765542609e-02,1.850509500986144695e-01,-1.042539491901687543e-01,1.523911380064101560e-02,1.301686213855947905e-01,-2.470808586490867015e-02,2.429049222769787825e-02,-6.724367546198492529e-02,-1.474695579242661925e-01,-2.069251655034181625e-01,-3.366151488780940171e-01,-2.611880977641509172e-01,-7.815864403307784536e-02,3.650695861788151309e-01,9.346005616686785256e-02,1.113735177307634550e-01,-1.140513676041787772e-01,1.432324506533227126e-01,6.598144790188958941e-02,2.659733613011911468e-01,2.181741040542390375e-01,-2.583504526071609408e-01,7.144510076543728050e-02,2.666244857234161825e-01,-5.901175937847387247e-03,6.325475419423595702e-02,-6.242332504612024824e-02,2.436355459988315264e-02,5.326258617057129732e-03,1.838417322833306444e-01,1.257692966701508541e-01,1.695697927417484097e-01,-5.328540132153303591e-03,-5.134986764620960709e-02,-2.776663296475777032e-01,9.500194485789964505e-02,7.629931576786598557e-02,-9.616941957713831795e-04,1.307566621988663635e-01,-1.288676744897711834e-01,-8.881910491740602209e-02,2.058833653785052120e-01,-1.415351471874977674e-01,-2.587186957648817450e-03,1.714971695301101551e-01,-6.708855020768622612e-02,4.834520007330536488e-03,1.049012679498351752e-01,2.598834617699802840e-01,-6.886051742998286485e-02,-3.184417726001814025e-02,1.701031639084060396e-02,4.850250675868082034e-02,1.986543112363510846e-02,-1.263559997342033059e-01,2.852028052722626120e-02,8.546818096394070974e-02,5.242499317635361533e-02,-7.868840601107118804e-02,-6.449617523045225731e-02,-1.665728008276445016e-01,-1.153989508513200701e-01,-1.020970455460617210e-01,3.486314834657487371e-01,-2.888049427982915945e-02,-8.793783290975497324e-02,-9.609569355957320314e-02,9.356295537795858430e-02,-1.275162580182745142e-01,4.376592484094069674e-02,2.449611411511730397e-02,2.741680664770491105e-01,-7.576167677022560554e-02,2.571277001169120641e-02,-7.601946422784228163e-02,6.353774773953736743e-02,1.646647093899208381e-01,2.972810818872280783e-02,-2.627404628275273879e-01,-1.010256924916129451e-01,1.144045196936519931e-01,1.540661149542169039e-01,-6.311954561973923128e-02,2.140407290314927102e-01,1.822248058400208481e-01,2.049696260883313303e-01,-1.365284173985312488e-01,-6.734709939243883892e-02,-1.318402285943722219e-01,2.097115537013147513e-01,6.453011097148794728e-02,-5.627720522437341943e-02,2.201194580641048504e-02,-2.237865823379648483e-02,-9.688641578471776650e-02,2.631305280015292999e-02,2.309205073054887425e-01,-4.066843743276749717e-02,-1.018023293493812709e-01,2.009901031385576686e-01,-6.469604012068029542e-02,1.021815518429518982e-02,1.925667323547423648e-01,2.786463155654266832e-01,1.391459200909365701e-01,-1.935833201143556392e-01,3.561612810068374990e-02,8.021705140610753404e-02,4.670400286831604547e-02,-5.518169281344124932e-02,7.920271852482839436e-02,1.242397787632741890e-01,1.001421087634623522e-04,-3.127526772453675941e-02,-3.042730552027633761e-01,2.274755660926173761e-01,5.800074965905700763e-02,2.448684340709036261e-02,-1.565783428474762373e-01,1.362091192261558337e-01,-4.212101365904567796e-02,2.515948998451437713e-01,9.887642518522332669e-02,1.121354754902363082e-01,1.529024947224491282e-01,-2.632029321686343501e-02,1.652417781896798887e-01,1.226515811044634474e-02,1.101442618179093030e-02,5.568935231652460960e-02,-2.237399745615999969e-01,-1.521001944538339090e-01,-6.669564706758339401e-02,-9.566178509785772111e-02,9.049548100362211911e-02,1.974247027652836217e-01,6.651352637433263770e-02,-2.112336061284800781e-01,5.418410007875747864e-02,2.131835779483046422e-01,1.107961006186784780e-01,-1.364166837128513443e-01,6.163969196573443332e-02,1.254645131474708686e-01,8.637190694589644280e-02,1.598290351694466038e-01,-8.023950502315817246e-02,-5.965857765107240862e-02,-4.987621334855816407e-02,-1.582239749766758408e-01,2.579973434499801405e-02,-1.382065230861562743e-01,1.015822769672299758e-01,1.819331258822070099e-02,-2.837851691865131767e-02,1.190242675747910372e-01,1.894888467731436765e-01,1.323346428561421317e-01,1.672492042075408580e-01,2.771396616750567143e-01,1.725248997335590562e-01,-5.849206472311874183e-02,-6.621742305109770688e-02,5.457042313855044180e-02,-9.998989209129084677e-02,-1.013568420653657570e-01,-2.904087886550510977e-01,-9.029788666517468698e-02,5.180362561390528670e-02,-2.764315811755199692e-01,-1.679302186190421708e-01,1.932623261822484506e-01,-3.045152216570669035e-01,-1.869042912793865419e-02,-6.304165386427702800e-02,7.466115046915526576e-02,3.114179770962494445e-02,-1.970338002261237398e-01,-1.393432718339422949e-01,6.969717887515242127e-02,-7.392564247909534647e-02,-8.857630450916337272e-02,7.423356309293566158e-02,-1.826715070641473648e-01,7.097991841686800141e-02,-3.679967867683451438e-02,-1.398202085970613739e-01,-5.992131002337205276e-02,2.700857879043471604e-02,1.642769979049005236e-02,5.437172996475040515e-02,1.354870021178155304e-01,1.132119144434711594e-01,1.154147478194599286e-01,1.360834385652823497e-01,2.468984256161441959e-01,2.399860633162908541e-01,1.754037516785108552e-01,1.624591826966178820e-01,5.516856537519212317e-02,2.082439535212843307e-01,4.859730053867798716e-02,1.377680866827347972e-02,-1.445394667340274830e-01,2.191491705649241048e-02,9.785951466811906863e-02,-1.363493396179469297e-01,5.497150502439807768e-02,1.678854564921115344e-01,-3.008505379754287667e-01,-1.586172156605821781e-01,6.256488515504574077e-02,-3.037020431508666296e-02,-1.533024396170931392e-01,-1.373713076089418950e-01,2.035749092606639887e-01,-1.329961675453733005e-01,-2.128784084027512957e-01,-6.148034023232541723e-02,1.111125012837373971e-01,2.074353689745080942e-01,-1.584450050408975907e-01,-2.565121341796496729e-02,-2.646787329953028678e-01,1.418355884521621535e-01,5.104834659808397263e-02,1.217383793134130809e-01,1.531497908578465517e-01,1.102815049873430431e-01,1.047798510021950708e-01,-9.532122774848758584e-02,1.053327973722755634e-01,2.151041339747390146e-01,2.255341540302883627e-02,5.794969320835925003e-02,-1.785730045669177771e-02,-2.350212406437657553e-01,2.641684213714927121e-01,-1.049803405161735398e-01,-6.160918271059585838e-02,-1.596411179391796775e-01,-9.188379961457311673e-02,-7.934422852727295028e-02,2.287928978150088888e-01,-1.165102133480333674e-01,1.269931759838887619e-01,3.508829279642664001e-02,1.135135154282817666e-01,5.645226076042417912e-02,-2.154600056460168334e-01,-9.682447091566927233e-02,1.151900068156462287e-01,5.239317470827645901e-02,-1.530695303127006801e-01,-3.119802176651745862e-01,-2.594964356944195472e-01,2.049181483352868482e-01,-1.645888222829572020e-02,-4.019847705936208104e-02,-1.405466396654884986e-01,8.103916973755688480e-02,-3.020967773595860661e-01,5.205657281356765309e-02,2.025280720486539315e-02,8.990439751272917557e-02,2.805221003962554693e-01,8.253655600984342866e-02,2.472501765226251258e-01,2.198079058180384127e-01,2.042928941058881065e-01,-3.372459141440152519e-02,2.186186371817327445e-01,3.290936695478484386e-02,-1.249155712303951227e-01,-1.286897047643569547e-01,-7.096739778412475275e-02,-6.077836992932805771e-02,2.523790916116490021e-02,-5.357403284333168980e-02,9.578927753184776628e-02,-1.059037571562048141e-01,-1.054042844477862950e-01,1.254863245555686360e-02,1.217293196805302874e-01,6.593537376523980753e-02,-9.073157843521306720e-02,-1.824986704361513112e-01,-3.889718807102213183e-02,1.288697801242177088e-01,-1.895004518426101070e-01,3.528366011929331969e-02,-1.795906508819359315e-01,6.761374311083320765e-02,-2.246917259194760319e-01,1.502439247815108847e-01,-1.407759255913974827e-01,7.433953520423992878e-02,1.973101240600091677e-01,2.325447104642253959e-01,-2.207113370574887573e-02,2.628602438110171913e-01,-2.353031086840837172e-01,-1.912850649024776528e-01,1.131290295746595898e-01,8.919491342587163030e-02,4.182488568815730112e-02,-5.257935209166313822e-02,-5.632977456303348007e-02,-8.495297749694524780e-02,-2.234455698123999356e-02,-1.657357819876038862e-01,-1.409597864200883843e-01,1.055610512351731894e-01,-7.350812979622136853e-03,-1.524246458641342339e-01,1.750747031720625291e-01,-2.098191958983242067e-01,-1.186471921823200812e-02,-1.393939470836773609e-01,-1.346894591043524547e-01,-8.404363213015435263e-02,-1.868980957075459526e-01,8.770529403196916651e-02,1.007311836413088413e-01,1.404012086494219047e-01,9.713618390295745975e-02,-2.371635842087650714e-01,-2.133903900885792404e-01,2.155367246421505678e-01,-4.915321695254569467e-02,-2.035447619800419550e-01,-2.329295792766780671e-01,-8.703552920219970179e-02,-2.883874568999448829e-01,8.128546986313255063e-02,2.325937632437224609e-02,2.209296756830490815e-01,8.916526874667768041e-03,5.388890811159940258e-02,2.372779632417673090e-01,-4.933357147449070335e-02,5.460711591983796742e-02,-1.847474890224750921e-01,3.816447742201849874e-02,1.432136901837084142e-01,-1.110955586053282984e-01,-3.700057178918453316e-02,1.531625489057522084e-02,1.513169107586840312e-01,4.518303484542443571e-02,4.470364936808075146e-02,1.235425315935000656e-01,3.121155307642645149e-02,-2.435510157592660208e-01,-1.277492218734836427e-01,2.516685148072152489e-01,2.152906307929073337e-01,-9.471621024948520540e-02,3.402401898368736383e-02,4.914192408528077205e-02,5.957905536524286255e-03,-5.931130888419381547e-02,-1.190498203996788740e-01,-2.114571623131364375e-01,-2.905188960084316777e-02,3.052087387944084698e-02,1.799335484131706075e-02,-9.967423343590023355e-02,1.416322465924277629e-01,2.228457487580960128e-01,2.744236968934807633e-02,-1.479258431402939722e-01,1.372992489347287515e-01,5.715372040455383301e-02,-1.129084637705898425e-01,2.056295656328664123e-01,5.022234219180048663e-03,1.274932051150798884e-01,-1.476578452823871235e-01,8.264690281629892554e-02,2.658433126542341166e-02,-1.474631887473553393e-01,-5.492973148699083902e-02,-2.754918424222177475e-01,5.687842801560620554e-02,-1.048795445853381060e-02,-6.659547355843299654e-02,1.000801308526850786e-01,-8.223366761802813896e-02,3.546108910056241809e-03,1.101077193356145290e-01,-1.360792156699087707e-01,-2.668234786567481587e-01,-2.161483452367859645e-02,-7.300699449363162730e-02,7.612195458824015659e-02,-1.483824681778898036e-01,4.065254141388304626e-02,-1.498681620537571368e-01,-7.862480500145789530e-02,1.255999085305965768e-01,4.930030896782811034e-02,-9.485350623112683011e-02,-4.489313254802829167e-02,1.396100289432943287e-01,-1.554600641763336996e-02,8.376601171947591074e-02,9.073684845042477576e-02,3.008363692358300145e-01,-5.869287679265478008e-02,-8.046754432092789733e-02,-3.126929927991504987e-02,2.608540709297952481e-02,5.612456528189489757e-02,-2.040725922296393047e-01,-8.580671861932270827e-02,-2.164096914544811831e-02,-2.171730873507353998e-01,1.057701682015694949e-01,-8.083061883419066784e-02,1.884835627488850029e-01,-7.059971003727479044e-02,3.126124713641383890e-01,4.070962606425141544e-02,1.304902514915111944e-01,-4.344132529042862151e-02,8.119933801489452596e-02,-1.366794641042988756e-01,-3.752346453330100695e-02,-5.667780832346422555e-03,-8.221788183582720566e-02,-1.291762018455014371e-01,7.829514274351473402e-02,-1.577084350196068796e-01,-1.620649412189861804e-01,-5.672650653038641133e-02,4.383200651117281216e-02,-1.099083295482671391e-01,4.349089158306533587e-02,1.807099132136277819e-02,-9.275591521029541431e-02,-2.301633759825274725e-02,1.938791121586594390e-01,-2.545649070089656477e-02,3.185401427706009425e-01,-9.121261206319933312e-02,-2.337222864516949258e-02,4.694684809895011135e-02,-1.297054270558746503e-01,1.514094109037395809e-02,-3.410353186201872579e-03,-1.950715603536025688e-01,1.730141431957952503e-01,-2.289595269044259612e-02,-3.764333542508488395e-02,1.211182365197053801e-01,1.825135089696180990e-01,-6.747681876502553688e-02,-2.065096484034678326e-01,-5.662566000112482373e-02,-1.158407011717915019e-01,1.935697474180032157e-02,-1.786155493856045884e-01,-1.478554555449904939e-01,-1.382301001791896335e-02,-7.476730778611508088e-02,6.812027235388697088e-02,3.807448119311387935e-02,4.798347006886051480e-02,-4.519346043844330724e-02,-1.502379468130207382e-02,-8.010106208546260986e-02,2.854955612400004727e-01,5.091183606401278317e-02,-3.773377544014746565e-01,-1.454868076267977206e-01,-2.572713008782581134e-01,2.365205598256954500e-04,1.298517761340328529e-02,3.759397379454311738e-01,2.789812420565488393e-01,1.385344474690625993e-01,1.991975590804636875e-01,-2.078216692684318329e-02,7.426697499351328502e-02,-1.329874718702633019e-01,1.792188254850355378e-01,-8.801431587313331834e-03,-3.832480139026787219e-02,-1.142495935005724966e-01,-2.246839228034198943e-02,-1.095555012661073996e-01,1.940622358900279121e-01,-1.435846495047983680e-02,1.492922279789023199e-01,-1.298148996608921094e-02,-5.139491713751695445e-02,5.961564069231554269e-02,1.239924781209255367e-01,-8.566167888305670219e-02,6.546465243536109258e-02,6.905410760181571184e-03,-9.737937324077422518e-02,-1.047863091686592196e-01,-2.949146025746924703e-03,2.686765675697128444e-02,-7.247041883255624095e-02,-1.049160187175735282e-01,-8.678369623484943896e-02,1.234580562607979215e-01,1.676695782946134930e-02,8.325381115824856404e-02,2.523477061218739048e-01,-1.236408991246868046e-02,2.053112736151504469e-01,-1.873273211781354142e-01,2.460466776449359572e-01,1.170420382753663419e-01,-1.653921568948580889e-01,-1.011513015161846635e-01,-1.745649277644253372e-01,1.296904147639086347e-01,-7.366104480153948253e-02,-1.468452603816701148e-03,3.433153558482885531e-02,1.912436866823360171e-01,8.842711772253332436e-02,4.598512762012440525e-01,1.198699829007243284e-01,1.964929919902183297e-01,-3.570176688421603656e-02,-4.022834808774423260e-02,-1.737909889497215032e-01,-3.940684182114630868e-02,1.587880178729345895e-04,-3.268541211179334383e-01,-1.534311890607402418e-01,-1.291663214472447974e-01,-1.560058538807398976e-02,1.443327684317065873e-01,-6.272784829543145979e-02,6.159234089365815679e-02,8.280540097777386310e-02,-1.774389016433009225e-01,4.230433701879300346e-01,1.441712538793415987e-01,-1.867773378229497516e-01,-8.361091393284672546e-02,-1.295908965282640268e-01,-1.001111658805277499e-01,2.093902334881452693e-02,2.262111600188995431e-01,2.875899071946552144e-01,1.036102474534210810e-01,2.219392528178523449e-01,1.292497074945958835e-01,-8.904259634980017657e-03,-3.593220052277257964e-02,-3.815353617147154014e-02,1.193860778990592925e-01,-1.893977693606404555e-01,-2.016587285006128660e-01,-4.651645478778566965e-04,-1.728966169748003545e-01,-2.138431249656944366e-01,-1.345709574755114268e-01,-2.626669455969669539e-02,1.261197125162780153e-01,2.353923410087631340e-02,-3.615481657787705805e-02,2.358068542486424779e-01,-3.771763346579251053e-01,6.377538860167143719e-02,1.370907309548021480e-01,-2.276785952832790366e-02,-1.729245407624528316e-02,1.025964898276322673e-01,2.153119906276888817e-02,1.923635283522139861e-01,-1.983806131853625698e-01,1.622249759402295544e-01,7.358972888390533096e-02,1.324121573165363275e-01,1.624752339124731215e-01,2.108787189104118984e-02,-1.072926060686292121e-01,1.395845516859726410e-01,7.900688322550233900e-02,5.083836672010030172e-02,2.693211576082748387e-02,-3.548368476979300856e-02,-1.412035255531215450e-01,-6.164861041792440988e-02,-9.734120023002036659e-02,-3.314938558788751988e-02,1.058919971206175592e-01,-9.483160992642195031e-02,5.753195141903944682e-02,2.321240004298667781e-02,2.072530142673983944e-01,7.066457960571261021e-02,1.135565127991544215e-01,8.631803901157963921e-02,8.196323064000035630e-02,-1.535301629334421269e-01,-6.380808522184734655e-02,-1.537222789523778332e-01,-2.498235446751206623e-01,1.091872200922982122e-01,1.110425337366192228e-01,1.086117736857248744e-01,-2.963713354386740551e-02,1.229602493773780808e-01,-4.913641326769076050e-03,1.095764301745938002e-01,1.973144337272400572e-01,3.007264034596162858e-02,-1.258532254989626897e-01,-1.562846743734823060e-02,8.016023885383692649e-02,1.380490901185482122e-01,-9.731755132387150120e-02,-2.993177550658851493e-03,3.939556484149850379e-02,5.956148464177047491e-02,1.071040125157946971e-01,-7.878231342989337749e-02,-2.628617750706720851e-02,1.168582999755441304e-01,5.529514332791711506e-02,6.089971729365510622e-02,1.285940020819115182e-01,2.646699118639529377e-02,6.886199442267003368e-02,-1.539473397624235851e-02,-1.184393498113514159e-01,-1.134641363126225738e-01,2.349370758374952003e-02,-3.894419584135316165e-03,-4.939866463701154953e-02,4.786308185740324739e-02,-7.296550299533859085e-02,2.719537885378335226e-02,1.410939638345901602e-02,-6.793723924573842610e-02,-2.137589358382991911e-01,1.617143908627637072e-01,4.772537578588211676e-02,-2.503509417107281920e-01,-2.658120954786586526e-02,5.544042534041822984e-02,-6.752416854559259093e-03,7.409466347580932755e-02,-8.126510630943771518e-02,3.357842513729324130e-02,1.071328294197070909e-02,-2.244546480711013571e-03,-6.041237963347215884e-03,3.603760773474910806e-02,1.093337935842954994e-01,-3.695032780451879689e-02,-2.466235018570668569e-02,3.211815138973751760e-02,4.046654652611413917e-03,5.462188144991889094e-02,8.789072579092059578e-02,1.451805425005735783e-01,4.417237388319912757e-03,-2.116681474505505700e-01,9.099198269973426609e-03,5.144869490377040194e-02,-2.633849437788614994e-03,7.380360387771532204e-04,-2.271891990492253266e-01,6.686008587702430006e-02,-1.634158068651428083e-02,-1.350460085755342821e-01,-7.108055434400946393e-02,-7.042134193107242590e-02,-5.567205396325684008e-01
2.277605301655823700e-01,8.534853572475634836e-03,1.052515204139523597e-01,-2.599874882913508767e-01,-5.185254201131841434e-01,4.913341750315648911e-03,3.271280014074320341e-01,4.305875377371783108e-02,3.065785404170165984e-01,-1.496947959943664697e-01,-4.002909128303079322e-01,-9.138328091855991986e-02,-2.230491921777128794e-01,7.516086403998943621e-02,-1.225277817850727730e-01,-3.958446607480761714e-02,2.249386825122810796e-02,2.772104402859668637e-01,2.091869427609728549e-01,3.067248588411506383e-01,-1.108793008435711713e-01,-1.981146423602651307e-01,-8.805637302091655350e-02,1.021441493401113454e-01,-1.383232179804652628e-01,-2.738030925854922915e-01,-1.075307894266814002e-01,-1.754357977305013028e-01,1.889180712388749128e-01,-1.580435483223895377e-01,1.547601521414422587e-02,2.113140865214956643e-01,-1.261555643966139062e-01,1.092251776957003373e-01,2.471249535935419739e-01,-2.821158829421007708e-01,-3.455856416453975122e-01,6.501684682069204524e-02,2.206402892448414976e-01,3.162463598741269699e-01,8.347832844655150852e-02,-8.931438246491706090e-02,-3.882842476436729889e-02,-2.386407996731829406e-01,-2.959382786287058642e-01,-1.892006598122847050e-01,-3.785483633519384078e-02,8.644253695243601585e-04,-1.661794664981543213e-01,3.191404119539006934e-01,1.255546480426793787e-01,1.437520870759075031e-01,7.286393473874351601e-02,-8.865760571126994616e-02,9.116123011164876944e-02,-3.466288875440514117e-01,1.091016419325080561e-01,-3.548287706793814000e-01,-2.057610643281961582e-01,-5.101675160344939508e-01,3.329563374814423216e-03,3.052448560799762567e-01,-2.261811271456333206e-01,3.486586624117632427e-01,-6.224429350564376906e-02,2.152444433463861773e-01,1.966540055340351700e-01,-4.566616686542318559e-01,6.534501464967554241e-02,1.763570293398230293e-01,-1.612361670645132417e-01,-7.010221106272943037e-02,2.080351519680008199e-01,-1.378262021294666406e-01,5.564566638682707372e-02,-1.648004985187478399e-01,-1.243174310195934995e-01,-8.611720756593689574e-02,1.778864097311516623e-01,7.268421498354094012e-02,1.222246907557631990e-01,-1.439767240955777683e-01,9.988065637533353330e-03,7.706736356502827748e-03,-8.228508780459212191e-02,9.590847469477700726e-02,-1.757798061414222734e-01,-8.167668012309606262e-02,4.952665777567925171e-02,6.885752260665223279e-02,2.698850343874313884e-01,1.157533396527637010e-01,-5.009717910089180742e-02,5.227102456372314382e-02,-2.207299147179180854e-01,-4.594699395690697574e-02,-1.878841962894783613e-01,-2.027002862712713183e-01,-3.567212865414811085e-01,-2.291947537920042410e-01,-1.736886418793991138e-01,9.473168128742695884e-03,-1.999752687005315957e-02,2.976823774810959389e-01,1.375708257540505797e-01,5.440076263648638798e-03,1.743721785764338617e-01,-1.961293390356043664e-01,-4.202615584746621780e-01,2.381146383053086013e-01,9.716551289011295112e-02,3.250359036698979853e-01,-2.410301446504815870e-01,1.138833030515766509e-01,-2.435253262444859734e-01,-1.165557574628605375e-01,-2.657048290080634562e-02,-1.663439466542110945e-01,-1.653436088810432414e-01,-1.278333980281562421e-01,-1.015847467597169734e-01,1.192692312201057148e-01,-1.240780050796562173e-01,5.799025960955649789e-02,3.187569869769469322e-01,-8.380989740223289408e-02,1.792378045351778748e-01,-3.281175800959015842e-01,1.082301023620484692e-01,-2.381548130261713081e-01,-2.169553561854686841e-01,-1.745801750184474144e-01,-1.237657396333113717e-02,2.704684969433504005e-01,1.019768637428489395e-02,2.605584642328019895e-01,-3.460924672274677261e-01,3.001211896746055607e-03,-8.146428488860904538e-02,-3.758539053390895779e-01,-1.215392594747848887e-01,8.031503347893630129e-02,4.303023029603662841e-02,-1.904597457175696562e-01,1.739093283504729859e-01,3.909243933789133263e-02,-2.096943409522067023e-02,-8.444987886611984851e-02,-1.179143448789672644e-01,4.254334967728010120e-02,3.858844729846612753e-01,1.567401819993543555e-01,-1.710256730963746752e-01,3.727959674622221675e-03,-9.691686274863076100e-02,-9.494324046338718792e-02,5.052633516234666250e-02,-1.555975552265995987e-01,-3.494363404668536233e-01,-2.122612406262526230e-01,-4.211888500568839594e-02,7.367870472956834782e-02,8.150325990472449822e-02,2.038133805277155264e-01,-2.027240817820219754e-01,2.601897766667136611e-02,-1.098689322504819710e-01,-2.548619752091400154e-02,-2.347477024685960256e-01,-2.199348741055056344e-01,-1.892328830992857647e-01,-1.462127054707430540e-01,-2.433888911818129774e-01,-9.093568206663826814e-02,6.172020006301630335e-02,2.733238932186480286e-01,7.771632090574963347e-02,8.499367632573597009e-02,2.529240035005699272e-01,-1.455170170362643511e-01,-1.002682347674994368e-01,1.360536936039919431e-01,1.126024322191921251e-01,2.512863813471838959e-01,-2.314531069100686234e-01,-3.722526213145056773e-02,1.194470669267457125e-01,-1.946325085717083014e-01,5.695990332601934443e-03,-2.657017475201760570e-01,-1.094470892931833084e-01,-1.280666662175638792e-01,-9.768920701792938033e-02,1.594840503164271228e-01,3.345563655796770369e-02,-4.477571686003163631e-02,6.743276609056021720e-02,1.451652412403097170e-01,4.468255573478710496e-01,-2.363927160632814939e-01,6.207061862391696078e-02,1.204884404092417954e-01,1.662951901859880538e-02,-1.249569724658200209e-01,1.229734163161821242e-01,6.156760048558117260e-02,-1.171044965410371619e-01,2.060826131756640089e-01,-1.317830602571697929e-01,-1.119565474826450108e-01,9.284781260467157848e-02,-2.184200445300777393e-01,7.134240310149946550e-03,3.031647226613028989e-01,2.119139384346887811e-01,-2.652700003272033882e-02,1.808009766155641018e-01,-5.452833624640124333e-02,-1.727469514740369652e-02,3.175220018566494995e-02,1.628769191155166607e-01,3.505086441084062088e-01,4.046531537793517375e-01,4.041881507858806066e-01,-4.306323254690567343e-02,1.696003460785792116e-01,1.214413709539614028e-01,-1.224638619244163146e-01,4.101017156795538909e-02,-1.628964633908201176e-01,-2.384374511033580668e-01,-2.951106334508966644e-01,1.385259453018643505e-01,-1.894932093419900709e-01,1.181096095367266674e-01,-1.294624238207524869e-01,5.920401982091390986e-02,1.205193248108669436e-02,-1.712016898445378466e-01,1.749951300010033073e-01,-7.579553070242205093e-02,-1.147344032345384429e-01,-8.128290554298921167e-02,-5.205460884547954276e-02,4.489750467659235633e-02,-1.065579355855359456e-01,-1.695538436974774327e-02,1.399941334755500089e-01,1.856626990488718099e-01,2.137447370053353335e-01,1.901916237173516266e-01,1.328946554244808675e-02,-4.073815974451768657e-02,1.709474854012172917e-01,3.667985821816469039e-01,6.369650529131616612e-02,-1.549479608633573535e-01,5.494929369426600901e-02,2.012118450419481119e-02,-1.788479534595024956e-01,2.246107739483512722e-01,-6.668494122056492501e-02,-2.809133050692962930e-01,-1.285281207923533696e-02,1.697245686107003160e-02,2.412992926161975152e-02,-1.617339017418379099e-01,-2.053285392346348437e-01,1.835585315976517307e-01,2.824838558652368881e-01,3.089872723142766398e-01,1.635659759759028054e-01,7.852434892083922507e-03,9.941582981375612915e-02,6.410701006591562612e-02,-1.024824951695178527e-03,1.138875317124030256e-01,4.155197802356337677e-02,4.952503335150725342e-03,1.088911789618374482e-01,2.962866462070645052e-02,6.011285720601857591e-02,8.985437661805201204e-02,-7.668374273625219728e-02,1.398667222220168968e-02,2.923980662751076154e-01,3.007360694887407093e-01,7.999918260988582441e-02,8.712401828208454768e-02,-1.063326083213529116e-01,-1.835502675846827428e-02,-1.720511820753076460e-01,2.979333030999444243e-01,2.204578336424595220e-01,1.658857298462195207e-01,1.817688939131098524e-01,-1.176610833802865241e-01,1.912790764495589102e-01,-1.790728753300728504e-01,8.936097301019607642e-02,8.389843437353395814e-03,-2.123643826393733364e-02,-3.853905568223551237e-01,1.066407056089169192e-01,1.530575124018430655e-01,-9.392457746450513789e-02,1.010126787609502697e-01,-1.339790929838999452e-02,-6.315091877638963347e-02,7.965704707110655980e-02,3.999982519252633095e-02,2.405364848089623989e-02,5.168530450317372626e-02,-6.591845957716675752e-02,5.904701553111797036e-02,5.167458831761985449e-02,6.111950072205541568e-02,-1.245204177895467279e-01,8.867115279431025954e-02,3.369258493282821787e-01,2.010082775418593412e-02,-1.058730123110528110e-01,1.795202597304040582e-01,7.249556438636693689e-03,1.319194792920958537e-01,8.269675749537191631e-03,2.253495040023396900e-01,5.169795365227092265e-02,4.515638792995354395e-02,8.616050513278407375e-02,-1.178572824483724996e-01,-1.370914635506566281e-01,2.980020562723912358e-01,-2.238444776649721468e-02,-1.288967813857251066e-01,2.845852764387823974e-01,-7.674457330293295299e-03,-1.161518537691476893e-01,-1.710310986785324172e-01,-1.370065803945535732e-01,-6.205069971699037068e-02,3.829490879660006897e-01,3.240256655162446764e-01,1.492588206618835345e-01,-3.247069753700212447e-01,1.933713682105159815e-01,-7.450150276269756899e-02,2.733827759163726112e-01,6.818915737994304949e-02,-1.088337159093062390e-01,-9.611967093401303786e-02,2.746651634548840093e-01,6.722500121170049692e-02,-4.159490447128173091e-02,1.037319959483891732e-02,1.725279029459020619e-01,-1.718303673577841958e-02,3.249182586033387277e-01,2.065964511875126308e-01,2.856819535196574722e-01,1.209006086085790133e-01,-4.269551326227050830e-02,-4.866024947415294177e-02,7.261223362971055972e-02,1.991144662614343364e-01,-2.214144911528056481e-01,2.288975082043509246e-01,3.799679822857340156e-02,-4.639494066374600517e-02,1.329379147687171359e-01,-1.165070472600831103e-01,6.287805978765678705e-02,1.467429908252235182e-01,-1.257180475447425561e-01,-4.112985240061416969e-01,5.912202022171478971e-02,2.114180172014773484e-02,-3.365074827060324236e-02,5.604706079746779590e-02,1.524470187379759756e-01,-9.931854725933199346e-02,6.906870845063242670e-02,-6.507016164392673274e-02,2.708924739798060921e-01,-4.018318812661374889e-02,-1.820362829228620027e-01,1.555391841187222790e-01,-2.123983561526808783e-01,2.882974013989201070e-02,-2.856539737114076327e-03,1.221654426709646579e-01,1.726072905659269130e-01,2.778889440931739743e-02,-8.308743494424966625e-02,-2.521570437099178441e-02,4.273670736711200624e-02,1.633324573088085208e-01,-1.622666831067424639e-02,-1.374495257163211616e-02,2.069217411799693374e-01,9.925567814366545449e-02,1.553941814200052521e-02,-1.769766599457178735e-01,-1.988180017749022477e-01,3.408848111198583553e-01,1.037238748721490550e-01,-2.361102415506400876e-01,-8.160839717575815722e-02,1.816306970761555617e-01,3.134025300310762097e-01,1.767329053338034250e-01,9.984851240158529317e-02,1.339407801007256593e-01,1.590882664260660773e-01,1.747161316511717244e-01,5.557690123308672153e-02,-8.026101770654268941e-02,1.246010680584157121e-01,2.240723639711751092e-01,2.420092410635268920e-01,6.080897054993530948e-02,-2.061691576613348120e-01,-1.850287097297287631e-01,1.661913611077169839e-01,9.202094950460829037e-03,-9.959881841929005969e-03,-1.620350474468975344e-01,1.940577236550397877e-01,-2.201387901897166322e-01,1.105200590331155835e-01,2.157937837521892721e-01,2.674155349462355447e-01,2.743037531069738577e-01,-1.707216171642758074e-01,-3.465430967834850357e-02,1.433518440799075588e-01,-8.151128065565316216e-02,5.191653502490654881e-02,8.273544098037816097e-02,-9.259427844205517233e-02,-1.135634021054977710e-01,1.721582120265903182e-01,-1.250849891207725106e-01,1.434868396208974495e-01,1.262669110749666812e-01,-6.215562626990742828e-02,-7.015124151724796975e-02,1.455371594959561088e-01,1.729363250531047169e-01,-1.277843279435305701e-03,1.544758010915059376e-01,-8.567157843492000102e-02,-1.123599133590545175e-02,1.281092784720853084e-01,5.682328924027237700e-04,-1.782395741490918062e-01,1.704227492960021795e-01,1.069176457162430982e-01,-4.958213945909158669e-03,-1.860346041891072777e-01,9.592080479699538476e-02,-2.664781530265861176e-01,-1.042645958675773588e-01,2.119191660103637576e-01,1.298415726219862842e-01,-1.362917567766986637e-01,9.354037321714134268e-02,2.503886675880584792e-02,2.025009628407942464e-01,-9.008848517777541184e-03,1.485260766866030591e-01,5.252930119043407176e-02,1.503698704849708578e-01,-8.165399224432824676e-02,4.721016262629834648e-02,-6.924640050626203192e-02,1.355581858951141194e-01,-1.677706760567389821e-01,3.514131507364573470e-02,2.643569170951608552e-02,1.632673456475105256e-01,-1.406299286248172964e-01,-1.103926723789259157e-01,2.686034065388043790e-01,4.333448834519224024e-02,4.557518579924058760e-02,1.397994656930576785e-01,2.138419109881318780e-01,4.421125176784590494e-02,-1.080076626709068968e-02,9.437104888463053454e-02,-1.462821283067654299e-01,4.995511703473006632e-02,-1.669548579026919333e-01,-1.538486956836882247e-01,1.583296540428233978e-01,-5.684221278826576129e-02,5.174291124954896043e-02,-1.059944877250969253e-01,8.327418007409377598e-02,-1.867991317434168352e-01,8.035945565341207075e-02,-5.253971903908589980e-03,1.443744110111781220e-01,1.091773556338525297e-01,-2.327851480694146935e-01,-1.286831752023441799e-01,6.268896550557061242e-02,-2.223428074424778078e-01,-1.907485880034969772e-01,-2.970291077831133664e-01,-2.098277590501317624e-01,1.297966807791177679e-01,-4.748438398108629360e-02,-1.407719785412608615e-01,6.299811527806901956e-02,1.491813215991470709e-01,-1.194216357471080681e-01,9.511572046059173224e-02,1.239845008614514216e-01,-6.445485548308149681e-02,1.433398978824033387e-01,2.418913885951539944e-01,-1.213692982611889043e-01,-5.703138198316330676e-02,-4.939937979283586661e-02,8.148243113263184401e-02,1.510439453850989655e-01,2.218898407950262441e-01,-9.594552865765863803e-02,-1.874131108056465919e-02,6.079493867123452605e-02,1.688792230784288417e-01,-4.626623031020089122e-02,-6.868356568125304207e-02,3.208934080282813822e-02,7.439625275950108307e-02,-4.356199003996131802e-01,9.686914239775889710e-03,6.640664836283549644e-02,5.040426187628866544e-02,-2.108142962488545324e-01,-1.411954478425384019e-01,1.633636466486743793e-02,2.886997781567203838e-02,3.671870081206612870e-03,-7.148704705286891559e-02,-6.342520644547261499e-02,5.525470769210903688e-02,5.147912857787025759e-02,1.696878819964417195e-01,-9.214457616988117050e-02,2.857701402137506619e-02,3.703143304783096390e-01,1.946639846130897022e-01,3.694643679708132372e-02,2.913194930164859642e-01,-4.408743726703812094e-02,-1.844168826202509104e-01,2.066580055159574214e-01,2.014476244754690171e-01,-1.682758177348851469e-01,-3.334960587675460664e-01,-5.649176733603029216e-02,-2.266470029831173238e-02,-4.929410113726270110e-02,-3.087479546386572293e-01,-1.451565243759226076e-01,3.488962186532956755e-02,-2.413187669233103072e-01,-1.594044178286477612e-02,2.241699158474068643e-01,-1.194439030924145384e-01,-3.248247767296695843e-01,2.442558977921196681e-02,2.347304099696442270e-01,-6.226324376949816941e-03,-2.557037875488164524e-01,7.296812982066065364e-03,-9.035556319550887283e-02,7.421885925706672715e-02,-3.159844548962244259e-02,-3.958182963517774544e-01,-2.824492880975479348e-01,-7.883867872253579392e-03,4.833120056625075933e-02,-3.818037994691456660e-01,-2.752826653754303909e-01,-4.102045954075630302e-02,-1.792140182836159390e-01,2.597242104785805750e-01,6.476642995104472944e-02,1.040672148406743547e-01,2.588433690797750653e-01,2.299962894568809840e-02,6.591511635356057941e-02,1.427691509494012634e-01,2.078484855637111051e-01,2.071201142008724794e-01,1.104348154556532291e-01,1.024791213946619067e-01,-2.411375124108762757e-01,-1.405824654602760848e-01,3.068021682896644731e-02,-2.638075412570314859e-03,8.523524053740116901e-02,-2.002673700392764433e-01,-6.137214578401523069e-02,-2.188587109841999834e-01,-3.982977436850979602e-01,-1.578896161104679369e-02,-3.956874922265959243e-02,-2.508488714058860689e-02,-1.437741247905165165e-01,-9.149773570858904526e-02,-6.028486688561193046e-02,5.166211827593707173e-02,8.094660774347217647e-02,-6.245284433541450214e-02,-2.852087303276156782e-01,1.449612152927391429e-01,-1.543378813870074084e-01,9.828057640317039434e-02,-1.924884185129935033e-01,-1.263789942790327636e-02,5.411281200008870584e-01,1.007364102243873544e-01,-6.561031929772444260e-02,3.046363950275181587e-01,-1.066615081075187599e-01,-1.671589608320903086e-01,1.836526647476086418e-02,1.775260032371455132e-01,1.782089425502158264e-01,-1.497683338671700337e-01,-2.320671290170350787e-01,1.396942020020884578e-01,-1.901058188703895757e-01,-5.177029311549958233e-03,-9.257115201181792541e-02,-1.242477062113397229e-01,-3.487322653235468140e-02,-1.347676628397930509e-01,1.334629281390628183e-02,-3.097873744332823587e-01,-3.389776992627191454e-02,1.574526372699778512e-03,3.341703621615133707e-02,-9.226723818197764271e-02,-1.299613864035069899e-01,7.309307788281786677e-02,-5.485002965242962922e-03,-1.437625864454100122e-01,-4.864823400743937404e-02,-1.222417715076351830e-01,-1.404431029000932640e-01,1.226022777118418311e-01,-2.251395490540827604e-01,-1.049509089337224005e-01,1.144697878387857491e-02,8.689495152134556200e-02,-5.359055695327176634e-03,1.266538986997136629e-01,7.637128802889224521e-02,1.324268345167765037e-01,-8.188770241680799755e-02,3.204229537359685742e-01,1.052527618850817998e-01,3.496381733565133709e-01,2.075058160459358064e-02,-1.244844295386956651e-01,2.093533999850938632e-01,3.275879060589068081e-02,-2.541757076813742078e-01,2.430635048563024869e-01,1.031386381035799549e-01,-4.742917787154225795e-02,8.448000202242110512e-02,-5.788053918025441030e-02,1.436434071406068325e-01,1.602346476179073165e-01,-2.281230456184493716e-01,1.305525896114264894e-01,-1.355314812807235925e-01,2.352371518369956449e-01,-3.243157473821525055e-02,-6.333109073338634432e-02,8.905017844601716137e-03,-1.808142144384042582e-01,5.353368491608792579e-02,-1.127490618396908978e-01,-1.578224387309283827e-01,-1.118992497106832129e-01,1.566970223944481877e-02,4.153769203133161891e-02,-1.181990619008512072e-01,8.055307002185359277e-02,-1.527815758540245665e-03,3.223298193773400100e-01,-1.113338796791833313e-01,1.352431404979030465e-02,1.258014491320706696e-01,-1.075471929300956114e-01,2.355053888345715607e-01,4.608891645371371304e-02,-6.224822321510085910e-02,-5.208595210687895494e-02,-1.854696263725225669e-01,4.648889695524612703e-02,-2.334660825172564860e-02,2.461925709964653958e-02,-2.336508806200602029e-01,4.990252406979556882e-02,-5.849924263077877634e-02,-1.883783194633970731e-02,-2.112470415833119508e-01,-1.535764196489457500e-01,5.980403416313263831e-02,-2.457312591974811569e-02,-1.206399055342449733e-01,8.211165608308416963e-02,-1.346954637595159376e-01,7.641793108591016237e-02,1.935749010475909804e-01,1.337284992506309611e-01,-1.171892061164193574e-02,-1.941967073940849275e-01,-1.337253380112384329e-02,1.224104960234263795e-01,-1.193604426540475702e-02,-2.546938779061669322e-01,-4.064082892009921455e-01,-1.607383356480674708e-01,1.944730394737951840e-01,1.078205934299782676e-01,2.463717760260325795e-01,2.572918081778391430e-01,-4.783864500752738058e-02,2.374571994744024139e-01,1.977131233261633370e-01,2.770813020313426245e-01,2.380429755935224365e-02,-1.151685010285213723e-01,-1.855813717144491060e-01,1.175282629456916028e-01,-1.152618760172282319e-01,1.189904789096350723e-02,-2.197640867897001915e-01,1.308487120978040763e-01,1.558256350683080438e-01,1.840854875688694992e-01,-1.073635640824982668e-01,6.928999675790414869e-02,1.850306732360882181e-02,-1.259647251175817669e-02,-6.094125063338771270e-02,-3.272424585492624688e-02,1.908456083611181908e-01,-2.247019287460034487e-01,-2.238241569503854056e-01,-1.825145511496491513e-01,-9.680079410412187335e-02,-9.197910570168189859e-02,-2.865159329957285839e-01,-1.911043858058837641e-02,1.261023022381092540e-01,-1.229473993003324904e-02,4.425951599902416822e-02,2.830796854740555979e-01,-6.364785937073494729e-03,8.144872002743537565e-02,-4.949634534308359340e-02,4.632990028882595923e-01,-9.616158344378267220e-02,-9.770231049910121923e-02,-6.820271433546606747e-03,-3.470403896145356909e-02,2.045359902624864779e-01,-1.137207466764452064e-02,-6.000560942287318927e-02,2.598223135646087201e-01,1.311313280382206958e-01,8.926172334876308900e-02,1.401724972442395800e-01,1.408678402924741224e-01,2.380959653090531369e-01,-1.346451838251671029e-01,2.157117978044800072e-02,1.160519037292668115e-01,1.155665841591516502e-01,1.209010236613375783e-01,-1.018129734400961550e-01,-1.913674225436919341e-01,4.810655906069211812e-02,-2.318934534780804288e-02,2.225872417821025961e-02,-4.503614645439814324e-02,1.299040870757222077e-01,-1.552229108254065126e-01,1.336408872635986289e-01,4.038313039283234485e-01,-9.666287936048321983e-02,-1.415620705454160577e-01,-1.654541286973085501e-01,-3.094625538512948970e-01,-1.556228051166608228e-02,6.343540008721243462e-02,1.048543333786729065e-01,2.564218218498742763e-01,7.214623426635984049e-02,4.385252955637103933e-01,2.362871113214036201e-01,3.417715981414196080e-02,-1.162972832004519896e-01,-1.198464799455937480e-01,4.237587983821187315e-02,-3.446868369912269303e-01,-2.253840898281005145e-01,-5.006316353375742101e-02,-1.052918203534278646e-01,1.882679782018956416e-01,-8.426189298866811062e-02,1.809106509691654208e-01,6.618347631467411118e-02,-6.542683068182154893e-02,2.643663877837294784e-02,1.187442497844822253e-01,-1.563675351052699058e-01,1.811102381315914112e-01,3.031064505526673974e-02,-3.169909227783295619e-02,-5.249420479028729658e-02,1.250619853753118411e-02,4.297530661910087257e-02,9.527418785286715167e-03,-1.576909455018810635e-01,-3.246723151377592723e-03,2.579603334506430645e-01,-6.090877221192996828e-03,1.174123967296142185e-01,1.388470785609791647e-01,-1.823983129113368185e-01,2.133771623231165149e-01,-1.162514037611496742e-01,1.616326398579841228e-01,-2.203880481846851036e-01,-1.455646834257365574e-01,-8.178544108264682033e-02,1.611082781564150690e-02,2.020971947794888979e-01,-1.461043499147832436e-01,1.233898165153693854e-01,1.453459491214379729e-01,9.092100617484523417e-02,2.069083203998077214e-01,3.772591365983908873e-01,4.002274303864542145e-03,-2.809778033023698982e-03,-1.790397113032547449e-01,2.752263064886070407e-02,-1.451174974400678275e-01,-5.744849297169628971e-02,-1.204954261021945333e-01,-2.372983085238481449e-01,-1.578760372355332009e-01,-2.799268028990398727e-01,-5.013320974417852932e-02,1.613507625254088917e-01,-2.681712143531245207e-01,1.899528259900232219e-01,-1.938370837352059589e-02,-4.003089782879157288e-02,3.802344500417884632e-01,5.091352217083172649e-02,-1.348581230059358316e-01,-3.245376690571648570e-01,-2.914680101388845701e-01,3.285403743462539383e-02,1.513436823423951472e-01,1.716695964697182164e-01,3.203302157726713451e-01,-4.556739927314758243e-02,2.418704361463870078e-01,7.160403549332021444e-02,7.051657135053621128e-02,5.370767061489289951e-02,-1.563379366518632130e-01,-6.063736014401290009e-02,-3.231297671234594771e-01,-1.797305506789541041e-01,6.524869708017616565e-02,-1.341501678438487555e-01,2.304510845671003394e-01,-3.627797092277251223e-01,9.247905867791392232e-02,1.433556591758184187e-02,5.470538693894413940e-02,1.560735991840212222e-01,2.847507767270091028e-01,-3.928034619052760412e-01,4.485310453530641506e-02,2.712481223451328194e-02,1.632136161153417003e-02,-1.674665495185752861e-01,1.134825827756406197e-01,9.244168150946058260e-02,-4.619387925215188290e-02,-1.123839732245741074e-01,3.020597583563224345e-02,2.402146089088330883e-01,-3.808995738392658564e-02,4.788196295202085118e-02,8.281527868852348040e-02,3.713596874246549284e-03,1.801736164657227190e-01,-4.536475445818617669e-02,1.629820252907728251e-01,-6.393659526022223150e-02,1.649175240650305740e-01,-1.082849345037517480e-01,-2.396651453450989733e-01,-7.570487907059057775e-02,3.083432119728331949e-03,6.875848408946313994e-02,9.499277405946505992e-02,6.931950498058696286e-02,-6.149461073648096465e-02,4.482748506999563176e-01,-3.392729012232687663e-02,5.156374829835672774e-02,-1.095544567765530525e-01,5.967152877586169579e-02,1.113033895362033898e-01,-1.828191881867554935e-01,-3.517912479406434811e-01,-4.548142139618315677e-02,4.776297353562764664e-02,-3.858944341665484362e-02,5.959403930405370031e-02,9.070215501879255737e-02,2.089647222944030214e-01,4.723654412493278124e-03,1.457378648037576385e-01,-2.741774651881494912e-02,-3.320902642068087468e-02,6.013519066014431924e-02,-9.373890277885631173e-02,-1.124380549609027696e-01,1.140771573547361001e-01,-1.785496591541665679e-01,2.909267315802298998e-02,-1.471637876340289516e-02,-1.954417159081172500e-02,-1.154726817109492099e-01,-1.858323958600055781e-01,-4.833299996531344872e-02,-9.876395256230975639e-02,-2.478405483980219287e-02,2.656145725318190265e-02,-5.641817550956005484e-02,-8.949468255840192787e-02,4.676198407624428122e-02,-5.842562141715094970e-02,-7.819533464879964424e-02,-1.215747944539107180e-02,4.630699125687615103e-02,2.286326906405560522e-01,1.791140027499220910e-01,-1.085802464659508110e-01,-1.146670740773382269e-01,2.422958485944915613e-02,7.345774165794376198e-02,4.587291383264788247e-03,2.349911272662359718e-01,1.354648696627180904e-01,1.817635844056006145e-01,-2.402921413749670859e-02,-7.193011100091789567e-02,-8.927098151891409150e-02,6.379691209318965640e-03,-1.080771440876044515e-01,-4.562135772897480540e-02,-2.531912629853296653e-02,1.121863205606227903e-01,-2.952970826226139489e-02,-1.229485634090585755e-01,-2.698947963226979579e-02,3.661613887846448118e-02,7.384965348202852942e-02,-7.440805781068553226e-02,8.249535922583450809e-02,1.564404070347978626e-01,6.670950945487255646e-02,4.163743339298889290e-02,-2.705333296865767082e-02,-4.332165264414744588e-02,-1.852366592778354193e-01,7.855250624960741224e-02,-1.765304071527509788e-02,3.301599665284338236e-02,6.788533254477778500e-02,-6.088242942884240089e-02,1.194574162079508756e-01,2.906890582809679158e-02,1.674573724068207647e-01,3.465161442632103128e-02,4.962031717269408532e-02,-7.386521170769579925e-01
2.312248132975431025e-01,-2.822097928760017305e-01,-1.844327162087599711e-02,-9.609150138052847956e-02,-3.239813025366219401e-01,-1.111268089893033550e-01,-1.277310938303278798e-01,5.432165317845497055e-02,-4.641290809599564471e-02,5.442161765244708099e-02,-8.492829077664401649e-02,-6.795481400016485651e-02,-2.332543594857688918e-01,-1.707170588963806759e-02,-1.139213920393976516e-02,-1.871754450771001207e-02,5.289482314850772054e-02,-5.028503429269528049e-03,2.556024038406939924e-01,4.773175660582815172e-02,-1.137362400269441437e-01,7.094547013807551983e-02,8.261295957226197362e-02,2.045709124451375316e-02,-1.791661509241024575e-01,-8.745408476323388372e-03,-1.992531532250037540e-01,-1.242211658872032810e-02,-1.351723566907420959e-01,-2.168092257344537283e-02,3.529103342107399455e-02,2.474387835657279877e-01,-1.520442404517107771e-01,5.861698695378157048e-02,7.870060425337162269e-02,-1.322157814558017341e-01,-2.174023560099964392e-01,-6.888579757338268716e-02,1.496046300107627125e-02,4.896280183314476175e-02,1.127654239685765003e-01,1.114736784021840531e-02,3.241927339329962049e-02,-1.671351489709634042e-02,-1.930157090251267971e-01,7.892113217351016605e-03,4.779030841806678614e-02,3.155299318299434330e-02,-1.340657482998444672e-01,-4.710685242410081464e-02,-5.573779012417418716e-02,6.398765618060024696e-02,9.156487101674973261e-02,9.483625588910211957e-02,2.048144981036989221e-01,-5.935304824550503150e-02,5.772351068703789750e-02,-1.493494589347816592e-01,-8.705646690847076985e-02,-7.079908725251146673e-02,4.470192393171794343e-02,2.058981415590163677e-01,-1.335471028033438923e-01,2.434572502115796844e-01,-2.006396165607082227e-01,1.334180839653595629e-01,1.405997365778574315e-01,-3.103081768227100024e-01,-1.249968844795177995e-02,-9.761295294189545335e-02,3.846530102993019843e-03,2.419037717446570132e-02,5.564073488195599854e-02,-2.085210785583868076e-01,4.886833024208201565e-02,-5.914338800320751571e-02,-1.331053858156356351e-01,-1.098534729751320521e-01,6.920197228711162662e-02,6.024155477067077991e-02,1.276560707221750107e-02,2.352294773699571406e-01,-9.981693631582912521e-03,-2.513938913698218064e-02,-1.496223924257269501e-02,-8.081523559196944484e-02,-3.069227284419570254e-02,1.342235734430503036e-01,-6.862921275387905140e-02,6.340470026887136401e-02,1.494833882102627187e-01,-1.144920832109961595e-01,1.363271899499616246e-01,-1.697427709673896834e-01,-7.398018258423667837e-02,4.973117067601268149e-02,-1.318131507379333989e-01,-8.442155684638630309e-03,-6.903082322387915637e-02,-5.061926063629264977e-02,-1.052521998352982241e-02,1.291800209808880717e-01,-1.731733818436910766e-01,1.586909528473864350e-01,3.076568052927779792e-03,-7.159647403270320842e-02,-5.228617811176435558e-03,-1.699047373060625643e-01,-6.288631203460770536e-02,-3.725161020217035435e-02,3.419825058126028938e-02,7.981450638972972800e-02,-1.896171032197576933e-01,1.102022791223875170e-01,2.453020204104145729e-01,-1.482094301748431431e-01,6.827321572421798934e-02,-1.019233270211546277e-01,-8.631680466229857754e-03,-5.409873981283437605e-02,1.402108309552487775e-01,3.536915453052012770e-02,1.004225419940415476e-01,7.531165484774707264e-02,-6.707119479288362052e-02,-2.299675299564654662e-01,1.352234752656954475e-01,-4.382996988892119000e-02,-3.331045835990259496e-02,-1.795306277270521389e-01,3.614838542542574834e-02,-4.677309865278212603e-02,1.078571382244891824e-01,1.630421131563768444e-01,-9.042937084464673647e-02,1.293456952096591270e-02,-2.555294189064601373e-01,-5.196900808870640563e-03,2.294161228827155674e-01,-8.931336018411070721e-02,-1.887891832180384200e-02,-1.114988447232980878e-01,-3.168238716726783782e-02,-3.004993389651596652e-02,2.283881715007995625e-02,3.416601187499012510e-02,-9.135027741580634131e-03,-4.892627296572366578e-03,-5.212276500564927417e-02,5.430547680953247761e-03,2.705080800199517466e-01,-1.873241112603922509e-02,-7.856806113132439040e-02,-9.906506897844935544e-02,1.225176255149847994e-03,6.604187865473193364e-02,3.974721275317867619e-02,6.103009036798617837e-02,-1.377832161125451017e-02,6.907353203699216973e-03,1.324934362262309706e-01,1.270818788310395207e-02,-5.607280073975987045e-02,6.685106290149757380e-02,5.199731870495857833e-02,-1.433495318014822439e-01,5.861205555999592261e-03,9.609846011228760643e-02,-9.808619118498403122e-02,-1.997965514283918109e-01,-2.428602715760817474e-02,6.815638177483368532e-02,-1.246724699789451968e-01,-2.549322796529735966e-02,-5.435944174443670118e-02,8.375468464714830308e-02,5.003866892524904547e-02,1.789088230026683324e-01,1.122416100220309867e-02,-1.510860908659689417e-01,-1.731867921020851242e-01,-4.288525872578805020e-02,-7.532629678714507226e-02,-6.153368631970017322e-02,-1.096274664062982240e-01,1.543213938817099978e-02,9.887189450317693251e-02,-1.501758118091789940e-01,-6.197582957725467773e-02,-1.369756264667177370e-01,-6.420638788369791017e-02,-2.077955122463671922e-02,4.163915273836856640e-02,-3.007318357070612458e-02,8.325900112224653149e-02,5.425136473114401670e-02,1.586490248718652393e-02,-9.853083702602944902e-03,1.419029404681089179e-01,-1.701816623515743088e-01,1.864601588994899417e-01,-1.366558774849607749e-02,5.507992530812203663e-02,-1.644104451733910677e-01,-1.154296053396479532e-01,1.304439160311284818e-01,5.602687084069212647e-02,5.301932024566433088e-02,-9.630313612119183186e-02,-6.487025968676456145e-02,6.194888581701684521e-02,-5.258541280651491019e-03,-1.373347739951017998e-01,1.422834512853487776e-01,-1.738026447603836788e-02,-5.465858532813806792e-02,6.323934850339219850e-03,-1.787703929447699569e-01,2.726078289137612853e-01,1.964671592920733401e-01,1.302569930439647361e-01,9.576767561490574787e-02,5.500520253684084565e-02,3.417616776788925392e-01,-8.356329787143826349e-02,4.178996005244078188e-02,1.096683157821238541e-01,-3.179167791960250261e-02,-5.037014172146900975e-02,-7.958732650210122161e-02,-1.792313826856013204e-01,-5.205770707963432858e-02,1.035216114336309778e-01,-1.053631816557474773e-02,1.527280630017964769e-01,-2.890713926263055109e-02,2.009236032737145294e-02,1.327113846414303688e-01,-1.376604080898053417e-01,5.776250047032149837e-02,-1.201481659670008001e-01,-1.844832797433896832e-01,1.668967119954615497e-01,6.140252463470453892e-02,6.407330852635937692e-03,-6.806930141597458683e-02,1.656916930812484257e-01,-1.401043956789421556e-02,2.450781895515850503e-02,7.150867340830238672e-02,2.155680343301579482e-01,-2.006168096631235076e-01,-3.364009618566451976e-01,6.641770764032951802e-02,1.471019204056005780e-01,3.199768048261434489e-02,-1.688980281172975384e-01,2.369399065627069909e-02,-2.018326755669028472e-01,-9.817085933515639490e-03,1.602819509973514023e-01,-1.144668454680087405e-01,-2.813505862510446986e-01,-6.710744419864333662e-03,-1.056628140101373986e-02,-8.077340580851309453e-04,8.363528894797843394e-02,-5.093197399799245795e-02,2.278294421962282212e-01,1.554998007436595164e-01,2.369177254704348326e-02,8.528866525059214387e-02,-3.421681762950745664e-02,1.080019669076283037e-02,4.097113635470359810e-02,8.455415637777874416e-02,-5.757533639405932463e-02,-9.813744072710602062e-02,1.419515376672581264e-01,1.338397173884964542e-01,5.942743995129731727e-02,1.100286372749166852e-01,2.251763529934201480e-01,-9.788483652823098957e-02,-3.295955482289240207e-02,3.394821971926821613e-02,4.144787212124364378e-02,-2.991053585916026922e-02,-8.330761996963092705e-03,-7.224432066725892942e-02,2.552884823007836937e-02,-1.242338909311426626e-01,1.922569718765436073e-02,5.803084411243448343e-02,1.931765662628159297e-01,-1.083301049315913839e-01,-1.462380574482401718e-01,5.722307339477163829e-02,-2.528883637097992243e-01,1.854629081938661411e-02,1.486808249276216909e-01,-2.596188440136229514e-01,-2.841531921117858572e-01,8.475797689097107346e-02,1.514508520792665902e-01,-1.654092721204435956e-01,-6.204252851651321371e-02,1.420537142028085835e-02,-1.156756970224701309e-01,-5.773794866218648347e-02,1.644856726356312415e-01,5.237128268834803646e-02,-1.692178231758341145e-01,4.179092155355990101e-02,-1.501113580757313659e-01,6.629567793054198799e-02,4.787416318760371464e-02,3.898833533957174902e-03,1.045410715322112327e-01,2.997132926762188232e-01,7.431822461285961245e-02,-6.433137884559718411e-02,-5.666590099273431658e-02,-4.779580349114654139e-03,-8.623162770814656042e-02,-1.172814563946585897e-01,3.750809094943420574e-02,-1.522770383541471872e-01,-1.427542959563873060e-01,7.983085673750379974e-02,-1.304719108603990818e-01,-7.547703880492528938e-02,9.990546133204078472e-02,-2.027496525556017615e-01,-4.021186249386039802e-02,-5.547822393932132570e-03,2.380502091452251293e-02,2.942408426977991334e-02,-2.828019219902098147e-01,1.417565512191217014e-01,-4.284361300536217859e-02,4.938410046679797029e-03,1.167273766091428550e-01,-9.047103108161867746e-02,-2.831243601772525167e-02,1.345438618269622078e-01,-1.131001222236716064e-01,2.227013579865367021e-01,1.049618504823500442e-01,-3.749358380034203964e-02,5.488082881640185540e-02,1.509188595030012681e-01,1.177597127901266472e-01,9.793135077556418266e-02,7.030681464720901774e-02,-4.365488021303755989e-02,3.497293204734605587e-02,5.370839163040156544e-02,-5.420803938861940008e-02,1.172507149179284197e-01,-8.681023957371765409e-02,2.604498793407594021e-02,-4.721056489559688485e-02,1.928573126642185720e-02,1.325208586308306569e-01,-6.617506733741973513e-02,3.381629952691732333e-02,1.685729764970097799e-01,-2.082502847773821109e-01,-1.506490129527410238e-02,-9.436894707716064756e-02,1.003031538797018452e-01,4.263415631405536449e-02,-1.659931085110752658e-01,-1.869153595227486253e-01,1.885898984937053879e-01,6.049944408100993432e-02,-4.300367308836682001e-02,8.038604933234182182e-03,3.254937206794122906e-01,8.992245851060635953e-02,-1.402061835338944407e-01,-8.592676254772774538e-03,1.174119243138855434e-01,6.493380732965289576e-04,1.473279180422221446e-01,1.362415431496637186e-01,-3.034124696378356564e-02,-3.962064026587559101e-02,-6.642980086432480336e-02,1.040017238246089271e-01,2.207082552016029764e-01,1.018369603812362134e-01,-1.924099388072015304e-01,7.355024977310994916e-02,-6.088903624868847314e-02,2.206873728286437852e-01,4.318537332423575542e-02,1.217316360700250871e-01,5.008962688837347715e-02,2.928734285593116368e-02,4.758455467145047274e-02,-7.180326457814016627e-02,1.313710656939213461e-01,-2.758457399878586416e-02,8.181048340961818988e-02,-8.788275239203426070e-02,6.578233688329550299e-02,-1.446472106685786074e-01,1.523285853902119902e-01,-7.224861730537494864e-02,-1.246273268327467432e-01,8.104025574171483393e-02,1.108165826888601463e-01,1.013381909902461436e-01,1.959306469034045040e-01,-1.155334091091131943e-01,-2.311945265062448698e-02,-4.669286795416215455e-03,1.325880448958136060e-01,-4.076599654274545154e-02,-1.584249551493704389e-01,8.321065431937915702e-02,1.582268078757125551e-01,1.464925393171714330e-01,-2.572741573061771217e-02,-2.835793137189156488e-01,1.279485502465222413e-01,5.122299351855517241e-02,-1.098946136097086745e-01,5.497234227886651364e-02,1.241591572937390114e-01,6.007789403343387347e-02,-1.488941595956662922e-01,-2.111595813202413185e-02,8.854934442069133105e-02,-1.761663513120544089e-01,3.177937325715859268e-02,-1.722261259267566028e-02,2.582904678887957758e-02,-9.883603373874533249e-02,-1.195545976939792615e-01,2.249187981172902015e-02,2.241617604894062532e-01,-1.578186879016892918e-01,-1.647648714736582032e-01,-1.755444659345141434e-02,-8.269198999879620593e-02,9.307148249882633839e-02,4.870468282645537376e-03,1.372999544080564377e-02,1.078166766657827000e-02,-1.854335696098006470e-01,1.491474280887947375e-02,2.479415225693107350e-01,1.180327975190938600e-01,-3.377833135539332066e-02,1.079981335986256313e-01,1.192078273941913347e-01,7.853022501993645044e-02,-1.086874691678577642e-01,-8.682452245241878419e-02,-4.370274100579478460e-02,-4.757134755038348872e-02,3.543524090546464750e-02,-2.090092986627016813e-01,-8.697455625478844876e-02,5.411147946231754935e-02,-1.343993033363694370e-02,-3.805696376078131216e-02,2.092306076094235801e-01,1.136352063447873956e-01,1.800511919636318958e-01,2.482587529823758812e-02,2.906096895491512566e-02,-1.395396533631983182e-01,1.113539011146048472e-03,-2.995820239038447796e-02,-6.334465517898892062e-02,-6.999180573360927471e-02,3.829713171779886710e-02,4.313525535950629014e-02,7.143324750931875911e-02,1.551860231246472016e-02,1.374040794890404038e-01,6.001729096055910539e-02,-2.826409340555795929e-02,-3.524290586628314043e-02,-2.562269106274076350e-02,-1.287529980171939377e-02,6.069856766707167756e-02,-1.242832906508234692e-01,7.654914713124519321e-02,-5.961485359283633101e-02,-1.079527448445538190e-01,-1.338302094106674223e-01,4.355602925975905759e-02,-1.822206104840067564e-01,-7.835361442014937561e-02,4.687328427358988803e-02,-7.730710888454959961e-02,4.577803727534358186e-02,-4.770741773967359517e-02,8.142094267669189311e-02,-7.452674303495081254e-02,-1.053737881049017222e-01,3.141282195617303707e-02,-1.787493506036539823e-02,2.847739955606736970e-02,-3.535255223869507996e-02,-6.355852471737954978e-02,-1.254672691267466611e-01,4.442373899285825280e-04,-1.739226281754198966e-01,-2.533061711012458139e-01,6.915240583037937649e-02,-1.626527858636501456e-01,8.120482412133145367e-02,-9.779972354945158652e-02,3.154357926687501729e-02,6.749279363584989588e-02,6.445410765953400734e-02,1.766849023442025601e-01,-1.031806993906533992e-01,1.709781097352831569e-01,9.175796750992551432e-02,7.191409559149361530e-03,1.648503378516786855e-01,1.437546248756864653e-01,-1.453276290443477337e-01,6.607172832096679105e-02,6.942817960793139231e-02,9.260162684078011852e-03,2.431604770874413665e-02,7.343105376474449997e-02,2.160287633353600023e-01,1.022739351984490730e-01,-2.520832278307629237e-01,2.305188130711650213e-02,1.148780983816131557e-01,-4.804807596136153464e-02,-1.420280911717614891e-01,1.362270192290017043e-02,5.602633569081968967e-02,9.802365131983789559e-02,9.137257261419652610e-02,-2.442760436824665815e-01,1.217189292042100386e-03,2.563563236718631715e-03,-1.863203867346982859e-02,-1.716336299469958327e-03,3.203888489451792859e-02,7.246262972289693738e-02,9.080373100826935606e-02,5.979618332513674667e-02,5.556578277187121384e-02,5.783366679138921690e-02,1.334280523507001270e-01,-1.976786674370158703e-01,-6.216797937670479751e-02,2.319258660881433065e-01,6.947190371951418586e-02,-2.923617471953602383e-03,8.777930510488120286e-02,-2.406937453883402911e-01,1.033356009472943815e-01,-1.647944790823075434e-01,-1.357574531809039309e-01,8.242076563810742107e-02,-1.299018049555229481e-01,3.608023061348826499e-02,2.253979005127065283e-01,-1.477781614502096941e-01,-1.027041560291177269e-01,6.968409060055533177e-02,1.383107840585839077e-01,6.823232179038604683e-02,-2.564069746141809381e-01,1.271158784265282449e-01,6.127662754461763589e-02,-2.523810741068659436e-01,-1.076203449956884689e-01,-1.950143454345193983e-01,-2.110325286229375319e-01,7.041078078494424075e-02,-8.647512495890438688e-02,1.175308146835646328e-02,9.117798825745546121e-02,4.533574798256856386e-02,-1.351313970294744371e-01,8.455374836832495189e-02,9.110143174896320750e-02,1.852246901404622503e-01,5.005796998044447638e-02,5.655561503857907402e-02,-3.983303443318327725e-02,5.154396801751624096e-02,1.872300795435549725e-01,1.590124026522548584e-01,1.151396998973137041e-02,5.426617498026672926e-02,-1.384041822204988836e-01,-1.633712571339636099e-01,3.105525622737932354e-02,7.502981448477903659e-02,9.148530294546874941e-02,-6.074274554557294176e-02,1.155385977497103422e-01,2.610028609630672333e-02,2.596458717863243948e-03,3.943261867286702860e-02,1.867658855406934548e-01,1.190081156293684439e-01,2.975057949285788220e-02,-1.162491607252676834e-01,6.498848738577868434e-02,5.787737208092722657e-02,1.386340630803845897e-01,4.468805306180435172e-02,-1.776089531681819822e-01,-7.506859726170012070e-02,7.326875312623706837e-02,-2.171809208722445469e-02,-1.933687205906261808e-01,3.954057650297234522e-02,1.319535318434923721e-01,5.851802961423679256e-02,9.118311785724450558e-02,7.934635965801518920e-02,1.567945928228333397e-01,-1.591784403107937562e-01,1.527259436005668214e-01,1.474362623763215419e-01,1.568943804275807485e-01,-4.763078382979066272e-02,-9.229633672278009238e-02,1.559619334474358909e-01,3.070753067710872003e-02,-7.627123094965934658e-02,3.199070622146202997e-02,1.533511364435128921e-01,3.843704234284144039e-02,-8.828130084724816751e-02,1.506781667104000466e-01,-2.268501705318133888e-01,8.032721505272420737e-03,1.060333367958822132e-01,-2.917447103630320393e-02,2.942143201125759291e-02,-6.662488530136220777e-02,-9.008493317150535751e-02,-7.780564711340341721e-02,-3.877454256586949921e-02,-5.173390610874960965e-02,4.644723812097241444e-02,-2.322826689784439902e-01,2.395850131833266172e-01,-4.505089369076312883e-02,-1.789856663967627770e-01,-9.992223233975046359e-02,-1.233786923153975396e-01,-2.063726556090383912e-01,1.720611932295119939e-01,7.520480123227005209e-02,4.701656513946798899e-02,-6.687214817705640357e-02,3.235958263819127285e-03,-5.402924037142315533e-02,1.788404460850357147e-01,-1.640043782603821387e-01,-1.044602289297326542e-01,-6.496359146677314900e-02,1.010380075267986455e-01,-4.591719006226943622e-02,2.711448809099902338e-02,-1.756426165080843260e-02,9.368706522810028858e-02,-5.610158135301490656e-02,4.108198386068921681e-02,-8.283094293223078330e-02,5.559051272106042135e-02,-1.043834247941935744e-01,1.331880994291154141e-01,-8.835693238489307488e-02,-3.172341761839552604e-02,-6.289342481387025230e-02,9.213748171394919861e-02,-1.626651405103058112e-01,7.236520000281937426e-02,-1.222946551314637318e-03,3.324278752600973857e-02,-1.723539591645651126e-01,5.609165623854300842e-02,1.844522226206282978e-01,-6.467909260741251665e-02,-1.335387193270817785e-02,-3.470688882733542063e-03,-6.164568178256676217e-02,-5.120865647378300758e-03,3.989022643922782337e-03,9.132215496314466385e-02,-2.763946472792370157e-01,-1.151219791769161893e-02,2.788409252151437950e-02,1.192046950104526104e-01,6.250744749466081995e-03,2.136284921658492819e-01,-1.188891109484973702e-01,9.956452216355066165e-02,-1.138599864062268263e-01,2.010095537302204402e-02,-1.379540713273097741e-01,1.519954584911399342e-01,2.924560472089489122e-03,1.086532247735363527e-01,-1.758213304160579152e-02,-2.152813181422318090e-01,-1.492309932924343052e-01,-1.657614257988016329e-02,6.690152750034555895e-02,2.502238924512645846e-01,-7.724460513084542568e-02,1.431125749820063783e-04,1.623927672405324762e-01,-1.206972830987409900e-01,-1.211407975180989194e-02,-1.860170760594629172e-02,-1.421170448239260364e-02,6.849872009259062866e-02,-1.073381672302832351e-01,-9.362831218331403582e-02,1.320935595809838610e-02,-1.425126863576781366e-01,3.092698073247915694e-02,2.950125711314875998e-01,1.737456220531447826e-01,2.383106979082519339e-01,-6.823563827561961170e-02,5.868104534596391142e-02,3.640526863331885327e-02,-5.667153538977501986e-02,-1.310721840351239120e-01,-1.882858348734808840e-01,-2.800339888944183842e-02,7.675590453803256275e-02,1.329766795596654810e-02,1.103602273885107288e-01,7.010388653570669149e-02,-1.069322319664497457e-02,-6.908993447525194065e-02,4.095057292530356746e-02,-6.407744415671913496e-02,4.044942716789041298e-02,-4.062707168621314952e-02,1.514237703718055439e-01,-8.835344619198241822e-02,7.754069117602158112e-02,1.970870261796304201e-01,-1.505435035545515943e-01,-1.237528494518908562e-01,-1.079694995486977366e-01,-1.390807359420038747e-01,-1.439564255009929961e-02,-7.192291314570105343e-02,-7.342887161220425229e-02,-6.555947137230632576e-03,1.009640174942609374e-02,3.565545887618915000e-02,-3.593561673894551250e-02,2.458837787920805096e-01,8.569489475939542911e-02,-4.053290417908436000e-02,3.028706198461673244e-02,-8.235195574237412497e-02,-1.728288814260058870e-01,2.063953070991466354e-01,-2.052451276022494164e-01,3.982384072123087287e-02,3.112088617915687375e-02,-1.568013178782412531e-01,8.960575092503547667e-02,1.564659685949218448e-01,1.441277430796597016e-02,3.349073838184221663e-02,3.262502244576513666e-02,3.143462414968553609e-02,-3.301960221432905917e-03,-9.553509936730200658e-02,-1.660669333033730835e-02,-8.541045382068286618e-02,-5.890887814833465491e-02,-2.264703074710045505e-01,3.802425732619792859e-02,-1.147914295658125639e-01,7.088015397855522426e-02,7.347968816787713020e-02,-2.303973963381388337e-02,-9.694767022929517974e-02,-1.472328577838434016e-01,1.536336897839887111e-02,9.985600940746124088e-02,1.256258060548307715e-02,-5.452841022874421739e-02,-7.928829676341744848e-03,-1.368936431428710576e-01,2.971753472496828641e-01,3.834204749232663079e-01,1.656779774865758115e-01,2.423941008243118977e-02,-7.208547877916025859e-02,1.963374970790994767e-01,4.532921806694054090e-03,3.014071467544319691e-02,-2.344837328569100154e-01,1.293105642249364057e-02,9.775108686830942528e-02,-1.961509818582814757e-01,-6.680153696906700189e-02,-1.381676276248680786e-02,-2.719692708452877139e-01,3.036695759521056137e-02,-1.095944216633698565e-01,-6.039218230955620964e-02,-6.372407832134804884e-02,7.100913671906106117e-02,9.824033453148774131e-02,9.114484969700027694e-02,-9.482279013309399818e-02,-5.698022958238324609e-02,4.262904557510798637e-02,-8.697206629170844971e-02,1.472629944929285117e-02,1.076793099990250857e-01,-5.322993077568861225e-02,-1.980315949438639367e-01,-9.085095391177129553e-02,-7.049129403707229957e-02,1.426361376165509454e-01,5.085158862705446703e-02,-9.492940656711512659e-02,1.809293477559101582e-01,1.222186681509632861e-01,1.297409190793089862e-01,4.074950716235760384e-02,1.631272128939993335e-02,-1.538896448203141420e-01,5.791238359073869191e-02,2.458459312832911997e-02,-8.514613403230911204e-02,1.121961834392563168e-02,9.063495596426177081e-03,8.502673278357178108e-03,-3.528615838632113283e-02,-2.466167552866766702e-03,-2.577454764704286902e-02,5.424582987564546127e-02,2.522150287939247532e-02,1.582574039511424127e-02,-1.028858363980909990e-01,2.153139544636727409e-01,-5.186386824157858400e-02,1.264761748698400856e-01,-1.380742934058755977e-01,-3.287835553277422551e-02,-4.528089126207313769e-02,1.043466529574932355e-01,-7.233668419084983425e-02,2.551165751096332035e-01,-1.040151974761368420e-01,1.406407390517401025e-02,-1.275336367913288138e-01,-1.980873896551893845e-02,1.110175524702221583e-01,-1.012294177344569140e-01,-2.811787555585236742e-01,2.508193942995117637e-02,-3.013572171966040492e-02,-8.977813187882774382e-02,1.935536134711273587e-02,2.258717955923682935e-02,1.400818496938876778e-01,4.947658602978453890e-02,1.438793006879545977e-01,2.491164424043840545e-02,5.987278393979572448e-03,4.334511200528434055e-02,-5.320230445912680489e-02,-9.537920917261687170e-02,-8.724990746656699492e-02,-2.741956105943940073e-03,-4.439510662032637028e-02,3.772793926814350246e-02,3.528127664437498423e-02,-1.623544055982301393e-01,8.060895557624181418e-02,-1.209296546176695381e-01,-1.049227378275803951e-01,1.188118406993340787e-01,-6.836703529965963699e-02,-1.736549357751826783e-01,1.449875351334907747e-01,7.836095944468447760e-02,-1.168151449513053636e-01,-5.503948588870301306e-02,-1.102313825378791468e-01,-7.636455791068801069e-02,-7.888357955081552395e-03,-2.448019047181688654e-02,8.561338436738580998e-03,6.157741707193226111e-02,-6.720245202052332889e-02,3.465163072894844598e-02,1.670656966818175049e-01,6.903261626416846986e-02,9.367058690485820238e-02,1.559684098488595301e-02,4.956860424057924625e-02,3.794243611892186840e-02,-7.692912160612912220e-02,-5.517396630945359259e-02,-1.518983306837139446e-01,-7.825640696494812198e-02,1.042157911870760512e-01,1.063482159258779675e-01,-7.383548768557825215e-02,2.879549724928829463e-02,3.805651262546307090e-02,1.309908749689101537e-01,-7.943086504739009512e-02,2.140087296268318728e-01,-1.615066317642825933e-01,1.050500968853844835e-01,-3.768973092431186084e-02,-1.326510495123154332e-01,-8.974817240464809387e-02,-2.370676611964212810e-01,3.542115105932916452e-02,8.077035477229480009e-02,-4.508220132118823803e-02,3.770968691594742128e-02,-2.419655333557950427e-01,-4.521566002834360304e-02,-1.258162648978916609e-01,1.004531544649215902e-01,2.735521283938002757e-02,3.200136265206824943e-03,-1.099897568909426193e-02,-1.636494447335293256e-02,8.643014193015646773e-02,-9.625138637327734781e-02,1.011492068408136602e-01,7.788278360333752981e-02,1.109993272215438198e-01,-2.686977272746838424e-02,1.160724861662993102e-01,1.080024866927252192e-01,5.288366330667457205e-02,1.202108686948165639e-01,-3.620627025298443769e-02,6.091049189120119811e-04,1.426838520781719966e-01,2.096629321372599775e-01,-1.567395840425817310e-01,1.016282378045375856e-01,-1.178876978381959428e-01,2.895304426031027750e-02,-5.086591613486069613e-02,2.849279818706006856e-02,-2.189997082433386977e-02,4.733123928930871305e-02,7.289836317782386055e-02,-2.689168744733243938e-02,7.478023371649350493e-02,-2.083366853515279671e-02,7.640583979947476734e-02,1.256693335043096438e-01,2.443240249330082270e-02,3.123515775194760091e-02,-1.723483109271740643e-01,-6.926515371110658625e-02,-5.434176373028580531e-02,-7.142067298558959013e-03,-1.320783945743979615e-01,-1.221827137604695745e-01,2.131984285382662343e-04,2.870642084657827608e-02,1.065434869426084563e-01,1.511995367774933985e-01,6.074974406680757472e-02,-2.884930336711953244e-02,7.709598005222864647e-02,-7.191078071120757254e-02,2.930566684007533673e-02,1.869214870692501307e-01,1.552812873328477117e-01,-2.231464611123649966e-02,1.049602645622011998e-01,-3.086780793732454842e-02,-5.358670692346536452e-02,-1.530098426567923497e-01,6.161291042619534974e-02,3.851797253186766551e-02,1.063732958324526967e-01,8.851610885892211011e-02,-2.202813926915914849e-02,9.423405509165708183e-02,1.959969695776903054e-01,-5.959925548173018728e-02
